{"learner":{"attributes":{},"feature_names":["temperature_2m","temperature_2m_min","temperature_2m_max","precipitation","potential_evaporation_sum","total_evaporation_sum","evaporative_stress_index","aridity_index","temperature_2m_ANOM","temperature_2m_min_ANOM","temperature_2m_max_ANOM","potential_evaporation_sum_ANOM","total_evaporation_sum_ANOM","precipitation_ANOM","ANOM1+2","ANOM3","ANOM4","ANOM3.4","DMI","DMI_East","Incidence_Rate_lag1","Class_70","Class_60","Class_50","Class_40","Class_95","Class_30","Class_20","Class_10","Class_90","Class_80","temperature_2m_lag1","temperature_2m_lag2","temperature_2m_lag3","temperature_2m_min_lag1","temperature_2m_min_lag2","temperature_2m_min_lag3","temperature_2m_max_lag1","temperature_2m_max_lag2","temperature_2m_max_lag3","precipitation_lag1","precipitation_lag2","precipitation_lag3","potential_evaporation_sum_lag1","potential_evaporation_sum_lag2","potential_evaporation_sum_lag3","total_evaporation_sum_lag1","total_evaporation_sum_lag2","total_evaporation_sum_lag3","evaporative_stress_index_lag1","evaporative_stress_index_lag2","evaporative_stress_index_lag3","aridity_index_lag1","aridity_index_lag2","aridity_index_lag3","temperature_2m_ANOM_lag1","temperature_2m_ANOM_lag2","temperature_2m_ANOM_lag3","temperature_2m_min_ANOM_lag1","temperature_2m_min_ANOM_lag2","temperature_2m_min_ANOM_lag3","temperature_2m_max_ANOM_lag1","temperature_2m_max_ANOM_lag2","temperature_2m_max_ANOM_lag3","potential_evaporation_sum_ANOM_lag1","potential_evaporation_sum_ANOM_lag2","potential_evaporation_sum_ANOM_lag3","total_evaporation_sum_ANOM_lag1","total_evaporation_sum_ANOM_lag2","total_evaporation_sum_ANOM_lag3","precipitation_ANOM_lag1","precipitation_ANOM_lag2","precipitation_ANOM_lag3","ANOM1+2_lag1","ANOM1+2_lag2","ANOM1+2_lag3","ANOM3_lag1","ANOM3_lag2","ANOM3_lag3","ANOM4_lag1","ANOM4_lag2","ANOM4_lag3","ANOM3.4_lag1","ANOM3.4_lag2","ANOM3.4_lag3","DMI_lag1","DMI_lag2","DMI_lag3","DMI_East_lag1","DMI_East_lag2","DMI_East_lag3"],"feature_types":["float","float","float","float","float","float","float","float","float","float","float","float","float","float","float","float","float","float","float","float","float","float","float","float","float","float","float","float","float","float","float","float","float","float","float","float","float","float","float","float","float","float","float","float","float","float","float","float","float","float","float","float","float","float","float","float","float","float","float","float","float","float","float","float","float","float","float","float","float","float","float","float","float","float","float","float","float","float","float","float","float","float","float","float","float","float","float","float","float","float","float"],"gradient_booster":{"model":{"gbtree_model_param":{"num_parallel_tree":"1","num_trees":"2304"},"iteration_indptr":[0,3,6,9,12,15,18,21,24,27,30,33,36,39,42,45,48,51,54,57,60,63,66,69,72,75,78,81,84,87,90,93,96,99,102,105,108,111,114,117,120,123,126,129,132,135,138,141,144,147,150,153,156,159,162,165,168,171,174,177,180,183,186,189,192,195,198,201,204,207,210,213,216,219,222,225,228,231,234,237,240,243,246,249,252,255,258,261,264,267,270,273,276,279,282,285,288,291,294,297,300,303,306,309,312,315,318,321,324,327,330,333,336,339,342,345,348,351,354,357,360,363,366,369,372,375,378,381,384,387,390,393,396,399,402,405,408,411,414,417,420,423,426,429,432,435,438,441,444,447,450,453,456,459,462,465,468,471,474,477,480,483,486,489,492,495,498,501,504,507,510,513,516,519,522,525,528,531,534,537,540,543,546,549,552,555,558,561,564,567,570,573,576,579,582,585,588,591,594,597,600,603,606,609,612,615,618,621,624,627,630,633,636,639,642,645,648,651,654,657,660,663,666,669,672,675,678,681,684,687,690,693,696,699,702,705,708,711,714,717,720,723,726,729,732,735,738,741,744,747,750,753,756,759,762,765,768,771,774,777,780,783,786,789,792,795,798,801,804,807,810,813,816,819,822,825,828,831,834,837,840,843,846,849,852,855,858,861,864,867,870,873,876,879,882,885,888,891,894,897,900,903,906,909,912,915,918,921,924,927,930,933,936,939,942,945,948,951,954,957,960,963,966,969,972,975,978,981,984,987,990,993,996,999,1002,1005,1008,1011,1014,1017,1020,1023,1026,1029,1032,1035,1038,1041,1044,1047,1050,1053,1056,1059,1062,1065,1068,1071,1074,1077,1080,1083,1086,1089,1092,1095,1098,1101,1104,1107,1110,1113,1116,1119,1122,1125,1128,1131,1134,1137,1140,1143,1146,1149,1152,1155,1158,1161,1164,1167,1170,1173,1176,1179,1182,1185,1188,1191,1194,1197,1200,1203,1206,1209,1212,1215,1218,1221,1224,1227,1230,1233,1236,1239,1242,1245,1248,1251,1254,1257,1260,1263,1266,1269,1272,1275,1278,1281,1284,1287,1290,1293,1296,1299,1302,1305,1308,1311,1314,1317,1320,1323,1326,1329,1332,1335,1338,1341,1344,1347,1350,1353,1356,1359,1362,1365,1368,1371,1374,1377,1380,1383,1386,1389,1392,1395,1398,1401,1404,1407,1410,1413,1416,1419,1422,1425,1428,1431,1434,1437,1440,1443,1446,1449,1452,1455,1458,1461,1464,1467,1470,1473,1476,1479,1482,1485,1488,1491,1494,1497,1500,1503,1506,1509,1512,1515,1518,1521,1524,1527,1530,1533,1536,1539,1542,1545,1548,1551,1554,1557,1560,1563,1566,1569,1572,1575,1578,1581,1584,1587,1590,1593,1596,1599,1602,1605,1608,1611,1614,1617,1620,1623,1626,1629,1632,1635,1638,1641,1644,1647,1650,1653,1656,1659,1662,1665,1668,1671,1674,1677,1680,1683,1686,1689,1692,1695,1698,1701,1704,1707,1710,1713,1716,1719,1722,1725,1728,1731,1734,1737,1740,1743,1746,1749,1752,1755,1758,1761,1764,1767,1770,1773,1776,1779,1782,1785,1788,1791,1794,1797,1800,1803,1806,1809,1812,1815,1818,1821,1824,1827,1830,1833,1836,1839,1842,1845,1848,1851,1854,1857,1860,1863,1866,1869,1872,1875,1878,1881,1884,1887,1890,1893,1896,1899,1902,1905,1908,1911,1914,1917,1920,1923,1926,1929,1932,1935,1938,1941,1944,1947,1950,1953,1956,1959,1962,1965,1968,1971,1974,1977,1980,1983,1986,1989,1992,1995,1998,2001,2004,2007,2010,2013,2016,2019,2022,2025,2028,2031,2034,2037,2040,2043,2046,2049,2052,2055,2058,2061,2064,2067,2070,2073,2076,2079,2082,2085,2088,2091,2094,2097,2100,2103,2106,2109,2112,2115,2118,2121,2124,2127,2130,2133,2136,2139,2142,2145,2148,2151,2154,2157,2160,2163,2166,2169,2172,2175,2178,2181,2184,2187,2190,2193,2196,2199,2202,2205,2208,2211,2214,2217,2220,2223,2226,2229,2232,2235,2238,2241,2244,2247,2250,2253,2256,2259,2262,2265,2268,2271,2274,2277,2280,2283,2286,2289,2292,2295,2298,2301,2304],"tree_info":[0,1,2,0,1,2,0,1,2,0,1,2,0,1,2,0,1,2,0,1,2,0,1,2,0,1,2,0,1,2,0,1,2,0,1,2,0,1,2,0,1,2,0,1,2,0,1,2,0,1,2,0,1,2,0,1,2,0,1,2,0,1,2,0,1,2,0,1,2,0,1,2,0,1,2,0,1,2,0,1,2,0,1,2,0,1,2,0,1,2,0,1,2,0,1,2,0,1,2,0,1,2,0,1,2,0,1,2,0,1,2,0,1,2,0,1,2,0,1,2,0,1,2,0,1,2,0,1,2,0,1,2,0,1,2,0,1,2,0,1,2,0,1,2,0,1,2,0,1,2,0,1,2,0,1,2,0,1,2,0,1,2,0,1,2,0,1,2,0,1,2,0,1,2,0,1,2,0,1,2,0,1,2,0,1,2,0,1,2,0,1,2,0,1,2,0,1,2,0,1,2,0,1,2,0,1,2,0,1,2,0,1,2,0,1,2,0,1,2,0,1,2,0,1,2,0,1,2,0,1,2,0,1,2,0,1,2,0,1,2,0,1,2,0,1,2,0,1,2,0,1,2,0,1,2,0,1,2,0,1,2,0,1,2,0,1,2,0,1,2,0,1,2,0,1,2,0,1,2,0,1,2,0,1,2,0,1,2,0,1,2,0,1,2,0,1,2,0,1,2,0,1,2,0,1,2,0,1,2,0,1,2,0,1,2,0,1,2,0,1,2,0,1,2,0,1,2,0,1,2,0,1,2,0,1,2,0,1,2,0,1,2,0,1,2,0,1,2,0,1,2,0,1,2,0,1,2,0,1,2,0,1,2,0,1,2,0,1,2,0,1,2,0,1,2,0,1,2,0,1,2,0,1,2,0,1,2,0,1,2,0,1,2,0,1,2,0,1,2,0,1,2,0,1,2,0,1,2,0,1,2,0,1,2,0,1,2,0,1,2,0,1,2,0,1,2,0,1,2,0,1,2,0,1,2,0,1,2,0,1,2,0,1,2,0,1,2,0,1,2,0,1,2,0,1,2,0,1,2,0,1,2,0,1,2,0,1,2,0,1,2,0,1,2,0,1,2,0,1,2,0,1,2,0,1,2,0,1,2,0,1,2,0,1,2,0,1,2,0,1,2,0,1,2,0,1,2,0,1,2,0,1,2,0,1,2,0,1,2,0,1,2,0,1,2,0,1,2,0,1,2,0,1,2,0,1,2,0,1,2,0,1,2,0,1,2,0,1,2,0,1,2,0,1,2,0,1,2,0,1,2,0,1,2,0,1,2,0,1,2,0,1,2,0,1,2,0,1,2,0,1,2,0,1,2,0,1,2,0,1,2,0,1,2,0,1,2,0,1,2,0,1,2,0,1,2,0,1,2,0,1,2,0,1,2,0,1,2,0,1,2,0,1,2,0,1,2,0,1,2,0,1,2,0,1,2,0,1,2,0,1,2,0,1,2,0,1,2,0,1,2,0,1,2,0,1,2,0,1,2,0,1,2,0,1,2,0,1,2,0,1,2,0,1,2,0,1,2,0,1,2,0,1,2,0,1,2,0,1,2,0,1,2,0,1,2,0,1,2,0,1,2,0,1,2,0,1,2,0,1,2,0,1,2,0,1,2,0,1,2,0,1,2,0,1,2,0,1,2,0,1,2,0,1,2,0,1,2,0,1,2,0,1,2,0,1,2,0,1,2,0,1,2,0,1,2,0,1,2,0,1,2,0,1,2,0,1,2,0,1,2,0,1,2,0,1,2,0,1,2,0,1,2,0,1,2,0,1,2,0,1,2,0,1,2,0,1,2,0,1,2,0,1,2,0,1,2,0,1,2,0,1,2,0,1,2,0,1,2,0,1,2,0,1,2,0,1,2,0,1,2,0,1,2,0,1,2,0,1,2,0,1,2,0,1,2,0,1,2,0,1,2,0,1,2,0,1,2,0,1,2,0,1,2,0,1,2,0,1,2,0,1,2,0,1,2,0,1,2,0,1,2,0,1,2,0,1,2,0,1,2,0,1,2,0,1,2,0,1,2,0,1,2,0,1,2,0,1,2,0,1,2,0,1,2,0,1,2,0,1,2,0,1,2,0,1,2,0,1,2,0,1,2,0,1,2,0,1,2,0,1,2,0,1,2,0,1,2,0,1,2,0,1,2,0,1,2,0,1,2,0,1,2,0,1,2,0,1,2,0,1,2,0,1,2,0,1,2,0,1,2,0,1,2,0,1,2,0,1,2,0,1,2,0,1,2,0,1,2,0,1,2,0,1,2,0,1,2,0,1,2,0,1,2,0,1,2,0,1,2,0,1,2,0,1,2,0,1,2,0,1,2,0,1,2,0,1,2,0,1,2,0,1,2,0,1,2,0,1,2,0,1,2,0,1,2,0,1,2,0,1,2,0,1,2,0,1,2,0,1,2,0,1,2,0,1,2,0,1,2,0,1,2,0,1,2,0,1,2,0,1,2,0,1,2,0,1,2,0,1,2,0,1,2,0,1,2,0,1,2,0,1,2,0,1,2,0,1,2,0,1,2,0,1,2,0,1,2,0,1,2,0,1,2,0,1,2,0,1,2,0,1,2,0,1,2,0,1,2,0,1,2,0,1,2,0,1,2,0,1,2,0,1,2,0,1,2,0,1,2,0,1,2,0,1,2,0,1,2,0,1,2,0,1,2,0,1,2,0,1,2,0,1,2,0,1,2,0,1,2,0,1,2,0,1,2,0,1,2,0,1,2,0,1,2,0,1,2,0,1,2,0,1,2,0,1,2,0,1,2,0,1,2,0,1,2,0,1,2,0,1,2,0,1,2,0,1,2,0,1,2,0,1,2,0,1,2,0,1,2,0,1,2,0,1,2,0,1,2,0,1,2,0,1,2,0,1,2,0,1,2,0,1,2,0,1,2,0,1,2,0,1,2,0,1,2,0,1,2,0,1,2,0,1,2,0,1,2,0,1,2,0,1,2,0,1,2,0,1,2,0,1,2,0,1,2,0,1,2,0,1,2,0,1,2,0,1,2,0,1,2,0,1,2,0,1,2,0,1,2,0,1,2,0,1,2,0,1,2,0,1,2,0,1,2,0,1,2,0,1,2,0,1,2,0,1,2,0,1,2,0,1,2,0,1,2,0,1,2,0,1,2,0,1,2,0,1,2,0,1,2,0,1,2,0,1,2,0,1,2,0,1,2,0,1,2,0,1,2,0,1,2,0,1,2,0,1,2,0,1,2,0,1,2,0,1,2,0,1,2,0,1,2,0,1,2,0,1,2,0,1,2,0,1,2,0,1,2,0,1,2,0,1,2,0,1,2,0,1,2,0,1,2,0,1,2,0,1,2,0,1,2,0,1,2,0,1,2,0,1,2,0,1,2,0,1,2,0,1,2,0,1,2,0,1,2,0,1,2,0,1,2,0,1,2,0,1,2,0,1,2,0,1,2,0,1,2,0,1,2,0,1,2,0,1,2,0,1,2,0,1,2,0,1,2,0,1,2,0,1,2,0,1,2,0,1,2,0,1,2,0,1,2,0,1,2,0,1,2,0,1,2,0,1,2,0,1,2,0,1,2,0,1,2,0,1,2,0,1,2,0,1,2,0,1,2,0,1,2,0,1,2,0,1,2,0,1,2,0,1,2,0,1,2,0,1,2,0,1,2,0,1,2,0,1,2,0,1,2,0,1,2,0,1,2,0,1,2,0,1,2,0,1,2,0,1,2,0,1,2,0,1,2,0,1,2,0,1,2,0,1,2,0,1,2,0,1,2,0,1,2,0,1,2,0,1,2,0,1,2,0,1,2,0,1,2,0,1,2,0,1,2,0,1,2,0,1,2,0,1,2,0,1,2,0,1,2,0,1,2,0,1,2,0,1,2,0,1,2,0,1,2,0,1,2,0,1,2,0,1,2,0,1,2,0,1,2,0,1,2,0,1,2,0,1,2,0,1,2,0,1,2,0,1,2,0,1,2,0,1,2,0,1,2,0,1,2,0,1,2,0,1,2,0,1,2,0,1,2,0,1,2,0,1,2,0,1,2,0,1,2,0,1,2,0,1,2,0,1,2,0,1,2,0,1,2,0,1,2,0,1,2,0,1,2,0,1,2,0,1,2,0,1,2,0,1,2,0,1,2,0,1,2,0,1,2,0,1,2,0,1,2,0,1,2,0,1,2,0,1,2,0,1,2,0,1,2,0,1,2,0,1,2,0,1,2,0,1,2,0,1,2,0,1,2,0,1,2,0,1,2,0,1,2,0,1,2,0,1,2,0,1,2,0,1,2,0,1,2,0,1,2,0,1,2,0,1,2,0,1,2,0,1,2,0,1,2,0,1,2,0,1,2,0,1,2,0,1,2,0,1,2,0,1,2,0,1,2,0,1,2,0,1,2,0,1,2,0,1,2,0,1,2,0,1,2,0,1,2,0,1,2,0,1,2,0,1,2,0,1,2,0,1,2,0,1,2,0,1,2,0,1,2,0,1,2,0,1,2,0,1,2,0,1,2,0,1,2,0,1,2,0,1,2,0,1,2,0,1,2,0,1,2,0,1,2,0,1,2,0,1,2,0,1,2,0,1,2,0,1,2,0,1,2,0,1,2,0,1,2,0,1,2,0,1,2,0,1,2,0,1,2,0,1,2,0,1,2,0,1,2,0,1,2,0,1,2,0,1,2,0,1,2,0,1,2,0,1,2,0,1,2,0,1,2,0,1,2,0,1,2,0,1,2,0,1,2,0,1,2,0,1,2,0,1,2,0,1,2,0,1,2,0,1,2,0,1,2,0,1,2,0,1,2,0,1,2,0,1,2,0,1,2,0,1,2,0,1,2,0,1,2,0,1,2,0,1,2,0,1,2,0,1,2,0,1,2,0,1,2,0,1,2,0,1,2,0,1,2,0,1,2,0,1,2,0,1,2,0,1,2,0,1,2,0,1,2,0,1,2,0,1,2,0,1,2,0,1,2,0,1,2,0,1,2,0,1,2,0,1,2,0,1,2,0,1,2,0,1,2,0,1,2,0,1,2,0,1,2,0,1,2,0,1,2,0,1,2,0,1,2,0,1,2,0,1,2,0,1,2,0,1,2,0,1,2,0,1,2,0,1,2,0,1,2,0,1,2,0,1,2,0,1,2,0,1,2,0,1,2,0,1,2,0,1,2,0,1,2,0,1,2,0,1,2,0,1,2,0,1,2,0,1,2],"trees":[{"base_weights":[-1.02068074E-1,9.777111E-1,-5.375716E-1,1.1240249E0,6.0903317E-1,-3.527615E-1,-6.175015E-1,1.2926042E0,9.7378117E-1,5.126151E-1,9.298563E-1,-1.8670522E-1,-5.0693035E-1,-2.9179263E-1,-6.329845E-1,2.6532084E-2,7.726029E-1,8.932951E-1,1.2096115E0,2.7261151E-2,4.7759646E-1,2.2746997E-2,1.6055463E-2,-1.0573364E-2,-1.578737E-1,-3.9271572E-1,-5.8491E-1,-9.4984286E-2,-9.319266E-3,-5.391364E-1,-6.6814345E-1,5.4738224E-3,1.8369766E-2,9.851636E-1,6.7917776E-1,2.6909608E-2,9.438297E-1,5.0036675E-1,-4.994518E-3,-1.7924951E-1,2.7238753E-1,-4.1958004E-1,-2.3030092E-3,-5.569881E-3,-1.2182452E-2,6.036263E-3,-1.6276842E-1,-4.3733278E-1,-6.29749E-1,-7.6030255E-3,-1.3539572E-2,2.0091323E-2,3.5622944E-3,1.10468315E-2,1.892372E-2,2.0961454E-2,2.1344032E-3,-3.8315495E-3,1.0429869E-2,-2.2653136E-3,-5.8023273E-3,1.038493E-2,-3.7731885E-4,-5.962596E-3,-9.857168E-3,-6.8747676E-3,-1.10384746E-4,-3.1991608E-3,-9.506957E-3,-1.2887306E-2,-2.2106182E-3],"categories":[],"categories_nodes":[],"categories_segments":[],"categories_sizes":[],"default_left":[0,0,0,0,0,0,0,0,0,0,0,0,0,0,0,0,0,0,0,0,0,0,0,0,0,0,0,0,0,0,0,0,0,0,0,0,0,0,0,0,0,0,0,0,0,0,0,0,0,0,0,0,0,0,0,0,0,0,0,0,0,0,0,0,0,0,0,0,0,0,0],"id":0,"left_children":[1,3,5,7,9,11,13,15,17,19,21,23,25,27,29,-1,31,33,35,-1,37,-1,-1,-1,39,41,43,45,-1,47,49,-1,-1,51,53,-1,55,57,-1,59,61,63,-1,-1,-1,-1,65,67,69,-1,-1,-1,-1,-1,-1,-1,-1,-1,-1,-1,-1,-1,-1,-1,-1,-1,-1,-1,-1,-1,-1],"loss_changes":[1.2158532E4,3.9594385E2,2.703623E2,1.26041504E2,6.2176636E1,1.4186816E2,6.322754E1,2.382373E1,4.6401123E1,4.3735687E1,6.5355225E0,2.5407967E1,2.3845032E1,1.9427204E1,3.7709473E1,0E0,6.532593E0,3.7244385E1,1.4954102E1,0E0,2.7142395E1,0E0,0E0,0E0,2.3165989E1,8.337524E0,8.810913E0,7.8299847E0,0E0,2.8957153E1,7.439453E0,0E0,0E0,1.2366943E1,1.8734436E1,0E0,1.8605118E1,1.9050323E1,0E0,1.687938E1,8.756646E0,8.03978E0,0E0,0E0,0E0,0E0,6.760044E0,1.4650543E1,8.099976E0,0E0,0E0,0E0,0E0,0E0,0E0,0E0,0E0,0E0,0E0,0E0,0E0,0E0,0E0,0E0,0E0,0E0,0E0,0E0,0E0,0E0,0E0],"parents":[2147483647,0,0,1,1,2,2,3,3,4,4,5,5,6,6,7,7,8,8,9,9,10,10,11,11,12,12,13,13,14,14,16,16,17,17,18,18,20,20,24,24,25,25,26,26,27,27,29,29,30,30,33,33,34,34,36,36,37,37,39,39,40,40,41,41,46,46,47,47,48,48],"right_children":[2,4,6,8,10,12,14,16,18,20,22,24,26,28,30,-1,32,34,36,-1,38,-1,-1,-1,40,42,44,46,-1,48,50,-1,-1,52,54,-1,56,58,-1,60,62,64,-1,-1,-1,-1,66,68,70,-1,-1,-1,-1,-1,-1,-1,-1,-1,-1,-1,-1,-1,-1,-1,-1,-1,-1,-1,-1,-1,-1],"split_conditions":[2.5582775E-2,2.3932423E-2,1.2212945E0,9.720603E-4,1.393349E-1,8.192236E-2,2.9144608E-4,9.8043716E-1,1.12209715E-1,4.968372E-3,4.2764835E-2,4.462892E-1,4.928609E-1,4.8637247E0,2.3686018E0,2.6532084E-2,3.2294843E-1,3.4133863E-4,2.9191212E1,2.7261151E-2,9.6E-1,2.2746997E-2,1.6055463E-2,-1.0573364E-2,1.3790056E-1,3.5595214E-3,2.6241623E1,2.6548404E2,-9.319266E-3,7.082245E-2,2.0734873E1,5.4738224E-3,1.8369766E-2,1.1269385E0,1.4441667E-2,2.6909608E-2,7.3439753E-1,-1.44E0,-4.994518E-3,3.2730782E-4,2.834542E1,2.2459352E1,-2.3030092E-3,-5.569881E-3,-1.2182452E-2,6.036263E-3,5.766005E-3,2.2262543E1,2.0920731E-1,-7.6030255E-3,-1.3539572E-2,2.0091323E-2,3.5622944E-3,1.10468315E-2,1.892372E-2,2.0961454E-2,2.1344032E-3,-3.8315495E-3,1.0429869E-2,-2.2653136E-3,-5.8023273E-3,1.038493E-2,-3.7731885E-4,-5.962596E-3,-9.857168E-3,-6.8747676E-3,-1.10384746E-4,-3.1991608E-3,-9.506957E-3,-1.2887306E-2,-2.2106182E-3],"split_indices":[20,24,20,24,26,24,24,28,26,26,24,28,20,20,20,0,49,27,38,0,79,0,0,0,26,27,37,44,0,24,33,0,0,63,27,0,28,17,0,27,38,1,0,0,0,0,25,33,26,0,0,0,0,0,0,0,0,0,0,0,0,0,0,0,0,0,0,0,0,0,0],"split_type":[0,0,0,0,0,0,0,0,0,0,0,0,0,0,0,0,0,0,0,0,0,0,0,0,0,0,0,0,0,0,0,0,0,0,0,0,0,0,0,0,0,0,0,0,0,0,0,0,0,0,0,0,0,0,0,0,0,0,0,0,0,0,0,0,0,0,0,0,0,0,0],"sum_hessian":[2.5843998E4,7.425333E3,1.8418666E4,5.3062217E3,2.119111E3,5.5724443E3,1.2846222E4,2.4782222E3,2.8279998E3,1.6422222E3,4.7688885E2,2.6906665E3,2.8817776E3,5.897778E2,1.2256443E4,2.3599998E3,1.1822221E2,2.1306665E3,6.973333E2,5.6444443E1,1.5857777E3,1.7244443E2,3.0444443E2,2.0222221E2,2.4884443E3,1.1862222E3,1.6955554E3,2.7955554E2,3.102222E2,3.370222E3,8.886222E3,3.0222221E1,8.799999E1,1.4746666E3,6.5599994E2,4.5644443E2,2.4088887E2,1.5399999E3,4.5777775E1,2.375111E3,1.1333333E2,1.0773333E3,1.08888885E2,1.0799999E2,1.5875554E3,3.6888885E1,2.4266666E2,1.6057777E3,1.7644443E3,1.1999999E2,8.766222E3,1.4515554E3,2.311111E1,4.493333E2,2.0666666E2,2.1422221E2,2.6666664E1,3.511111E1,1.5048888E3,1.4808888E3,8.9422217E2,6.0444443E1,5.2888885E1,4.013333E2,6.7599994E2,1.08888885E2,1.3377777E2,1.8177777E2,1.4239999E3,1.7297777E3,3.4666664E1],"tree_param":{"num_deleted":"0","num_feature":"91","num_nodes":"71","size_leaf_vector":"1"}},{"base_weights":[5.3484816E-2,-1.4677972E-1,3.798696E-1,-4.8424232E-1,-4.558332E-2,2.9118186E-1,6.893571E-1,-2.011643E-1,-5.496925E-1,-2.838533E-1,3.676408E-2,2.8781421E-2,4.1345382E-1,7.283354E-1,3.915898E-2,-5.013241E-1,-9.848108E-2,-1.40562095E-2,-4.7937533E-1,-8.1822716E-2,-3.7752512E-1,-6.7174844E-2,1.5160191E-1,1.3924779E-1,-2.6174635E-1,5.0816065E-1,7.307408E-2,2.3414752E-1,7.677908E-1,2.8221455E-1,-4.685465E-3,2.403369E-3,-1.3291665E-2,1.18315205E-1,-4.2543784E-3,-5.083868E-1,-2.4198958E-1,-3.7319863E-1,1.8944344E-1,6.2528355E-3,-4.1059804E-1,2.1777019E-2,-1.9674264E-1,1.0259003E-2,2.413902E-1,-1.3946238E-1,2.7814275E-1,-3.049148E-1,7.687391E-3,3.0980366E-1,6.316445E-1,2.8529763E-1,-1.10095054E-1,-2.3646802E-3,4.5713955E-1,7.88457E-1,-0E0,-0E0,1.4044948E-2,4.308066E-3,-6.719754E-3,-1.1070452E-2,-7.3059765E-3,-8.823278E-3,-5.7430245E-4,-1.0148072E-2,1.4128658E-3,-1.1191238E-2,6.711377E-3,6.186037E-3,-2.4030872E-3,-2.1869862E-3,-8.843298E-3,-6.934441E-3,1.4782945E-3,-5.8234176E-3,2.9254172E-3,4.9628895E-3,-1.9521307E-3,4.4840584E-3,1.9952385E-2,-5.7499544E-3,1.2676986E-3,3.4313528E-3,1.3086129E-2,2.4842941E-3,-7.137956E-3,7.4340677E-4,9.800478E-3,1.6364265E-2,1.0680246E-2,6.5840455E-3,-6.329915E-3,-2.9380084E-4,-1.0801934E-2,1.361231E-2,-2.1344048E-3,1.6835451E-2,9.708E-3],"categories":[],"categories_nodes":[],"categories_segments":[],"categories_sizes":[],"default_left":[0,0,0,0,0,0,0,0,0,0,0,0,0,0,0,0,0,0,0,0,0,0,0,0,0,0,0,0,0,0,0,0,0,0,0,0,0,0,0,0,0,0,0,0,0,0,0,0,0,0,0,0,0,0,0,0,0,0,0,0,0,0,0,0,0,0,0,0,0,0,0,0,0,0,0,0,0,0,0,0,0,0,0,0,0,0,0,0,0,0,0,0,0,0,0,0,0,0,0],"id":1,"left_children":[1,3,5,7,9,11,13,15,17,19,21,23,25,27,29,31,33,-1,35,37,39,41,43,45,47,49,51,53,55,57,-1,-1,-1,59,-1,61,63,65,67,69,71,73,75,77,79,81,83,85,-1,87,89,91,93,-1,95,97,-1,-1,-1,-1,-1,-1,-1,-1,-1,-1,-1,-1,-1,-1,-1,-1,-1,-1,-1,-1,-1,-1,-1,-1,-1,-1,-1,-1,-1,-1,-1,-1,-1,-1,-1,-1,-1,-1,-1,-1,-1,-1,-1],"loss_changes":[1.6866475E3,5.456515E2,2.6762024E2,6.725134E1,2.4171977E2,2.4474487E2,5.464746E1,2.1045088E1,2.8477295E1,5.9437973E1,1.0933455E2,7.830304E1,1.6735577E2,3.8479004E1,8.998673E0,1.807409E1,1.3193937E1,0E0,1.2963043E1,8.0459366E1,2.7637817E1,5.5501335E1,5.5072884E1,6.8809814E1,1.9267075E1,9.809192E1,4.46618E1,1.3141557E1,2.98844E1,8.239784E0,0E0,0E0,0E0,8.271246E0,0E0,9.180542E0,9.526659E0,2.8795105E1,5.723698E1,6.938899E0,1.6349548E1,5.3793587E1,6.208132E1,4.3173153E1,3.5661407E1,1.7673319E1,4.6327545E1,1.3738575E1,0E0,7.548279E1,4.267041E1,1.3792267E1,2.4679853E1,0E0,1.3127216E1,2.3552734E1,0E0,0E0,0E0,0E0,0E0,0E0,0E0,0E0,0E0,0E0,0E0,0E0,0E0,0E0,0E0,0E0,0E0,0E0,0E0,0E0,0E0,0E0,0E0,0E0,0E0,0E0,0E0,0E0,0E0,0E0,0E0,0E0,0E0,0E0,0E0,0E0,0E0,0E0,0E0,0E0,0E0,0E0,0E0],"parents":[2147483647,0,0,1,1,2,2,3,3,4,4,5,5,6,6,7,7,8,8,9,9,10,10,11,11,12,12,13,13,14,14,15,15,16,16,18,18,19,19,20,20,21,21,22,22,23,23,24,24,25,25,26,26,27,27,28,28,29,29,33,33,35,35,36,36,37,37,38,38,39,39,40,40,41,41,42,42,43,43,44,44,45,45,46,46,47,47,49,49,50,50,51,51,52,52,54,54,55,55],"right_children":[2,4,6,8,10,12,14,16,18,20,22,24,26,28,30,32,34,-1,36,38,40,42,44,46,48,50,52,54,56,58,-1,-1,-1,60,-1,62,64,66,68,70,72,74,76,78,80,82,84,86,-1,88,90,92,94,-1,96,98,-1,-1,-1,-1,-1,-1,-1,-1,-1,-1,-1,-1,-1,-1,-1,-1,-1,-1,-1,-1,-1,-1,-1,-1,-1,-1,-1,-1,-1,-1,-1,-1,-1,-1,-1,-1,-1,-1,-1,-1,-1,-1,-1],"split_conditions":[7.226707E-2,9.720603E-4,2.9953394E1,1.9006887E-6,7.723145E-1,4.684346E-5,9.2E-1,1.4541979E-4,1.6290825E-5,4.7106826E-1,1.228924E-4,4.3E-1,7E-1,4.5206415E-4,6.6000915E-1,2.2191807E1,8.613047E-1,-1.40562095E-2,9.739296E-1,2.8958015E1,1.0633315E-3,4.9418245E-2,7.406881E-3,2.4264517E1,8.2131946E-1,1.3574173E-1,2.5202084E1,4.5595536E-1,5.6204524E-2,7.2022327E-3,-4.685465E-3,2.403369E-3,-1.3291665E-2,7.432767E-1,-4.2543784E-3,5.280931E-4,2.2458033E-5,5.8779735E-2,6.977636E-2,-2.9795125E0,2.9563915E-2,2.3072353E-3,5.1523436E-2,1.9028978E-6,5.78586E-2,6.911953E-1,7.355237E-1,2.1512374E-1,7.687391E-3,7.273299E-1,-5.5E-2,2.0530032E-2,1.26E0,-2.3646802E-3,3.5E-1,9.27339E-1,-0E0,-0E0,1.4044948E-2,4.308066E-3,-6.719754E-3,-1.1070452E-2,-7.3059765E-3,-8.823278E-3,-5.7430245E-4,-1.0148072E-2,1.4128658E-3,-1.1191238E-2,6.711377E-3,6.186037E-3,-2.4030872E-3,-2.1869862E-3,-8.843298E-3,-6.934441E-3,1.4782945E-3,-5.8234176E-3,2.9254172E-3,4.9628895E-3,-1.9521307E-3,4.4840584E-3,1.9952385E-2,-5.7499544E-3,1.2676986E-3,3.4313528E-3,1.3086129E-2,2.4842941E-3,-7.137956E-3,7.4340677E-4,9.800478E-3,1.6364265E-2,1.0680246E-2,6.5840455E-3,-6.329915E-3,-2.9380084E-4,-1.0801934E-2,1.361231E-2,-2.1344048E-3,1.6835451E-2,9.708E-3],"split_indices":[24,24,2,29,28,29,80,22,24,28,27,84,80,30,9,36,28,0,28,38,24,26,24,0,28,24,33,28,27,29,0,0,0,49,0,24,27,26,28,67,26,24,24,25,25,28,28,53,0,28,19,25,80,0,73,52,0,0,0,0,0,0,0,0,0,0,0,0,0,0,0,0,0,0,0,0,0,0,0,0,0,0,0,0,0,0,0,0,0,0,0,0,0,0,0,0,0,0,0],"split_type":[0,0,0,0,0,0,0,0,0,0,0,0,0,0,0,0,0,0,0,0,0,0,0,0,0,0,0,0,0,0,0,0,0,0,0,0,0,0,0,0,0,0,0,0,0,0,0,0,0,0,0,0,0,0,0,0,0,0,0,0,0,0,0,0,0,0,0,0,0,0,0,0,0,0,0,0,0,0,0,0,0,0,0,0,0,0,0,0,0,0,0,0,0,0,0,0,0,0,0],"sum_hessian":[2.5791555E4,1.5984888E4,9.806666E3,3.681333E3,1.2303555E4,7.632444E3,2.1742222E3,6.973333E2,2.9839998E3,3.158222E3,9.145333E3,2.4297776E3,5.2026665E3,2.0497776E3,1.24444435E2,1.7066666E2,5.266666E2,9.431111E2,2.0408888E3,1.0057777E3,2.1524443E3,4.799111E3,4.346222E3,1.7639999E3,6.657777E2,4.0666665E3,1.1359999E3,1.5555554E2,1.8942222E3,6.6666664E1,5.7777775E1,3.422222E1,1.3644444E2,1.7822221E2,3.4844443E2,1.8106665E3,2.3022221E2,4.8488885E2,5.2088885E2,1.6977777E2,1.9826665E3,2.8457776E3,1.9533333E3,1.6933333E3,2.6528887E3,5.853333E2,1.1786666E3,6.2755554E2,3.822222E1,1.5697777E3,2.4968887E3,5.2622217E2,6.097778E2,6.0444443E1,9.511111E1,1.8439999E3,5.0222218E1,4.3555553E1,2.311111E1,1.5066666E2,2.7555553E1,1.3986666E3,4.1199997E2,1.1555555E2,1.1466666E2,3.7511108E2,1.0977777E2,8.0888885E1,4.3999997E2,4.8888885E1,1.20888885E2,1.7333333E2,1.8093333E3,3.462222E2,2.4995554E3,1.5404443E3,4.1288885E2,5.2799994E2,1.1653333E3,2.5955554E3,5.733333E1,3.4044443E2,2.4488887E2,9.2088885E2,2.5777777E2,6.2666664E1,5.6488885E2,6.204444E2,9.4933325E2,8.8399994E2,1.6128888E3,4.955555E2,3.0666664E1,5.0399997E2,1.0577777E2,6.844444E1,2.6666664E1,1.5893333E3,2.5466666E2],"tree_param":{"num_deleted":"0","num_feature":"91","num_nodes":"99","size_leaf_vector":"1"}},{"base_weights":[4.9607094E-2,-1.578374E-1,2.5385022E-1,-2.4746652E-1,1.127146E-1,1.218401E-1,6.013919E-1,-5.0530124E-1,-2.1074587E-1,-3.2951206E-2,3.7744784E-1,-2.554008E-1,2.1480149E-1,-9.876928E-2,7.365291E-1,-5.776903E-1,8.189638E-2,-3.1880015E-1,-1.23935126E-1,7.290058E-2,-3.0570728E-1,1.0793219E-1,5.037613E-1,-3.3458805E-1,1.4218386E-2,5.7885513E-2,4.116192E-1,6.130068E-3,-2.048406E-1,5.238028E-1,8.9262676E-1,-1.3674951E-2,-4.185736E-1,3.7190554E-1,-4.092746E-3,-5.774624E-1,-2.4771154E-1,-8.130635E-2,-4.5245677E-1,-1.9362977E-2,5.669172E-1,-1.1293516E-2,-2.2331461E-1,5.4739356E-1,-1.0419112E-2,3.0816025E-1,6.422915E-1,-4.1663706E-1,-1.4412074E-1,2.9688242E-1,-1.429478E-1,2.6354057E-1,-8.740012E-2,5.123069E-1,2.6252721E-3,6.6337017E-3,-2.9630938E-1,3.4583318E-1,7.71523E-1,9.99945E-1,4.8693335E-1,-5.0910603E-4,-1.1339236E-2,1.4844119E-2,-1.3460567E-3,1.6032957E-3,-1.2463853E-2,-5.2964417E-3,1.2559547E-2,-1.874668E-3,1.9027403E-2,-1.1513698E-3,-1.0667307E-2,-2.3737478E-3,5.8549615E-3,-6.3058216E-4,1.3963592E-2,-7.6993788E-3,-1.7056651E-3,5.745173E-5,1.6863788E-2,3.634129E-3,-2.944647E-3,9.238153E-3,2.0442952E-3,9.297624E-3,1.8839952E-2,-9.48893E-3,-2.7071913E-3,-0E0,-1.128554E-2,1.1125485E-2,-0E0,-4.2630634E-3,9.10534E-3,2.6192954E-3,1.1448534E-2,-3.2084999E-3,3.7895506E-3,1.1741289E-2,-9.512877E-4,-5.964291E-3,2.0784643E-3,1.1448523E-3,-7.1401894E-3,1.0999942E-2,3.2501584E-3,1.763604E-2,7.351653E-3,1.7777318E-2,2.3852522E-2,-1.46988E-4,1.151241E-2],"categories":[],"categories_nodes":[],"categories_segments":[],"categories_sizes":[],"default_left":[0,0,0,0,0,0,0,0,0,0,0,0,0,0,0,0,0,0,0,0,0,0,0,0,0,0,0,0,0,0,0,0,0,0,0,0,0,0,0,0,0,0,0,0,0,0,0,0,0,0,0,0,0,0,0,0,0,0,0,0,0,0,0,0,0,0,0,0,0,0,0,0,0,0,0,0,0,0,0,0,0,0,0,0,0,0,0,0,0,0,0,0,0,0,0,0,0,0,0,0,0,0,0,0,0,0,0,0,0,0,0,0,0],"id":2,"left_children":[1,3,5,7,9,11,13,15,17,19,21,23,25,27,29,31,33,35,37,39,41,43,45,47,49,51,53,-1,55,57,59,-1,61,63,-1,65,67,69,71,73,75,-1,77,79,81,83,85,87,89,91,93,95,97,99,101,-1,103,105,107,109,111,-1,-1,-1,-1,-1,-1,-1,-1,-1,-1,-1,-1,-1,-1,-1,-1,-1,-1,-1,-1,-1,-1,-1,-1,-1,-1,-1,-1,-1,-1,-1,-1,-1,-1,-1,-1,-1,-1,-1,-1,-1,-1,-1,-1,-1,-1,-1,-1,-1,-1,-1,-1],"loss_changes":[1.0967383E3,3.1161832E2,5.975919E2,9.033624E1,1.2357997E2,3.3208734E2,3.4026392E2,5.142685E1,7.885739E1,5.9926937E1,3.8042297E1,4.0176506E1,2.3416086E2,2.5296144E1,9.642737E1,1.4869843E1,1.1727465E1,6.78732E1,6.533691E1,6.837725E1,1.10149765E1,1.9660648E1,1.9218445E1,2.197882E1,1.9381964E1,1.2674385E2,1.3833862E2,0E0,2.337468E1,5.465631E1,7.15E1,0E0,2.4008278E1,1.1888015E1,0E0,2.2255157E1,3.9659424E1,5.010466E1,1.58135605E1,3.857734E1,1.8275871E1,0E0,9.44817E0,1.2106031E1,7.825488E0,9.737425E0,2.0258392E1,1.4706024E1,2.6793495E1,1.1662618E1,1.1756237E1,7.060478E1,4.9277893E1,1.06643005E2,2.0228302E1,0E0,8.536053E0,2.720633E1,1.990799E1,2.2231567E1,1.589595E1,0E0,0E0,0E0,0E0,0E0,0E0,0E0,0E0,0E0,0E0,0E0,0E0,0E0,0E0,0E0,0E0,0E0,0E0,0E0,0E0,0E0,0E0,0E0,0E0,0E0,0E0,0E0,0E0,0E0,0E0,0E0,0E0,0E0,0E0,0E0,0E0,0E0,0E0,0E0,0E0,0E0,0E0,0E0,0E0,0E0,0E0,0E0,0E0,0E0,0E0,0E0,0E0],"parents":[2147483647,0,0,1,1,2,2,3,3,4,4,5,5,6,6,7,7,8,8,9,9,10,10,11,11,12,12,13,13,14,14,15,15,16,16,17,17,18,18,19,19,20,20,21,21,22,22,23,23,24,24,25,25,26,26,28,28,29,29,30,30,32,32,33,33,35,35,36,36,37,37,38,38,39,39,40,40,42,42,43,43,44,44,45,45,46,46,47,47,48,48,49,49,50,50,51,51,52,52,53,53,54,54,56,56,57,57,58,58,59,59,60,60],"right_children":[2,4,6,8,10,12,14,16,18,20,22,24,26,28,30,32,34,36,38,40,42,44,46,48,50,52,54,-1,56,58,60,-1,62,64,-1,66,68,70,72,74,76,-1,78,80,82,84,86,88,90,92,94,96,98,100,102,-1,104,106,108,110,112,-1,-1,-1,-1,-1,-1,-1,-1,-1,-1,-1,-1,-1,-1,-1,-1,-1,-1,-1,-1,-1,-1,-1,-1,-1,-1,-1,-1,-1,-1,-1,-1,-1,-1,-1,-1,-1,-1,-1,-1,-1,-1,-1,-1,-1,-1,-1,-1,-1,-1,-1,-1],"split_conditions":[1.2229883E-2,5.7E-1,4.3E-1,6.0776924E-4,3.7645394E-1,8.049955E1,4.725241E1,9.9311906E-1,4.929425E-5,1.14E0,2.4E-1,1.15692894E2,9.024056E-2,-4.989185E0,7.5E-1,2.4916628E1,2.1705957E1,2.4895621E-3,1.5715498E-1,8E-1,1.0160989E2,1.4877042E-1,6.4467233E-1,1.2833224E-1,5.418624E-1,1.1211796E-4,2.9844328E1,6.130068E-3,2.7592241E1,9.359717E-2,1.22E0,-1.3674951E-2,5.766005E-3,-9E-3,-4.092746E-3,7.622699E-4,9.132714E-2,1.0848561E-1,3.4529257E-3,1.2607152E-3,6.0776924E-4,-1.1293516E-2,2.8959967E-3,6.9715185E-5,-4.9397842E1,2.89E-1,2.9908346E1,3.5E-1,7.452738E-3,1.1211796E-4,6.52189E-1,2.3184113E1,8.613395E-3,1.0120859E-2,9.955867E1,6.6337017E-3,9.740217E-4,1.0054554E0,6.6370875E-2,7.4E-1,-1.22423744E2,-5.0910603E-4,-1.1339236E-2,1.4844119E-2,-1.3460567E-3,1.6032957E-3,-1.2463853E-2,-5.2964417E-3,1.2559547E-2,-1.874668E-3,1.9027403E-2,-1.1513698E-3,-1.0667307E-2,-2.3737478E-3,5.8549615E-3,-6.3058216E-4,1.3963592E-2,-7.6993788E-3,-1.7056651E-3,5.745173E-5,1.6863788E-2,3.634129E-3,-2.944647E-3,9.238153E-3,2.0442952E-3,9.297624E-3,1.8839952E-2,-9.48893E-3,-2.7071913E-3,-0E0,-1.128554E-2,1.1125485E-2,-0E0,-4.2630634E-3,9.10534E-3,2.6192954E-3,1.1448534E-2,-3.2084999E-3,3.7895506E-3,1.1741289E-2,-9.512877E-4,-5.964291E-3,2.0784643E-3,1.1448523E-3,-7.1401894E-3,1.0999942E-2,3.2501584E-3,1.763604E-2,7.351653E-3,1.7777318E-2,2.3852522E-2,-1.46988E-4,1.151241E-2],"split_indices":[23,79,84,23,57,40,40,28,27,14,87,46,23,66,79,32,1,23,26,73,5,55,52,23,51,29,38,0,39,23,14,0,25,85,0,23,30,25,30,27,23,0,23,27,71,18,39,14,29,29,60,36,25,29,47,0,30,54,26,73,71,0,0,0,0,0,0,0,0,0,0,0,0,0,0,0,0,0,0,0,0,0,0,0,0,0,0,0,0,0,0,0,0,0,0,0,0,0,0,0,0,0,0,0,0,0,0,0,0,0,0,0,0],"split_type":[0,0,0,0,0,0,0,0,0,0,0,0,0,0,0,0,0,0,0,0,0,0,0,0,0,0,0,0,0,0,0,0,0,0,0,0,0,0,0,0,0,0,0,0,0,0,0,0,0,0,0,0,0,0,0,0,0,0,0,0,0,0,0,0,0,0,0,0,0,0,0,0,0,0,0,0,0,0,0,0,0,0,0,0,0,0,0,0,0,0,0,0,0,0,0,0,0,0,0,0,0,0,0,0,0,0,0,0,0,0,0,0,0],"sum_hessian":[2.5872887E4,1.283511E4,1.3037777E4,9.64311E3,3.1919998E3,9.455555E3,3.582222E3,1.1911111E3,8.451999E3,2.0608887E3,1.1311111E3,1.8662222E3,7.589333E3,5.791111E2,3.0031108E3,1.0613333E3,1.2977777E2,3.7555554E3,4.6964443E3,1.4862222E3,5.746666E2,3.6577777E2,7.653333E2,1.4431111E3,4.2311108E2,4.2284443E3,3.3608887E3,1.1733333E2,4.6177774E2,1.2831111E3,1.7199999E3,6.3599994E2,4.253333E2,6.444444E1,6.533333E1,7.991111E2,2.9564443E3,4.1648887E3,5.3155554E2,1.2559999E3,2.3022221E2,1.3066666E2,4.4399997E2,7.422222E1,2.9155554E2,3.2666666E2,4.3866663E2,1.0017777E3,4.413333E2,1.5066666E2,2.7244443E2,1.7502222E3,2.4782222E3,2.6946665E3,6.6622217E2,6.444444E1,3.973333E2,7.5599994E2,5.271111E2,1.3524443E3,3.6755554E2,1.16888885E2,3.0844443E2,3.3777775E1,3.0666664E1,4.5777775E1,7.533333E2,2.9106665E3,4.5777775E1,4.123555E3,4.1333332E1,8.933333E1,4.422222E2,9.5733325E2,2.9866666E2,3.9999996E1,1.9022221E2,2.0044443E2,2.4355554E2,2.8444443E1,4.5777775E1,1.1866666E2,1.7288889E2,1.8355554E2,1.431111E2,2.813333E2,1.5733333E2,8.355555E2,1.6622221E2,3.3199997E2,1.0933333E2,7.777777E1,7.2888885E1,2.4844443E2,2.3999998E1,1.2235555E3,5.266666E2,1.9693333E3,5.0888885E2,2.3946665E3,2.9999997E2,1.6355554E2,5.0266663E2,5.4666664E1,3.4266666E2,3.5599997E2,3.9999997E2,4.1377774E2,1.1333333E2,8.457777E2,5.0666663E2,5.333333E1,3.142222E2],"tree_param":{"num_deleted":"0","num_feature":"91","num_nodes":"113","size_leaf_vector":"1"}},{"base_weights":[-1.00364305E-1,9.607713E-1,-5.3302306E-1,1.0955999E0,6.111939E-1,-3.4572214E-1,-6.135318E-1,1.2626636E0,9.468551E-1,5.216866E-1,9.0217143E-1,-1.8515295E-1,-4.9884403E-1,-3.0486384E-1,-6.284144E-1,8.822041E-1,2.6349692E-2,8.6452544E-1,1.1902413E0,2.7005307E-2,4.8513588E-1,2.2327332E-2,7.621791E-1,-1.19561E-1,-3.4174877E-1,-7.746639E-3,-5.789647E-1,-1.2336816E-1,-9.262186E-3,-5.3826475E-1,-6.6244507E-1,2.1225618E-2,5.1916414E-1,9.215942E-1,1.0171478E-2,2.6134083E-2,9.503263E-1,5.050153E-1,-4.272484E-3,1.6490964E-2,1.7162757E-3,-1.4726645E-1,3.0653346E-1,-1.1487094E-2,-2.8954402E-1,-4.4806916E-3,-1.2037683E-2,-5.6158924E-3,6.2486157E-2,-4.348856E-1,-6.294484E-1,-7.23856E-3,-1.3454241E-2,1.384183E-2,1.0452376E-3,2.3915889E-2,1.7763069E-2,2.080314E-2,4.2547244E-3,-4.2930874E-3,1.0526394E-2,-4.7201985E-3,1.2697354E-4,9.972707E-3,-9.2168245E-4,-6.469906E-3,2.3173646E-3,5.571167E-3,-3.1298473E-3,2.7843358E-3,-9.009925E-3,-1.2882324E-2,-1.5918899E-3],"categories":[],"categories_nodes":[],"categories_segments":[],"categories_sizes":[],"default_left":[0,0,0,0,0,0,0,0,0,0,0,0,0,0,0,0,0,0,0,0,0,0,0,0,0,0,0,0,0,0,0,0,0,0,0,0,0,0,0,0,0,0,0,0,0,0,0,0,0,0,0,0,0,0,0,0,0,0,0,0,0,0,0,0,0,0,0,0,0,0,0,0,0],"id":3,"left_children":[1,3,5,7,9,11,13,15,17,19,21,23,25,27,29,31,-1,33,35,-1,37,-1,39,41,43,-1,45,47,-1,49,51,-1,53,55,-1,-1,57,59,-1,-1,-1,61,63,-1,65,-1,-1,-1,67,69,71,-1,-1,-1,-1,-1,-1,-1,-1,-1,-1,-1,-1,-1,-1,-1,-1,-1,-1,-1,-1,-1,-1],"loss_changes":[1.185571E4,3.4771777E2,2.7485156E2,1.2581445E2,5.1081055E1,1.3503955E2,5.7262695E1,3.5054443E1,5.055713E1,4.3627777E1,8.026398E0,2.7340508E1,2.4088745E1,1.6263027E1,3.4771973E1,1.3611908E1,0E0,4.1114502E1,9.799377E0,0E0,2.2377228E1,0E0,1.0772537E1,2.2851027E1,8.030411E0,0E0,9.542114E0,8.499914E0,0E0,2.9732544E1,1.1808594E1,0E0,7.4715786E0,1.2724609E1,0E0,0E0,1.26523285E1,1.9652039E1,0E0,0E0,0E0,2.4294598E1,8.206516E0,0E0,8.736652E0,0E0,0E0,0E0,6.53795E0,1.1743988E1,8.871399E0,0E0,0E0,0E0,0E0,0E0,0E0,0E0,0E0,0E0,0E0,0E0,0E0,0E0,0E0,0E0,0E0,0E0,0E0,0E0,0E0,0E0,0E0],"parents":[2147483647,0,0,1,1,2,2,3,3,4,4,5,5,6,6,7,7,8,8,9,9,10,10,11,11,12,12,13,13,14,14,15,15,17,17,18,18,20,20,22,22,23,23,24,24,26,26,27,27,29,29,30,30,32,32,33,33,36,36,37,37,41,41,42,42,44,44,48,48,49,49,50,50],"right_children":[2,4,6,8,10,12,14,16,18,20,22,24,26,28,30,32,-1,34,36,-1,38,-1,40,42,44,-1,46,48,-1,50,52,-1,54,56,-1,-1,58,60,-1,-1,-1,62,64,-1,66,-1,-1,-1,68,70,72,-1,-1,-1,-1,-1,-1,-1,-1,-1,-1,-1,-1,-1,-1,-1,-1,-1,-1,-1,-1,-1,-1],"split_conditions":[2.5582775E-2,2.3932423E-2,1.2212945E0,9.720603E-4,1.393349E-1,8.2164146E-2,2.9144608E-4,5.1731263E-6,1.12209715E-1,4.968372E-3,4.2764835E-2,2.9390959E1,4.928609E-1,4.8637247E0,2.3686018E0,9.420926E-2,2.6349692E-2,2.700644E-3,2.9191212E1,2.7005307E-2,9.6E-1,2.2327332E-2,2.6915241E1,1.3790056E-1,-8.747367E0,-7.746639E-3,2.2423735E1,1.5873827E-2,-9.262186E-3,7.082245E-2,2.0886913E1,2.1225618E-2,2.43E-1,3.2893562E-1,1.0171478E-2,2.6134083E-2,7.3439753E-1,-1.44E0,-4.272484E-3,1.6490964E-2,1.7162757E-3,9.2171603E-1,2.5676685E1,-1.1487094E-2,9.432923E-3,-4.4806916E-3,-1.2037683E-2,-5.6158924E-3,2.377978E1,1.7865803E1,2.0920731E-1,-7.23856E-3,-1.3454241E-2,1.384183E-2,1.0452376E-3,2.3915889E-2,1.7763069E-2,2.080314E-2,4.2547244E-3,-4.2930874E-3,1.0526394E-2,-4.7201985E-3,1.2697354E-4,9.972707E-3,-9.2168245E-4,-6.469906E-3,2.3173646E-3,5.571167E-3,-3.1298473E-3,2.7843358E-3,-9.009925E-3,-1.2882324E-2,-1.5918899E-3],"split_indices":[20,24,20,24,26,24,24,29,26,26,24,38,20,20,20,61,0,22,38,0,79,0,32,26,69,0,32,30,0,24,33,0,85,49,0,0,28,17,0,0,0,28,32,0,29,0,0,0,36,1,26,0,0,0,0,0,0,0,0,0,0,0,0,0,0,0,0,0,0,0,0,0,0],"split_type":[0,0,0,0,0,0,0,0,0,0,0,0,0,0,0,0,0,0,0,0,0,0,0,0,0,0,0,0,0,0,0,0,0,0,0,0,0,0,0,0,0,0,0,0,0,0,0,0,0,0,0,0,0,0,0,0,0,0,0,0,0,0,0,0,0,0,0,0,0,0,0,0,0],"sum_hessian":[2.581168E4,7.4736226E3,1.8338059E4,5.3834336E3,2.090189E3,5.5240156E3,1.2814042E4,2.5135742E3,2.8698594E3,1.6122115E3,4.7797742E2,2.7044265E3,2.8195894E3,5.968364E2,1.2217206E4,2.7844077E2,2.2351335E3,2.1656885E3,7.041707E2,5.9535896E1,1.5526757E3,1.7589288E2,3.0208453E2,1.915735E3,7.886914E2,1.1775443E3,1.6420452E3,2.810745E2,3.1576196E2,3.3790122E3,8.838193E3,1.8082385E2,9.76169E1,1.8601492E3,3.0553943E2,4.6858142E2,2.3558931E2,1.5119556E3,4.0720085E1,2.770976E2,2.498696E1,1.803549E3,1.1218598E2,1.3421877E2,6.5447266E2,8.544564E1,1.5565995E3,1.532421E2,1.2783239E2,1.6020178E3,1.7769943E3,1.5569604E2,8.682497E3,6.896641E1,2.865049E1,2.2168413E2,1.638465E3,2.09356E2,2.6233305E1,3.324711E1,1.4787085E3,1.1520258E3,6.515232E2,7.2650276E1,3.95357E1,6.0961884E2,4.4853817E1,6.502486E1,6.2807533E1,3.1115913E1,1.570902E3,1.7441388E3,3.2855476E1],"tree_param":{"num_deleted":"0","num_feature":"91","num_nodes":"73","size_leaf_vector":"1"}},{"base_weights":[5.102148E-2,2.5609955E-1,-5.013458E-1,-3.6128673E-1,6.574696E-1,-2.7286714E-1,-6.235286E-1,-2.4707197E-1,-4.846776E-1,8.1420547E-1,2.9084116E-1,-2.0403242E-1,-7.2250282E-3,-1.0601703E-2,-1.3880387E-2,-2.9672658E-1,-5.3093646E-2,-1.3741911E-2,-4.4610777E-1,7.280073E-1,1.0181388E0,4.312797E-1,1.2436367E-1,5.31066E-2,-2.348841E-1,-3.3518973E-1,-5.2728564E-2,-1.2796084E-2,-1.0849087E-2,-3.8793945E-1,-1.1259492E-2,6.5780663E-1,9.6382326E-1,1.028494E0,9.1302354E-5,2.4416664E-1,5.5995333E-1,-5.056233E-2,2.087459E-1,3.1731876E-3,-7.326121E-3,-8.291403E-3,-3.8591595E-3,-8.67428E-3,-5.128654E-3,4.0000674E-4,-6.6460096E-3,1.0088738E-3,-5.827687E-3,-7.064593E-3,-1.3104543E-2,1.3912366E-2,6.562474E-3,2.0459788E-2,1.28814895E-2,2.117357E-2,1.2018466E-2,1.3314877E-2,3.1428896E-3,2.0946884E-3,1.1924595E-2,7.7013616E-3,-2.6086085E-3,2.5066633E-3,7.489139E-3],"categories":[],"categories_nodes":[],"categories_segments":[],"categories_sizes":[],"default_left":[0,0,0,0,0,0,0,0,0,0,0,0,0,0,0,0,0,0,0,0,0,0,0,0,0,0,0,0,0,0,0,0,0,0,0,0,0,0,0,0,0,0,0,0,0,0,0,0,0,0,0,0,0,0,0,0,0,0,0,0,0,0,0,0,0],"id":4,"left_children":[1,3,5,7,9,11,13,15,17,19,21,23,-1,-1,-1,25,27,-1,29,31,33,35,37,39,41,43,45,-1,47,49,-1,51,53,55,-1,57,59,61,63,-1,-1,-1,-1,-1,-1,-1,-1,-1,-1,-1,-1,-1,-1,-1,-1,-1,-1,-1,-1,-1,-1,-1,-1,-1,-1],"loss_changes":[2.9237976E3,4.66592E3,1.9359363E2,1.03455505E2,6.53666E2,1.3681793E1,2.6133179E1,3.6956192E1,2.4673706E1,1.3518945E2,7.949881E1,1.1069637E1,0E0,0E0,0E0,2.8538452E1,1.9192757E1,0E0,1.7829773E1,8.876611E1,2.4125244E1,4.3413574E1,2.344309E1,6.723019E0,8.62249E0,1.9374176E1,8.810649E0,0E0,1.2935571E1,1.771347E1,0E0,4.525122E1,1.6668335E1,1.7756592E1,0E0,2.715295E1,1.5060852E1,1.7746626E1,1.4124626E1,0E0,0E0,0E0,0E0,0E0,0E0,0E0,0E0,0E0,0E0,0E0,0E0,0E0,0E0,0E0,0E0,0E0,0E0,0E0,0E0,0E0,0E0,0E0,0E0,0E0,0E0],"parents":[2147483647,0,0,1,1,2,2,3,3,4,4,5,5,6,6,7,7,8,8,9,9,10,10,11,11,15,15,16,16,18,18,19,19,20,20,21,21,22,22,23,23,24,24,25,25,26,26,28,28,29,29,31,31,32,32,33,33,35,35,36,36,37,37,38,38],"right_children":[2,4,6,8,10,12,14,16,18,20,22,24,-1,-1,-1,26,28,-1,30,32,34,36,38,40,42,44,46,-1,48,50,-1,52,54,56,-1,58,60,62,64,-1,-1,-1,-1,-1,-1,-1,-1,-1,-1,-1,-1,-1,-1,-1,-1,-1,-1,-1,-1,-1,-1,-1,-1,-1,-1],"split_conditions":[3.6567676E0,2.5582775E-2,5.9507113E0,3.0010107E-3,1.9570237E0,4.772061E0,9.420842E0,5.463231E-1,8.320273E-3,2.9632114E1,2.7393181E0,2.0634942E-1,-7.2250282E-3,-1.0601703E-2,-1.3880387E-2,2.990876E1,4.968372E-3,-1.3741911E-2,3.8318977E-2,6.0950774E-1,2.49E0,7.834946E-1,6.4947325E-1,1.330656E2,4.4175485E-1,1.1220705E2,1.4666058E-1,-1.2796084E-2,9.67592E-2,6.875733E-2,-1.1259492E-2,5.57416E1,1.6336273E0,4.6672244E2,9.1302354E-5,7.052101E1,1.9493925E1,1.5540509E-1,2.900955E1,3.1731876E-3,-7.326121E-3,-8.291403E-3,-3.8591595E-3,-8.67428E-3,-5.128654E-3,4.0000674E-4,-6.6460096E-3,1.0088738E-3,-5.827687E-3,-7.064593E-3,-1.3104543E-2,1.3912366E-2,6.562474E-3,2.0459788E-2,1.28814895E-2,2.117357E-2,1.2018466E-2,1.3314877E-2,3.1428896E-3,2.0946884E-3,1.1924595E-2,7.7013616E-3,-2.6086085E-3,2.5066633E-3,7.489139E-3],"split_indices":[20,20,20,25,20,20,20,49,26,2,20,7,0,0,0,37,26,0,30,50,76,54,54,46,54,5,26,0,26,25,0,66,20,4,0,3,36,7,37,0,0,0,0,0,0,0,0,0,0,0,0,0,0,0,0,0,0,0,0,0,0,0,0,0,0],"split_type":[0,0,0,0,0,0,0,0,0,0,0,0,0,0,0,0,0,0,0,0,0,0,0,0,0,0,0,0,0,0,0,0,0,0,0,0,0,0,0,0,0,0,0,0,0,0,0,0,0,0,0,0,0,0,0,0,0,0,0,0,0,0,0,0,0],"sum_hessian":[2.579973E4,1.8817455E4,6.9822764E3,7.413375E3,1.140408E4,2.440946E3,4.54133E3,3.861162E3,3.5522126E3,7.982827E3,3.4212527E3,1.3675835E3,1.0733625E3,1.8442112E3,2.697119E3,3.06947E3,7.9169226E2,5.6313086E2,2.9890818E3,5.631487E3,2.35134E3,1.8489607E3,1.572292E3,1.440863E2,1.2234972E3,2.6476313E3,4.2183868E2,4.723937E1,7.444529E2,1.9908651E3,9.9821674E2,4.3582007E3,1.2732861E3,2.326922E3,2.4417887E1,7.619614E2,1.0869993E3,5.1019577E2,1.0620963E3,1.1916968E2,2.4916632E1,2.2927036E2,9.9422687E2,1.200088E3,1.4475432E3,3.368541E2,8.498459E1,6.1296014E2,1.3149277E2,1.7559891E3,2.3487595E2,3.962597E3,3.9560388E2,1.0873451E3,1.8594113E2,2.2046433E3,1.2227877E2,1.255621E2,6.363993E2,7.346505E1,1.01353424E3,7.415347E1,4.360423E2,7.0859296E2,3.5350327E2],"tree_param":{"num_deleted":"0","num_feature":"91","num_nodes":"65","size_leaf_vector":"1"}},{"base_weights":[5.033262E-2,-4.718976E-1,9.7962636E-1,-5.791285E-1,-1.5581067E-1,5.483463E-1,1.2281156E0,-5.939433E-1,-1.2490515E-1,-2.6054204E-1,2.0139918E-2,3.8913935E-1,7.58061E-1,1.0746205E0,2.7220448E-2,-6.233684E-1,-4.9554065E-1,-4.4483152E-1,3.2830784E-1,-3.8783422E-1,-1.2900923E-1,-2.2914626E-2,6.8287426E-1,6.0342145E-1,2.9867744E-1,5.7650036E-1,1.7164852E-2,9.03473E-1,1.1677957E0,-6.3093805E-1,-3.118145E-1,-4.160399E-1,-1.1931328E-2,6.5928614E-3,-1.0928943E-2,-4.8639267E-3,5.1802945E-1,-2.5697488E-1,-9.759786E-3,-5.0915275E-2,-2.8042823E-1,-1.37755E-1,1.3173664E-1,1.1339847E-3,1.8804466E-2,5.743366E-3,7.319569E-1,3.3449808E-1,3.3715863E-2,6.0577416E-1,7.8666594E-4,1.8854147E-2,1.1040697E-2,2.37224E-2,7.977225E-3,-6.0123554E-3,-1.279046E-2,3.2398005E-3,-1.183881E-2,-8.562275E-3,2.4074197E-3,1.2906997E-2,-0E0,-2.3993473E-3,-7.6788813E-3,-2.4843386E-3,3.0091368E-3,1.7723619E-3,-6.4585498E-3,-4.219829E-3,3.1628762E-3,3.5567614E-3,-3.3415912E-3,9.817649E-3,1.7420886E-2,6.528135E-4,7.3039522E-3,5.404239E-3,-2.6883539E-3,1.4438538E-2,8.438647E-3],"categories":[],"categories_nodes":[],"categories_segments":[],"categories_sizes":[],"default_left":[0,0,0,0,0,0,0,0,0,0,0,0,0,0,0,0,0,0,0,0,0,0,0,0,0,0,0,0,0,0,0,0,0,0,0,0,0,0,0,0,0,0,0,0,0,0,0,0,0,0,0,0,0,0,0,0,0,0,0,0,0,0,0,0,0,0,0,0,0,0,0,0,0,0,0,0,0,0,0,0,0],"id":5,"left_children":[1,3,5,7,9,11,13,15,17,19,21,23,25,27,-1,29,31,33,35,37,39,41,43,45,47,49,-1,51,53,55,57,59,-1,-1,-1,-1,61,63,-1,65,67,69,71,-1,-1,-1,73,75,77,79,-1,-1,-1,-1,-1,-1,-1,-1,-1,-1,-1,-1,-1,-1,-1,-1,-1,-1,-1,-1,-1,-1,-1,-1,-1,-1,-1,-1,-1,-1,-1],"loss_changes":[1.250437E4,5.5816724E2,9.8860254E2,8.202637E1,7.733524E1,1.11173035E2,1.0081152E2,3.211377E1,5.852331E1,4.3412537E1,4.5144516E1,3.6176056E1,2.1187927E1,3.4851074E1,0E0,1.991748E1,1.931189E1,1.8900444E1,1.892234E1,1.5651413E1,1.5137838E1,2.630465E1,1.426535E1,2.156459E1,1.2838158E1,7.622696E0,0E0,7.1307983E0,8.507568E0,9.381592E0,3.076167E1,7.749176E0,0E0,0E0,0E0,0E0,8.231342E0,9.362343E0,0E0,1.2681771E1,6.7770576E0,1.8188906E1,8.552884E0,0E0,0E0,0E0,9.830231E0,9.949066E0,7.050847E0,7.742996E0,0E0,0E0,0E0,0E0,0E0,0E0,0E0,0E0,0E0,0E0,0E0,0E0,0E0,0E0,0E0,0E0,0E0,0E0,0E0,0E0,0E0,0E0,0E0,0E0,0E0,0E0,0E0,0E0,0E0,0E0,0E0],"parents":[2147483647,0,0,1,1,2,2,3,3,4,4,5,5,6,6,7,7,8,8,9,9,10,10,11,11,12,12,13,13,15,15,16,16,17,17,18,18,19,19,20,20,21,21,22,22,23,23,24,24,25,25,27,27,28,28,29,29,30,30,31,31,36,36,37,37,39,39,40,40,41,41,42,42,46,46,47,47,48,48,49,49],"right_children":[2,4,6,8,10,12,14,16,18,20,22,24,26,28,-1,30,32,34,36,38,40,42,44,46,48,50,-1,52,54,56,58,60,-1,-1,-1,-1,62,64,-1,66,68,70,72,-1,-1,-1,74,76,78,80,-1,-1,-1,-1,-1,-1,-1,-1,-1,-1,-1,-1,-1,-1,-1,-1,-1,-1,-1,-1,-1,-1,-1,-1,-1,-1,-1,-1,-1,-1,-1],"split_conditions":[2.4036958E0,1.0815897E0,4.575139E0,1.1269385E0,2.645868E2,3.4603887E0,8.25582E0,4.928609E-1,1.002565E0,1.6655618E0,1.3835214E0,1.5425131E2,9.731139E-3,1.2229883E-2,2.7220448E-2,9.7E-1,5.172021E-1,1.1519091E-1,5.1E-1,5.5090976E-1,2.5646893E1,1.751637E0,1.15089096E2,8.538109E1,1.0157867E-1,2.4660929E1,1.7164852E-2,5.21E-1,2.0920731E-1,-1.44E0,1.16E-1,2.792537E1,-1.1931328E-2,6.5928614E-3,-1.0928943E-2,-4.8639267E-3,1.0027517E0,2.8060808E1,-9.759786E-3,9.024056E-2,-5.8528168E1,1.3332452E0,4.2071112E2,1.1339847E-3,1.8804466E-2,5.743366E-3,2.4817934E1,8.793666E1,2.4813098E2,1.0564765E0,7.8666594E-4,1.8854147E-2,1.1040697E-2,2.37224E-2,7.977225E-3,-6.0123554E-3,-1.279046E-2,3.2398005E-3,-1.183881E-2,-8.562275E-3,2.4074197E-3,1.2906997E-2,-0E0,-2.3993473E-3,-7.6788813E-3,-2.4843386E-3,3.0091368E-3,1.7723619E-3,-6.4585498E-3,-4.219829E-3,3.1628762E-3,3.5567614E-3,-3.3415912E-3,9.817649E-3,1.7420886E-2,6.528135E-4,7.3039522E-3,5.404239E-3,-2.6883539E-3,1.4438538E-2,8.438647E-3],"split_indices":[20,20,20,63,45,20,20,20,52,20,63,42,23,23,0,79,51,51,17,51,31,20,5,40,26,36,0,89,26,17,90,33,0,0,0,0,61,2,0,23,66,52,4,0,0,0,33,40,42,54,0,0,0,0,0,0,0,0,0,0,0,0,0,0,0,0,0,0,0,0,0,0,0,0,0,0,0,0,0,0,0],"split_type":[0,0,0,0,0,0,0,0,0,0,0,0,0,0,0,0,0,0,0,0,0,0,0,0,0,0,0,0,0,0,0,0,0,0,0,0,0,0,0,0,0,0,0,0,0,0,0,0,0,0,0,0,0,0,0,0,0,0,0,0,0,0,0,0,0,0,0,0,0,0,0,0,0,0,0,0,0,0,0,0,0],"sum_hessian":[2.575421E4,1.6489758E4,9.264454E3,1.2307823E4,4.181934E3,3.3941663E3,5.8702876E3,1.1916153E4,3.916693E2,2.621823E3,1.5601108E3,1.9402654E3,1.4539009E3,2.6326482E3,3.2376394E3,9.145161E3,2.7709927E3,2.3039426E2,1.6127504E2,1.3245186E3,1.2973046E3,1.4693268E3,9.07841E1,5.6445013E2,1.3758153E3,5.1069104E2,9.4320984E2,9.5177344E2,1.6808746E3,8.920721E3,2.2444038E2,1.5390377E3,1.231955E3,2.3655241E1,2.0673901E2,3.9154125E1,1.2212091E2,5.733537E2,7.5116486E2,8.634141E2,4.338905E2,8.456636E2,6.2366315E2,2.8554657E1,6.2229446E1,1.6888786E2,3.9556226E2,1.2087505E3,1.6706482E2,4.8261758E2,2.8073452E1,8.630826E2,8.869082E1,1.6572285E3,2.3646133E1,1.0508023E2,8.815641E3,8.279625E1,1.4164413E2,1.5163475E3,2.2690228E1,9.7992386E1,2.4128529E1,2.789706E2,2.9438306E2,6.3793286E2,2.2548123E2,4.0467133E1,3.9342337E2,6.8319904E2,1.6246455E2,5.4582574E2,7.783744E1,1.4977979E2,2.4578246E2,1.05004814E2,1.1037456E3,6.9502975E1,9.7561844E1,2.9115503E2,1.9146255E2],"tree_param":{"num_deleted":"0","num_feature":"91","num_nodes":"81","size_leaf_vector":"1"}},{"base_weights":[-1.00112244E-1,9.3538237E-1,-5.2949524E-1,1.0709507E0,5.8667827E-1,-3.4137976E-1,-6.070742E-1,1.2270322E0,9.3095523E-1,7.075848E-1,4.361568E-1,-1.2709202E-1,-5.021741E-1,-5.0265354E-1,-6.679925E-1,8.827027E-1,2.5568292E-2,9.628471E-1,5.8240914E-1,6.5026534E-1,1.0191587E0,7.389417E-1,3.3386102E-1,-1.7059144E-2,-2.3974812E-1,-7.5093615E-3,-5.6787956E-1,-3.4382886E-1,-5.7342184E-1,-2.9798976E-1,-6.7186016E-1,2.6233763E-2,1.4904519E-2,2.3990992E-2,9.173258E-1,1.3815633E-2,1.2190889E-3,6.720001E-1,-9.685292E-5,2.27619E-2,8.040287E-3,5.073639E-1,2.629675E-2,2.3252772E-1,1.2595764E-2,-6.828876E-2,4.01957E-3,-2.8580156E-1,1.9919206E-3,-7.0429128E-3,-1.1853119E-2,-2.03758E-1,-4.4374362E-1,-3.8338777E-1,-1.2155446E-2,-1.1280183E-2,1.8530915E-3,-4.020498E-3,-1.3590665E-2,1.8665431E-2,4.5273136E-3,1.4273513E-2,8.121117E-3,1.2791565E-2,2.1169046E-3,1.3030842E-2,1.750433E-3,1.6591577E-3,-2.8165453E-3,-1.2708175E-3,-7.2209416E-3,-1.5042442E-3,-6.8353475E-3,-1.3035109E-3,-9.820631E-3,-8.696276E-3,-8.825716E-4],"categories":[],"categories_nodes":[],"categories_segments":[],"categories_sizes":[],"default_left":[0,0,0,0,0,0,0,0,0,0,0,0,0,0,0,0,0,0,0,0,0,0,0,0,0,0,0,0,0,0,0,0,0,0,0,0,0,0,0,0,0,0,0,0,0,0,0,0,0,0,0,0,0,0,0,0,0,0,0,0,0,0,0,0,0,0,0,0,0,0,0,0,0,0,0,0,0],"id":6,"left_children":[1,3,5,7,9,11,13,15,17,19,21,23,25,27,29,31,-1,33,35,37,39,41,43,45,47,-1,49,51,53,55,57,-1,-1,-1,59,-1,-1,61,-1,-1,-1,63,-1,65,-1,67,-1,69,-1,-1,-1,71,73,75,-1,-1,-1,-1,-1,-1,-1,-1,-1,-1,-1,-1,-1,-1,-1,-1,-1,-1,-1,-1,-1,-1,-1],"loss_changes":[1.1456624E4,3.5250098E2,2.640869E2,1.10884766E2,3.631201E1,1.830484E2,7.9381836E1,2.8876953E1,2.801416E1,1.6129272E1,2.7866333E1,2.8286427E1,2.4164673E1,5.2012695E1,9.917969E0,1.1023361E1,0E0,1.9849365E1,1.3227249E1,1.4702057E1,8.172501E0,2.6308182E1,2.0308235E1,1.29808035E1,1.7908348E1,0E0,7.161621E0,1.9944565E1,1.6700195E1,1.0336832E1,8.161377E0,0E0,0E0,0E0,1.174231E1,0E0,0E0,7.2191467E0,0E0,0E0,0E0,8.350018E0,0E0,3.270176E1,0E0,1.0351323E1,0E0,1.5757965E1,0E0,0E0,0E0,1.0680153E1,1.3724228E1,7.1916656E0,0E0,0E0,0E0,0E0,0E0,0E0,0E0,0E0,0E0,0E0,0E0,0E0,0E0,0E0,0E0,0E0,0E0,0E0,0E0,0E0,0E0,0E0,0E0],"parents":[2147483647,0,0,1,1,2,2,3,3,4,4,5,5,6,6,7,7,8,8,9,9,10,10,11,11,12,12,13,13,14,14,15,15,17,17,18,18,19,19,20,20,21,21,22,22,23,23,24,24,26,26,27,27,28,28,29,29,30,30,34,34,37,37,41,41,43,43,45,45,47,47,51,51,52,52,53,53],"right_children":[2,4,6,8,10,12,14,16,18,20,22,24,26,28,30,32,-1,34,36,38,40,42,44,46,48,-1,50,52,54,56,58,-1,-1,-1,60,-1,-1,62,-1,-1,-1,64,-1,66,-1,68,-1,70,-1,-1,-1,72,74,76,-1,-1,-1,-1,-1,-1,-1,-1,-1,-1,-1,-1,-1,-1,-1,-1,-1,-1,-1,-1,-1,-1,-1],"split_conditions":[2.5582775E-2,2.3932423E-2,1.1731493E0,9.720603E-4,1.924664E-2,1.6474899E-2,1.2229883E-2,5.1731263E-6,3.003342E1,3.77444E-2,5.939925E-4,3.336914E-4,4.2336643E-1,2.4477048E0,4.1195766E-5,1.4466488E-6,2.5568292E-2,3.2893562E-1,8.5E-1,3.033436E1,1.2229883E-2,5.052302E-4,3.36E-1,1.3069785E2,1.2707615E-2,-7.5093615E-3,2.3855764E-2,1.6553955E-4,6.535841E-4,1.2597372E-3,-1.29E0,2.6233763E-2,1.4904519E-2,2.3990992E-2,6.85E-1,1.3815633E-2,1.2190889E-3,7.7E-1,-9.685292E-5,2.27619E-2,8.040287E-3,5.5540174E-1,2.629675E-2,-8.7E-1,1.2595764E-2,2.6852116E1,4.01957E-3,7.915598E-3,1.9919206E-3,-7.0429128E-3,-1.1853119E-2,4.0320847E-3,1.2923278E-3,4.6166578E-1,-1.2155446E-2,-1.1280183E-2,1.8530915E-3,-4.020498E-3,-1.3590665E-2,1.8665431E-2,4.5273136E-3,1.4273513E-2,8.121117E-3,1.2791565E-2,2.1169046E-3,1.3030842E-2,1.750433E-3,1.6591577E-3,-2.8165453E-3,-1.2708175E-3,-7.2209416E-3,-1.5042442E-3,-6.8353475E-3,-1.3035109E-3,-9.820631E-3,-8.696276E-3,-8.825716E-4],"split_indices":[20,24,20,24,23,23,23,29,39,30,30,29,20,20,24,22,0,49,79,39,23,30,85,46,29,0,23,29,24,25,77,0,0,0,87,0,0,14,0,0,0,49,0,14,0,37,0,24,0,0,0,23,23,51,0,0,0,0,0,0,0,0,0,0,0,0,0,0,0,0,0,0,0,0,0,0,0],"split_type":[0,0,0,0,0,0,0,0,0,0,0,0,0,0,0,0,0,0,0,0,0,0,0,0,0,0,0,0,0,0,0,0,0,0,0,0,0,0,0,0,0,0,0,0,0,0,0,0,0,0,0,0,0,0,0,0,0,0,0,0,0,0,0,0,0,0,0,0,0,0,0,0,0,0,0,0,0],"sum_hessian":[2.575542E4,7.5470273E3,1.8208393E4,5.424577E3,2.12245E3,5.327763E3,1.2880629E4,2.5419766E3,2.8826008E3,1.1631604E3,9.592897E2,2.2898782E3,3.0378848E3,4.768768E3,8.111861E3,2.893434E2,2.252633E3,2.6302092E3,2.5239156E2,9.989033E2,1.6425705E2,2.3184398E2,7.274457E2,1.1643188E3,1.1255594E3,1.0379365E3,1.9999482E3,1.4827178E3,3.2860503E3,9.006434E1,8.021797E3,6.087266E1,2.2847075E2,4.1236526E2,2.217844E3,2.083484E2,4.4043156E1,9.6752264E2,3.1380693E1,1.3469347E2,2.9563583E1,1.729384E2,5.890558E1,5.487089E2,1.7873677E2,9.468285E2,2.1749037E2,9.930598E2,1.324996E2,1.8096532E2,1.8189829E3,6.269292E2,8.557886E2,4.5766382E2,2.8283865E3,5.3274326E1,3.6790016E1,4.5641617E1,7.9761553E3,2.1872332E3,3.0610878E1,8.425958E2,1.2492681E2,1.2777552E2,4.5162876E1,1.3666661E2,4.1204233E2,3.018427E2,6.449858E2,2.4838608E2,7.446737E2,3.2760782E2,2.9932138E2,9.098383E1,7.6480475E2,3.9804968E2,5.9614155E1],"tree_param":{"num_deleted":"0","num_feature":"91","num_nodes":"77","size_leaf_vector":"1"}},{"base_weights":[5.1998343E-2,2.5540254E-1,-4.9808E-1,-3.5783473E-1,6.500425E-1,-2.6930547E-1,-6.203472E-1,-4.7795147E-1,-5.7429094E-2,7.922117E-1,2.6885846E-1,-2.0891179E-1,-3.893428E-1,-5.2468896E-1,-1.37717845E-2,-6.206417E-1,-3.5301262E-1,4.393122E-3,-2.748149E-1,5.90365E-1,9.7708356E-1,1.5938763E-1,4.5463687E-1,-1.0503329E-2,-1.8265712E-1,-2.3861954E-3,-8.581483E-3,-8.339659E-3,-1.181555E-2,-4.0696228E-1,-1.3033587E-2,-2.865461E-1,-5.5411994E-1,-1.3469704E-2,3.273414E-2,-7.2644693E-3,-2.529871E-4,3.0126418E-3,6.213517E-1,1.0439402E0,7.600529E-1,3.0130273E-1,3.220456E-2,6.0423887E-1,2.8164056E-1,2.2247822E-3,-4.004775E-3,-1.26483785E-2,-4.7207987E-3,-7.3733E-3,-2.6821324E-3,-1.1936518E-2,-4.3748254E-3,-8.6469395E-4,3.3107575E-3,1.0173848E-2,1.438814E-2,2.1566384E-2,1.05015375E-2,9.978154E-3,1.7926201E-2,1.3099737E-2,5.145381E-3,1.3806123E-3,-6.3823927E-3,6.567306E-3,1.397238E-2,6.8750824E-3,-7.547997E-5],"categories":[],"categories_nodes":[],"categories_segments":[],"categories_sizes":[],"default_left":[0,0,0,0,0,0,0,0,0,0,0,0,0,0,0,0,0,0,0,0,0,0,0,0,0,0,0,0,0,0,0,0,0,0,0,0,0,0,0,0,0,0,0,0,0,0,0,0,0,0,0,0,0,0,0,0,0,0,0,0,0,0,0,0,0,0,0,0,0],"id":7,"left_children":[1,3,5,7,9,11,13,15,17,19,21,23,25,27,-1,29,31,33,35,37,39,41,43,-1,45,-1,-1,-1,-1,47,-1,49,51,-1,53,-1,-1,-1,55,57,59,61,63,65,67,-1,-1,-1,-1,-1,-1,-1,-1,-1,-1,-1,-1,-1,-1,-1,-1,-1,-1,-1,-1,-1,-1,-1,-1],"loss_changes":[2.8914849E3,4.5674707E3,1.9366772E2,2.662193E2,6.2042334E2,1.6893066E1,2.4614624E1,9.22749E1,2.8637314E1,3.077256E2,6.286862E1,1.2496971E1,7.376892E0,1.0543213E1,0E0,1.1559937E1,3.6429047E1,3.1286036E1,1.0346649E1,5.383899E1,5.7586426E1,3.548341E1,2.841542E1,0E0,7.341175E0,0E0,0E0,0E0,0E0,9.513493E0,0E0,2.5486298E1,7.733383E0,0E0,1.5956794E1,0E0,0E0,0E0,3.7647217E1,4.1160645E1,3.262982E1,1.3494553E1,1.331193E1,1.3313263E1,9.50573E0,0E0,0E0,0E0,0E0,0E0,0E0,0E0,0E0,0E0,0E0,0E0,0E0,0E0,0E0,0E0,0E0,0E0,0E0,0E0,0E0,0E0,0E0,0E0,0E0],"parents":[2147483647,0,0,1,1,2,2,3,3,4,4,5,5,6,6,7,7,8,8,9,9,10,10,11,11,12,12,13,13,15,15,16,16,17,17,18,18,19,19,20,20,21,21,22,22,24,24,29,29,31,31,32,32,34,34,38,38,39,39,40,40,41,41,42,42,43,43,44,44],"right_children":[2,4,6,8,10,12,14,16,18,20,22,24,26,28,-1,30,32,34,36,38,40,42,44,-1,46,-1,-1,-1,-1,48,-1,50,52,-1,54,-1,-1,-1,56,58,60,62,64,66,68,-1,-1,-1,-1,-1,-1,-1,-1,-1,-1,-1,-1,-1,-1,-1,-1,-1,-1,-1,-1,-1,-1,-1,-1],"split_conditions":[3.6567676E0,2.5582775E-2,5.9507113E0,2.3932423E-2,2.0671086E0,8.470062E-2,9.420842E0,9.720603E-4,1.393349E-1,2.45962E-2,5.527932E-1,2.863488E-1,5.222881E1,1.2229883E-2,-1.37717845E-2,5.1731263E-6,1.12209715E-1,4.968372E-3,1.0561583E-2,8.5823087E-4,1.4378077E0,2.6843975E0,2.7871652E0,-1.0503329E-2,2.805496E-1,-2.3861954E-3,-8.581483E-3,-8.339659E-3,-1.181555E-2,2.2008005E-4,-1.3033587E-2,2.6351892E-4,1.1427016E-2,-1.3469704E-2,1.361591E-1,-7.2644693E-3,-2.529871E-4,3.0126418E-3,2.9220097E-4,6.1865417E1,4.7352552E-1,2.1625789E-1,2.701335E1,5.090264E-2,2.2099652E0,2.2247822E-3,-4.004775E-3,-1.26483785E-2,-4.7207987E-3,-7.3733E-3,-2.6821324E-3,-1.1936518E-2,-4.3748254E-3,-8.6469395E-4,3.3107575E-3,1.0173848E-2,1.438814E-2,2.1566384E-2,1.05015375E-2,9.978154E-3,1.7926201E-2,1.3099737E-2,5.145381E-3,1.3806123E-3,-6.3823927E-3,6.567306E-3,1.397238E-2,6.8750824E-3,-7.547997E-5],"split_indices":[20,20,20,24,20,23,20,24,26,23,51,51,3,23,0,29,26,26,23,24,20,20,20,0,6,0,0,0,0,22,0,27,27,0,24,0,0,0,29,66,51,7,33,24,53,0,0,0,0,0,0,0,0,0,0,0,0,0,0,0,0,0,0,0,0,0,0,0,0],"split_type":[0,0,0,0,0,0,0,0,0,0,0,0,0,0,0,0,0,0,0,0,0,0,0,0,0,0,0,0,0,0,0,0,0,0,0,0,0,0,0,0,0,0,0,0,0,0,0,0,0,0,0,0,0,0,0,0,0,0,0,0,0,0,0,0,0,0,0,0,0],"sum_hessian":[2.5831611E4,1.8861309E4,6.9703027E3,7.384895E3,1.1476414E4,2.4357554E3,4.5345474E3,5.2717236E3,2.1131711E3,8.353253E3,3.1231606E3,1.6340594E3,8.016958E2,1.8251481E3,2.7093992E3,2.4482937E3,2.82343E3,1.6476036E3,4.6556763E2,4.0062498E3,4.3470034E3,1.9737971E3,1.1493634E3,1.1668439E2,1.5173751E3,9.9815125E1,7.018807E2,6.7075476E2,1.1543933E3,2.7888672E2,2.169407E3,2.1346438E3,6.887863E2,6.056344E1,1.5870402E3,3.4771387E2,1.1785376E2,2.6647958E2,3.7397703E3,3.304578E3,1.0424257E3,9.2704834E2,1.0467488E3,6.069355E2,5.424279E2,7.521606E1,1.442159E3,1.1439019E2,1.6449654E2,1.3996897E3,7.3495404E2,6.1333624E2,7.545009E1,1.00733185E3,5.797083E2,1.6745576E3,2.0652126E3,3.1404412E3,1.6413678E2,3.5259595E2,6.898297E2,9.783297E1,8.292154E2,9.5375275E2,9.299599E1,1.5511104E2,4.5182446E2,4.4958575E2,9.28422E1],"tree_param":{"num_deleted":"0","num_feature":"91","num_nodes":"69","size_leaf_vector":"1"}},{"base_weights":[5.3491414E-2,-4.645915E-1,9.5612824E-1,-5.7290816E-1,-1.438611E-1,5.3896445E-1,1.1971473E0,-5.868131E-1,1.3621338E-3,-2.560946E-1,4.10959E-2,3.8973024E-1,7.573698E-1,1.0546572E0,2.6585639E-2,-5.9220445E-1,2.3064765E-1,-1.0554666E-2,3.7803075E-1,-4.2059222E-1,-1.5096384E-1,-1.7316451E-2,5.282597E-1,2.7419516E-1,5.4047674E-1,5.800323E-1,1.710842E-2,8.8291055E-1,1.1489955E0,-6.220812E-1,-4.8044047E-1,-3.4749839E-3,1.2767654E-2,-4.8715314E-3,1.151652E-2,-6.170432E-3,-1.0137897E-2,-5.204973E-2,-2.5303736E-1,-4.827134E-2,1.2335442E-2,7.087601E-1,-2.8495703E-4,3.3560288E-3,3.8739833E-1,8.459519E-3,7.454271E-1,1.3755745E-2,7.81326E-3,7.6029265E-1,2.009457E-2,2.106612E-2,2.4828764E-2,-8.525186E-3,-1.275147E-2,-8.089436E-3,-1.1693611E-2,-2.4868767E-3,1.7493262E-3,-8.0373455E-3,-3.6397255E-3,-3.2677487E-3,1.9705044E-3,4.7368533E-3,1.7123071E-2,1.652268E-3,9.558849E-3,1.6024608E-2,3.7958098E-3,1.738584E-2,1.1412621E-2],"categories":[],"categories_nodes":[],"categories_segments":[],"categories_sizes":[],"default_left":[0,0,0,0,0,0,0,0,0,0,0,0,0,0,0,0,0,0,0,0,0,0,0,0,0,0,0,0,0,0,0,0,0,0,0,0,0,0,0,0,0,0,0,0,0,0,0,0,0,0,0,0,0,0,0,0,0,0,0,0,0,0,0,0,0,0,0,0,0,0,0],"id":8,"left_children":[1,3,5,7,9,11,13,15,17,19,21,23,25,27,-1,29,31,-1,33,35,37,39,41,43,45,47,-1,49,51,53,55,-1,-1,-1,-1,-1,-1,57,59,61,-1,63,-1,-1,65,-1,67,-1,-1,69,-1,-1,-1,-1,-1,-1,-1,-1,-1,-1,-1,-1,-1,-1,-1,-1,-1,-1,-1,-1,-1],"loss_changes":[1.2103525E4,5.70374E2,9.4428516E2,9.8467285E1,8.654325E1,1.1067383E2,9.456543E1,5.387207E1,5.944783E1,4.4134018E1,4.5137638E1,3.4796906E1,1.9087402E1,3.819409E1,0E0,3.7473633E1,1.4211735E1,0E0,2.2060577E1,8.139511E0,1.5827728E1,2.7320612E1,1.7073002E1,1.3789574E1,1.9604126E1,7.669525E0,0E0,8.865906E0,6.6293945E0,1.7718018E1,1.8175537E1,0E0,0E0,0E0,0E0,0E0,0E0,8.192508E0,7.486618E0,2.2580832E1,0E0,6.798256E0,0E0,0E0,1.4640854E1,0E0,7.477783E0,0E0,0E0,6.6351013E0,0E0,0E0,0E0,0E0,0E0,0E0,0E0,0E0,0E0,0E0,0E0,0E0,0E0,0E0,0E0,0E0,0E0,0E0,0E0,0E0,0E0],"parents":[2147483647,0,0,1,1,2,2,3,3,4,4,5,5,6,6,7,7,8,8,9,9,10,10,11,11,12,12,13,13,15,15,16,16,18,18,19,19,20,20,21,21,22,22,23,23,24,24,25,25,27,27,28,28,29,29,30,30,37,37,38,38,39,39,41,41,44,44,46,46,49,49],"right_children":[2,4,6,8,10,12,14,16,18,20,22,24,26,28,-1,30,32,-1,34,36,38,40,42,44,46,48,-1,50,52,54,56,-1,-1,-1,-1,-1,-1,58,60,62,-1,64,-1,-1,66,-1,68,-1,-1,70,-1,-1,-1,-1,-1,-1,-1,-1,-1,-1,-1,-1,-1,-1,-1,-1,-1,-1,-1,-1,-1],"split_conditions":[2.4036958E0,1.0815897E0,4.575139E0,6.85E-1,2.645868E2,3.5301325E0,8.462981E0,2.7E0,4.5E-1,1.5244496E0,5.833381E-1,2.5121277E2,9.731139E-3,1.2229883E-2,2.6585639E-2,5.4307663E-1,3.019709E1,-1.0554666E-2,2.7834906E1,5.5090976E-1,2.8779032E1,6.85E-1,4.626978E-1,5.2645046E-2,2.9404232E1,1.1088662E0,1.710842E-2,1.8552302E-4,5.9507113E0,-1.09E0,5.172021E-1,-3.4749839E-3,1.2767654E-2,-4.8715314E-3,1.151652E-2,-6.170432E-3,-1.0137897E-2,5.2645046E-2,1.751637E0,1.7206028E0,1.2335442E-2,-8.3E-1,-2.8495703E-4,3.3560288E-3,3.5045147E-1,8.459519E-3,2.5899597E2,1.3755745E-2,7.81326E-3,2.1969885E1,2.009457E-2,2.106612E-2,2.4828764E-2,-8.525186E-3,-1.275147E-2,-8.089436E-3,-1.1693611E-2,-2.4868767E-3,1.7493262E-3,-8.0373455E-3,-3.6397255E-3,-3.2677487E-3,1.9705044E-3,4.7368533E-3,1.7123071E-2,1.652268E-3,9.558849E-3,1.6024608E-2,3.7958098E-3,1.738584E-2,1.1412621E-2],"split_indices":[20,20,20,87,45,20,20,77,17,20,49,45,23,23,0,20,39,0,39,51,2,87,54,23,39,54,0,27,20,76,51,0,0,0,0,0,0,23,20,20,0,17,0,0,7,0,42,0,0,35,0,0,0,0,0,0,0,0,0,0,0,0,0,0,0,0,0,0,0,0,0],"split_type":[0,0,0,0,0,0,0,0,0,0,0,0,0,0,0,0,0,0,0,0,0,0,0,0,0,0,0,0,0,0,0,0,0,0,0,0,0,0,0,0,0,0,0,0,0,0,0,0,0,0,0,0,0,0,0,0,0,0,0,0,0,0,0,0,0,0,0,0,0,0,0],"sum_hessian":[2.5870334E4,1.6437766E4,9.43257E3,1.2283215E4,4.15455E3,3.4617517E3,5.9708184E3,1.1993676E4,2.89539E2,2.5861355E3,1.5684144E3,2.0675618E3,1.3941898E3,2.781631E3,3.1891875E3,1.1917353E4,7.632327E1,1.1937951E2,1.701595E2,9.995471E2,1.5865883E3,1.4043806E3,1.640337E2,1.1817599E3,8.858019E2,4.910182E2,9.031717E2,1.0093803E3,1.7722507E3,9.378927E3,2.5384258E3,3.9083176E1,3.72401E1,3.943055E1,1.3072894E2,4.3275354E2,5.667936E2,8.1298865E2,7.735996E2,1.3444495E3,5.9931255E1,1.2254553E2,4.1488174E1,6.155011E2,5.6625885E2,5.701703E2,3.1563162E2,3.0886526E2,1.8215292E2,5.101972E2,4.991831E2,8.2524774E2,9.4700305E2,4.8980966E2,8.889117E3,1.4355135E3,1.1029122E3,5.401689E2,2.728198E2,2.4564793E2,5.2795166E2,7.572769E2,5.871725E2,3.2516136E1,9.00294E1,1.2934184E2,4.36917E2,2.8659982E2,2.9031792E1,3.1914233E2,1.9105487E2],"tree_param":{"num_deleted":"0","num_feature":"91","num_nodes":"71","size_leaf_vector":"1"}},{"base_weights":[-9.963975E-2,9.1372496E-1,-5.241692E-1,1.0501851E0,5.9864956E-1,-3.232673E-1,-6.025395E-1,1.1981785E0,9.080486E-1,4.9020004E-1,9.164603E-1,-1.6373114E-1,-4.862082E-1,-2.8482366E-1,-6.1796206E-1,2.4551222E-2,1.4730544E-2,8.432584E-1,1.115615E0,2.5709676E-2,4.5693725E-1,2.2035109E-2,1.4864546E-2,-9.979476E-2,-3.1098667E-1,-3.7756166E-1,-5.719673E-1,-8.725122E-2,-9.349781E-3,-5.319404E-1,-1.3282832E-2,9.1021264E-1,1.0560073E-2,2.3678206E-2,1.2924645E-2,4.7753742E-1,-3.415728E-3,-1.3220093E-1,3.453959E-1,-6.851838E-3,2.0513507E-4,-8.112562E-3,-2.570515E-3,-5.664923E-3,-1.2110149E-2,-4.8051258E-3,8.4426664E-2,-4.3617064E-1,-6.174131E-1,1.976739E-2,1.3657844E-2,-4.811183E-3,9.9844625E-3,-2.9260453E-4,-5.2929465E-3,1.0327724E-2,-1.4732167E-4,7.354438E-3,-1.786382E-3,-1.1831668E-3,-9.326655E-3,-1.2627307E-2,-2.0501483E-3],"categories":[],"categories_nodes":[],"categories_segments":[],"categories_sizes":[],"default_left":[0,0,0,0,0,0,0,0,0,0,0,0,0,0,0,0,0,0,0,0,0,0,0,0,0,0,0,0,0,0,0,0,0,0,0,0,0,0,0,0,0,0,0,0,0,0,0,0,0,0,0,0,0,0,0,0,0,0,0,0,0,0,0],"id":9,"left_children":[1,3,5,7,9,11,13,15,17,19,21,23,25,27,29,-1,-1,31,33,-1,35,-1,-1,37,39,41,43,45,-1,47,-1,49,-1,-1,-1,51,-1,53,55,-1,-1,-1,-1,-1,-1,-1,57,59,61,-1,-1,-1,-1,-1,-1,-1,-1,-1,-1,-1,-1,-1,-1],"loss_changes":[1.1078649E4,3.223584E2,2.8410693E2,1.0398291E2,7.63244E1,1.3194067E2,6.240869E1,1.7869873E1,3.0174316E1,4.107556E1,1.27057495E1,2.39832E1,2.172168E1,2.1263817E1,4.129492E1,0E0,0E0,4.1432007E1,1.2329468E1,0E0,2.2275818E1,0E0,0E0,2.6365025E1,7.4607697E0,6.47348E0,1.026886E1,8.030983E0,0E0,3.1057129E1,0E0,2.3656738E1,0E0,0E0,0E0,2.1638153E1,0E0,2.5909906E1,7.599309E0,0E0,0E0,0E0,0E0,0E0,0E0,0E0,7.318107E0,1.8981323E1,9.234619E0,0E0,0E0,0E0,0E0,0E0,0E0,0E0,0E0,0E0,0E0,0E0,0E0,0E0,0E0],"parents":[2147483647,0,0,1,1,2,2,3,3,4,4,5,5,6,6,7,7,8,8,9,9,10,10,11,11,12,12,13,13,14,14,17,17,18,18,20,20,23,23,24,24,25,25,26,26,27,27,29,29,31,31,35,35,37,37,38,38,46,46,47,47,48,48],"right_children":[2,4,6,8,10,12,14,16,18,20,22,24,26,28,30,-1,-1,32,34,-1,36,-1,-1,38,40,42,44,46,-1,48,-1,50,-1,-1,-1,52,-1,54,56,-1,-1,-1,-1,-1,-1,-1,58,60,62,-1,-1,-1,-1,-1,-1,-1,-1,-1,-1,-1,-1,-1,-1],"split_conditions":[2.5582775E-2,1.9216515E-2,1.1286639E0,9.720603E-4,1.393349E-1,8.5061945E-2,2.9144608E-4,9.8043716E-1,1.12209715E-1,4.968372E-3,4.2764835E-2,2.9341387E1,4.928609E-1,4.8637247E0,2.5369103E0,2.4551222E-2,1.4730544E-2,1.9092604E-3,1.1427016E-2,2.5709676E-2,9.6E-1,2.2035109E-2,1.4864546E-2,1.3790056E-1,3.4539633E2,2.8321722E-3,2.6733603E1,1.5873827E-2,-9.349781E-3,7.082245E-2,-1.3282832E-2,4.4488063E-4,1.0560073E-2,2.3678206E-2,1.2924645E-2,-1.44E0,-3.415728E-3,1.842176E-2,2.3703222E1,-6.851838E-3,2.0513507E-4,-8.112562E-3,-2.570515E-3,-5.664923E-3,-1.2110149E-2,-4.8051258E-3,3.363756E2,2.5219902E1,2.0920731E-1,1.976739E-2,1.3657844E-2,-4.811183E-3,9.9844625E-3,-2.9260453E-4,-5.2929465E-3,1.0327724E-2,-1.4732167E-4,7.354438E-3,-1.786382E-3,-1.1831668E-3,-9.326655E-3,-1.2627307E-2,-2.0501483E-3],"split_indices":[20,24,20,24,26,24,24,28,26,26,24,38,20,20,20,0,0,22,27,0,79,0,0,26,42,27,37,30,0,24,0,27,0,0,0,17,0,24,35,0,0,0,0,0,0,0,4,2,26,0,0,0,0,0,0,0,0,0,0,0,0,0,0],"split_type":[0,0,0,0,0,0,0,0,0,0,0,0,0,0,0,0,0,0,0,0,0,0,0,0,0,0,0,0,0,0,0,0,0,0,0,0,0,0,0,0,0,0,0,0,0,0,0,0,0,0,0,0,0,0,0,0,0,0,0,0,0,0,0],"sum_hessian":[2.5740547E4,7.597394E3,1.8143152E4,5.2907744E3,2.3066196E3,5.101668E3,1.3041484E4,2.569172E3,2.721602E3,1.7319602E3,5.746594E2,2.585333E3,2.5163347E3,6.1062366E2,1.2430861E4,2.453659E3,1.15513306E2,2.098356E3,6.2324603E2,6.09775E1,1.6709827E3,2.726396E2,3.0201987E2,1.8120432E3,7.732898E2,1.1266216E3,1.3897133E3,2.9589813E2,3.1472552E2,4.050042E3,8.380818E3,1.7243706E3,3.7398544E2,5.454408E2,7.780524E1,1.6199789E3,5.10039E1,1.6940369E3,1.1800628E2,7.105849E2,6.2704933E1,1.01907074E3,1.0755089E2,1.329995E2,1.2567137E3,1.579255E2,1.3797263E2,1.9295979E3,2.120444E3,1.3066882E3,4.176824E2,3.6946198E1,1.5830326E3,8.96166E2,7.9787085E2,7.9414E1,3.8592278E1,5.1479107E1,8.649352E1,1.2965866E2,1.7999392E3,2.0812478E3,3.9196392E1],"tree_param":{"num_deleted":"0","num_feature":"91","num_nodes":"63","size_leaf_vector":"1"}},{"base_weights":[5.2872747E-2,2.4680853E-1,-4.9677366E-1,-3.5629448E-1,6.233938E-1,-3.030006E-1,-6.3448626E-1,-5.772601E-1,-2.2247815E-1,7.528228E-1,1.7885605E-1,-1.9849801E-1,-3.870122E-1,-1.0912605E-2,-1.3632157E-2,-6.02567E-1,-2.3645113E-1,-4.4267155E-2,-3.6151567E-1,5.644023E-1,9.293433E-1,-8.944603E-2,2.3649055E-1,-3.9617795E-1,-1.4507304E-1,-6.0660494E-3,-9.8439315E-3,-1.3640452E-2,-5.33938E-1,-7.2651794E-3,1.0298844E-1,-1.304636E-2,-2.374413E-2,-2.9914862E-1,-5.0108457E-1,2.1957013E-1,5.954356E-1,1.0242745E0,6.997799E-1,4.646252E-3,-1.761747E-1,3.9750636E-1,1.426524E-1,-1.0290248E-2,-2.6417393E-3,-1.5178965E-3,-6.256832E-3,-1.2676909E-2,-8.300576E-3,-5.198296E-3,8.841404E-3,-3.0261255E-3,1.5891327E-3,-7.3178657E-3,-7.70639E-4,-1.0847841E-2,-1.8018088E-3,-1.4283059E-3,6.5491414E-3,9.432048E-3,1.3862499E-2,2.115403E-2,9.905232E-3,9.574974E-3,1.7237218E-2,-7.6314546E-3,-1.2823879E-3,5.736371E-3,1.161279E-2,4.0525207E-3,-1.041394E-3],"categories":[],"categories_nodes":[],"categories_segments":[],"categories_sizes":[],"default_left":[0,0,0,0,0,0,0,0,0,0,0,0,0,0,0,0,0,0,0,0,0,0,0,0,0,0,0,0,0,0,0,0,0,0,0,0,0,0,0,0,0,0,0,0,0,0,0,0,0,0,0,0,0,0,0,0,0,0,0,0,0,0,0,0,0,0,0,0,0,0,0],"id":10,"left_children":[1,3,5,7,9,11,13,15,17,19,21,23,25,-1,-1,27,29,31,33,35,37,39,41,43,45,-1,-1,-1,47,-1,49,-1,51,53,55,57,59,61,63,-1,65,67,69,-1,-1,-1,-1,-1,-1,-1,-1,-1,-1,-1,-1,-1,-1,-1,-1,-1,-1,-1,-1,-1,-1,-1,-1,-1,-1,-1,-1],"loss_changes":[2.7588193E3,4.346598E3,1.784856E2,2.1635083E2,6.764878E2,2.3957062E1,1.2567505E1,2.2595093E1,1.1348532E2,2.995122E2,4.1414055E1,1.2776409E1,1.2254303E1,0E0,0E0,1.0352478E1,8.882246E0,2.4547258E1,2.112204E1,4.617212E1,9.731323E1,1.3346205E1,3.2563484E1,7.278122E0,1.1312092E1,0E0,0E0,0E0,1.3803375E1,0E0,7.7060895E0,0E0,2.5548174E1,2.9701431E1,1.1374878E1,1.179104E1,4.5274048E1,4.088208E1,4.5637146E1,0E0,8.208146E0,1.4778458E1,1.6031286E1,0E0,0E0,0E0,0E0,0E0,0E0,0E0,0E0,0E0,0E0,0E0,0E0,0E0,0E0,0E0,0E0,0E0,0E0,0E0,0E0,0E0,0E0,0E0,0E0,0E0,0E0,0E0,0E0],"parents":[2147483647,0,0,1,1,2,2,3,3,4,4,5,5,6,6,7,7,8,8,9,9,10,10,11,11,12,12,15,15,16,16,17,17,18,18,19,19,20,20,21,21,22,22,23,23,24,24,28,28,30,30,32,32,33,33,34,34,35,35,36,36,37,37,38,38,40,40,41,41,42,42],"right_children":[2,4,6,8,10,12,14,16,18,20,22,24,26,-1,-1,28,30,32,34,36,38,40,42,44,46,-1,-1,-1,48,-1,50,-1,52,54,56,58,60,62,64,-1,66,68,70,-1,-1,-1,-1,-1,-1,-1,-1,-1,-1,-1,-1,-1,-1,-1,-1,-1,-1,-1,-1,-1,-1,-1,-1,-1,-1,-1,-1],"split_conditions":[3.8010077E0,2.5582775E-2,6.8146195E0,2.4895621E-3,2.332765E0,4.8637247E0,9.420842E0,5.6092916E-3,4.615288E-4,2.5947595E-2,3.7481427E-1,4.4175485E-1,4.2277515E-2,-1.0912605E-2,-1.3632157E-2,6.0776924E-4,8.721193E-1,4.968372E-3,1.2537101E-1,1.2923278E-3,1.4378077E0,7.7936714E1,2.7871652E0,1.2617074E2,9.359717E-2,-6.0660494E-3,-9.8439315E-3,-1.3640452E-2,2.2913873E-5,-7.2651794E-3,-2.3E-1,-1.304636E-2,7.6182275E-3,4.4488063E-4,1.1427016E-2,6.9715185E-5,7.243142E-5,6.1865417E1,5.3360295E-1,4.646252E-3,-3.8315246E0,5.8145005E-1,3.5301325E0,-1.0290248E-2,-2.6417393E-3,-1.5178965E-3,-6.256832E-3,-1.2676909E-2,-8.300576E-3,-5.198296E-3,8.841404E-3,-3.0261255E-3,1.5891327E-3,-7.3178657E-3,-7.70639E-4,-1.0847841E-2,-1.8018088E-3,-1.4283059E-3,6.5491414E-3,9.432048E-3,1.3862499E-2,2.115403E-2,9.905232E-3,9.574974E-3,1.7237218E-2,-7.6314546E-3,-1.2823879E-3,5.736371E-3,1.161279E-2,4.0525207E-3,-1.041394E-3],"split_indices":[20,20,20,23,20,20,20,27,25,23,51,54,23,0,0,23,28,26,26,23,20,40,20,48,23,0,0,0,27,0,80,0,23,27,27,27,27,66,51,0,69,51,20,0,0,0,0,0,0,0,0,0,0,0,0,0,0,0,0,0,0,0,0,0,0,0,0,0,0,0,0],"split_type":[0,0,0,0,0,0,0,0,0,0,0,0,0,0,0,0,0,0,0,0,0,0,0,0,0,0,0,0,0,0,0,0,0,0,0,0,0,0,0,0,0,0,0,0,0,0,0,0,0,0,0,0,0,0,0,0,0,0,0,0,0,0,0,0,0,0,0,0,0,0,0],"sum_hessian":[2.587007E4,1.9125922E4,6.744148E3,7.3514067E3,1.1774516E4,2.8111252E3,3.9330227E3,2.7640334E3,4.5873735E3,9.115303E3,2.6592126E3,1.264385E3,1.5467402E3,1.2507809E3,2.6822417E3,2.5673262E3,1.9670735E2,2.0155688E3,2.5718047E3,4.422222E3,4.6930806E3,4.67916E2,2.1912966E3,2.589248E2,1.00546014E3,8.522512E2,6.944891E2,1.2047961E3,1.3625299E3,1.4503261E2,5.1674755E1,5.9663868E1,1.9559049E3,1.7927762E3,7.790283E2,3.704543E2,4.0517678E3,3.3043337E3,1.388747E3,9.635457E1,3.715614E2,7.9778485E2,1.3935117E3,1.7566339E2,8.326141E1,7.1545856E2,2.900016E2,7.500033E2,6.125266E2,2.472462E1,2.6950132E1,8.775553E2,1.0783497E3,1.4362988E3,3.5647742E2,7.116361E2,6.73922E1,9.769336E1,2.7276096E2,1.7202186E3,2.331549E3,3.1479084E3,1.5642517E2,5.790168E2,8.097301E2,1.2609507E2,2.4546634E2,4.999973E2,2.9778754E2,1.0734811E3,3.2003058E2],"tree_param":{"num_deleted":"0","num_feature":"91","num_nodes":"71","size_leaf_vector":"1"}},{"base_weights":[4.7621075E-2,-4.6365592E-1,9.326318E-1,-5.653293E-1,-1.4638808E-1,5.3080267E-1,1.1652308E0,-5.803909E-1,3.4676082E-2,-2.555478E-1,4.0217854E-2,3.7456194E-1,7.311773E-1,1.0256389E0,2.5880385E-2,-5.8596206E-1,2.885379E-1,-1.0590606E-2,4.221635E-1,-3.6206627E-1,-1.3131729E-1,-8.208292E-2,3.0280277E-1,5.6003964E-1,2.799117E-1,7.54867E-1,6.4449296E-3,1.114809E0,9.351605E-1,-6.211602E-1,-4.867461E-1,-3.7565075E-3,1.5435761E-2,-2.5637501E-3,1.1964251E-2,-1.981167E-1,-4.330163E-1,-6.3879574E-3,-6.6849805E-2,-1.9933297E-1,7.141959E-2,1.6227424E-1,7.087228E-1,2.5917485E-1,6.6164565E-1,3.1212103E-1,3.989981E-4,8.279722E-3,7.7756006E-1,2.2946518E-2,1.1542597E-2,1.9181589E-2,9.890708E-3,-9.621695E-3,-1.27313975E-2,-1.1397139E-2,-8.232485E-3,-7.3809004E-3,-1.1398877E-3,-1.9965123E-3,-9.217649E-3,2.0465187E-3,-2.5315606E-3,-6.1428663E-3,-9.570819E-4,3.0744316E-3,-3.6195796E-3,8.46178E-3,-0E0,1.8108798E-2,-0E0,-2.5703953E-4,8.148206E-3,1.0243111E-2,1.7645307E-2,-3.1385673E-3,6.6287583E-3,2.0697359E-2,1.4669724E-2],"categories":[],"categories_nodes":[],"categories_segments":[],"categories_sizes":[],"default_left":[0,0,0,0,0,0,0,0,0,0,0,0,0,0,0,0,0,0,0,0,0,0,0,0,0,0,0,0,0,0,0,0,0,0,0,0,0,0,0,0,0,0,0,0,0,0,0,0,0,0,0,0,0,0,0,0,0,0,0,0,0,0,0,0,0,0,0,0,0,0,0,0,0,0,0,0,0,0,0],"id":11,"left_children":[1,3,5,7,9,11,13,15,17,19,21,23,25,27,-1,29,31,-1,33,35,37,39,41,43,45,47,-1,49,51,53,55,-1,-1,-1,-1,57,59,-1,61,63,65,67,69,71,73,75,-1,-1,77,-1,-1,-1,-1,-1,-1,-1,-1,-1,-1,-1,-1,-1,-1,-1,-1,-1,-1,-1,-1,-1,-1,-1,-1,-1,-1,-1,-1,-1,-1],"loss_changes":[1.1701954E4,5.278694E2,8.80584E2,1.1257593E2,8.139881E1,1.06852234E2,9.060693E1,5.974878E1,6.814601E1,3.2770905E1,4.7623055E1,3.321765E1,1.2804443E1,1.5348145E1,0E0,3.9658203E1,1.9356865E1,0E0,1.8226234E1,1.4853653E1,1.3709869E1,1.831531E1,2.5727695E1,1.8610046E1,1.0819725E1,8.6605835E0,0E0,1.2945435E1,6.9936523E0,1.1074219E1,1.773462E1,0E0,0E0,0E0,0E0,9.653734E0,7.0267334E0,0E0,8.80337E0,8.935865E0,9.083331E0,1.5045279E1,1.633831E1,7.2359295E0,1.2636032E1,9.585968E0,0E0,0E0,1.1243713E1,0E0,0E0,0E0,0E0,0E0,0E0,0E0,0E0,0E0,0E0,0E0,0E0,0E0,0E0,0E0,0E0,0E0,0E0,0E0,0E0,0E0,0E0,0E0,0E0,0E0,0E0,0E0,0E0,0E0,0E0],"parents":[2147483647,0,0,1,1,2,2,3,3,4,4,5,5,6,6,7,7,8,8,9,9,10,10,11,11,12,12,13,13,15,15,16,16,18,18,19,19,20,20,21,21,22,22,23,23,24,24,25,25,27,27,28,28,29,29,30,30,35,35,36,36,38,38,39,39,40,40,41,41,42,42,43,43,44,44,45,45,48,48],"right_children":[2,4,6,8,10,12,14,16,18,20,22,24,26,28,-1,30,32,-1,34,36,38,40,42,44,46,48,-1,50,52,54,56,-1,-1,-1,-1,58,60,-1,62,64,66,68,70,72,74,76,-1,-1,78,-1,-1,-1,-1,-1,-1,-1,-1,-1,-1,-1,-1,-1,-1,-1,-1,-1,-1,-1,-1,-1,-1,-1,-1,-1,-1,-1,-1,-1,-1],"split_conditions":[2.4036958E0,1.1286639E0,4.575139E0,6.85E-1,2.645868E2,3.4603887E0,8.462981E0,2.72E0,-1E-2,1.7206028E0,1.0604705E0,6.4947325E-1,1.4257819E2,7.561892E-1,2.5880385E-2,4.5963803E-1,9.741791E-1,-1.0590606E-2,2.7834906E1,2.4291834E1,4.2997524E-1,1.751637E0,4.6E-1,1.0786873E2,1.0157867E-1,2.805496E-1,6.4449296E-3,2.3733403E-1,1.0845908E-1,-1.03E0,2.4144911E2,-3.7565075E-3,1.5435761E-2,-2.5637501E-3,1.1964251E-2,1.3884774E0,3.1795583E-3,-6.3879574E-3,9.454903E-1,4.3771425E-1,2.3621046E2,-7.1E-1,3.2E-1,-3.8120476E1,2.9555494E1,-1.4259618E1,3.989981E-4,8.279722E-3,3.824648E-1,2.2946518E-2,1.1542597E-2,1.9181589E-2,9.890708E-3,-9.621695E-3,-1.27313975E-2,-1.1397139E-2,-8.232485E-3,-7.3809004E-3,-1.1398877E-3,-1.9965123E-3,-9.217649E-3,2.0465187E-3,-2.5315606E-3,-6.1428663E-3,-9.570819E-4,3.0744316E-3,-3.6195796E-3,8.46178E-3,-0E0,1.8108798E-2,-0E0,-2.5703953E-4,8.148206E-3,1.0243111E-2,1.7645307E-2,-3.1385673E-3,6.6287583E-3,2.0697359E-2,1.4669724E-2],"split_indices":[20,20,20,87,45,20,20,83,73,20,52,54,48,28,0,20,63,0,39,0,7,20,83,5,26,6,0,26,26,15,45,0,0,0,0,20,24,0,54,6,42,83,85,71,39,12,0,0,54,0,0,0,0,0,0,0,0,0,0,0,0,0,0,0,0,0,0,0,0,0,0,0,0,0,0,0,0,0,0],"split_type":[0,0,0,0,0,0,0,0,0,0,0,0,0,0,0,0,0,0,0,0,0,0,0,0,0,0,0,0,0,0,0,0,0,0,0,0,0,0,0,0,0,0,0,0,0,0,0,0,0,0,0,0,0,0,0,0,0,0,0,0,0,0,0,0,0,0,0,0,0,0,0,0,0,0,0,0,0,0,0],"sum_hessian":[2.5849703E4,1.6385668E4,9.464034E3,1.240426E4,3.9814087E3,3.4775671E3,5.986467E3,1.2101616E4,3.02644E2,2.5125598E3,1.4688489E3,1.9648021E3,1.512765E3,2.781343E3,3.205124E3,1.2027024E4,7.4591324E1,1.2231393E2,1.803301E2,1.34434E3,1.1682198E3,1.00331647E3,4.6553235E2,6.5232385E2,1.3124783E3,1.4245662E3,8.819886E1,1.3649727E3,1.4163704E3,8.851109E3,3.1759158E3,3.854313E1,3.6048195E1,4.2460545E1,1.3786955E2,4.150341E2,9.2930585E2,2.9305765E2,8.7516223E2,5.699608E2,4.3335565E2,3.5281015E2,1.1272219E2,1.7123157E2,4.810923E2,1.1648978E3,1.4758035E2,9.64734E1,1.3280928E3,1.300613E3,6.435954E1,1.3578335E3,5.8536846E1,6.2705115E2,8.224058E3,1.5615243E3,1.6143915E3,1.8372853E2,2.3130557E2,6.671298E1,8.6259283E2,2.228068E2,6.523554E2,3.3072864E2,2.392322E2,3.3091776E2,1.02437904E2,1.3317812E2,2.1963205E2,8.820159E1,2.45206E1,6.003788E1,1.11193695E2,2.9297217E2,1.881201E2,3.753374E1,1.1273641E3,1.9995316E2,1.1281396E3],"tree_param":{"num_deleted":"0","num_feature":"91","num_nodes":"79","size_leaf_vector":"1"}},{"base_weights":[-9.606645E-2,8.945592E-1,-5.196919E-1,9.1865224E-1,3.3857632E-1,-3.2937437E-1,-5.944678E-1,8.093399E-1,1.031542E0,4.493386E-1,-5.056702E-3,-4.460953E-1,-1.7193235E-1,-4.9892208E-1,-6.341477E-1,9.807996E-1,7.370638E-1,8.720032E-1,1.0904564E0,-4.021991E-3,5.27104E-1,-4.7174832E-1,4.988615E-2,-1.405739E-1,-8.401628E-3,-5.696571E-1,-3.6184934E-1,-1.3408502E-2,-5.940925E-1,2.0692859E-2,1.3117421E-2,7.139701E-1,2.5969485E-2,8.926709E-1,3.5108554E-3,8.345986E-3,1.0970261E0,1.1730534E-2,1.4080734E-4,-3.638109E-1,-5.301416E-1,8.0664875E-3,-2.812853E-3,-2.2961184E-1,-4.5948684E-2,-5.877141E-1,-1.362692E-1,-3.947969E-1,-1.2911939E-4,-6.039312E-1,-5.5682487E-3,1.1366355E-2,1.6278518E-2,1.9569872E-2,1.3505809E-2,2.4945829E-2,2.1258647E-2,-8.005698E-3,-1.4850347E-3,-4.889673E-3,-1.11715365E-2,-5.340228E-3,6.60081E-3,6.913998E-3,-1.5009969E-3,-8.68976E-3,-1.2442548E-2,1.7127017E-3,-8.476073E-3,-5.092341E-3,-9.415342E-3,-1.22866025E-2,-3.164655E-3],"categories":[],"categories_nodes":[],"categories_segments":[],"categories_sizes":[],"default_left":[0,0,0,0,0,0,0,0,0,0,0,0,0,0,0,0,0,0,0,0,0,0,0,0,0,0,0,0,0,0,0,0,0,0,0,0,0,0,0,0,0,0,0,0,0,0,0,0,0,0,0,0,0,0,0,0,0,0,0,0,0,0,0,0,0,0,0,0,0,0,0,0,0],"id":12,"left_children":[1,3,5,7,9,11,13,15,17,19,-1,21,23,25,27,29,31,33,35,-1,37,39,41,43,-1,45,47,-1,49,-1,-1,51,-1,53,-1,-1,55,-1,-1,57,59,-1,-1,61,63,65,67,69,-1,71,-1,-1,-1,-1,-1,-1,-1,-1,-1,-1,-1,-1,-1,-1,-1,-1,-1,-1,-1,-1,-1,-1,-1],"loss_changes":[1.0792297E4,1.0069092E2,2.5470947E2,8.5228516E1,2.2305283E1,9.286047E1,4.6538086E1,4.1700684E1,2.7336426E1,1.4952099E1,0E0,3.7538757E1,1.6099556E1,3.5358276E1,8.384766E0,1.1902832E1,2.7763062E1,1.2979919E1,8.128418E0,0E0,6.871414E0,1.5901306E1,1.02745075E1,1.6163029E1,0E0,1.8764832E1,1.5213348E1,0E0,1.1193237E1,0E0,0E0,3.3014404E1,0E0,1.23012085E1,0E0,0E0,6.537842E0,0E0,0E0,9.233368E0,1.1198181E1,0E0,0E0,2.0106228E1,1.0567294E1,9.050415E0,7.256922E0,1.132254E1,0E0,9.012817E0,0E0,0E0,0E0,0E0,0E0,0E0,0E0,0E0,0E0,0E0,0E0,0E0,0E0,0E0,0E0,0E0,0E0,0E0,0E0,0E0,0E0,0E0,0E0],"parents":[2147483647,0,0,1,1,2,2,3,3,4,4,5,5,6,6,7,7,8,8,9,9,11,11,12,12,13,13,14,14,15,15,16,16,17,17,18,18,20,20,21,21,22,22,23,23,25,25,26,26,28,28,31,31,33,33,36,36,39,39,40,40,43,43,44,44,45,45,46,46,47,47,49,49],"right_children":[2,4,6,8,10,12,14,16,18,20,-1,22,24,26,28,30,32,34,36,-1,38,40,42,44,-1,46,48,-1,50,-1,-1,52,-1,54,-1,-1,56,-1,-1,58,60,-1,-1,62,64,66,68,70,-1,72,-1,-1,-1,-1,-1,-1,-1,-1,-1,-1,-1,-1,-1,-1,-1,-1,-1,-1,-1,-1,-1,-1,-1],"split_conditions":[2.5582775E-2,3.057117E1,1.1286639E0,3.0010107E-3,6.85E-1,7.8733045E-1,2.3686018E0,1.0677963E2,2.616374E2,-9.4E-1,-5.056702E-3,2.0920731E-1,2.997965E1,8.5354763E-1,7.8733045E-1,2.5631933E1,3.0929828E-1,1.7654596E1,2.2188462E-7,-4.021991E-3,6.3012415E-1,4.2336643E-1,2.8408195E1,8.993549E-1,-8.401628E-3,2.0920731E-1,2.5707187E-2,-1.3408502E-2,5.632449E-2,2.0692859E-2,1.3117421E-2,8.613047E-1,2.5969485E-2,1.1933616E-3,3.5108554E-3,8.345986E-3,8.320273E-3,1.1730534E-2,1.4080734E-4,4.901425E-3,2.3669939E1,8.0664875E-3,-2.812853E-3,5.1039547E-2,8.648125E-3,2.4025078E1,2.356359E1,3.2878936E-5,-1.2911939E-4,9.432923E-3,-5.5682487E-3,1.1366355E-2,1.6278518E-2,1.9569872E-2,1.3505809E-2,2.4945829E-2,2.1258647E-2,-8.005698E-3,-1.4850347E-3,-4.889673E-3,-1.11715365E-2,-5.340228E-3,6.60081E-3,6.913998E-3,-1.5009969E-3,-8.68976E-3,-1.2442548E-2,1.7127017E-3,-8.476073E-3,-5.092341E-3,-9.415342E-3,-1.22866025E-2,-3.164655E-3],"split_indices":[20,39,20,25,87,28,20,5,43,77,0,26,39,28,28,31,30,69,29,0,9,20,39,28,0,26,30,0,30,0,0,28,0,27,0,0,26,0,0,27,31,0,0,30,26,31,1,29,0,29,0,0,0,0,0,0,0,0,0,0,0,0,0,0,0,0,0,0,0,0,0,0,0],"split_type":[0,0,0,0,0,0,0,0,0,0,0,0,0,0,0,0,0,0,0,0,0,0,0,0,0,0,0,0,0,0,0,0,0,0,0,0,0,0,0,0,0,0,0,0,0,0,0,0,0,0,0,0,0,0,0,0,0,0,0,0,0,0,0,0,0,0,0,0,0,0,0,0,0],"sum_hessian":[2.5705549E4,7.697543E3,1.8008008E4,7.373269E3,3.2427383E2,5.090468E3,1.2917539E4,3.7723218E3,3.6009473E3,2.7494052E2,4.933331E1,2.9151677E3,2.1753E3,3.8174763E3,9.1000625E3,1.0949374E3,2.6773843E3,9.9815027E2,2.602797E3,2.7679712E1,2.472608E2,2.7731624E3,1.4200528E2,1.9384691E3,2.3683089E2,2.5033958E3,1.3140804E3,5.060052E3,4.0400112E3,9.48963E2,1.4597437E2,2.5833818E3,9.4002464E1,9.670912E2,3.1059093E1,2.9401377E1,2.5733958E3,2.220288E2,2.5232E1,9.9152814E2,1.7816343E3,4.865659E1,9.3348694E1,9.9141095E2,9.470582E2,2.4000454E3,1.0335034E2,1.2005594E3,1.1352092E2,3.9119558E3,1.2805542E2,1.01139886E3,1.571983E3,6.991114E2,2.679798E2,5.53134E2,2.0202616E3,8.854579E2,1.0607026E2,1.4489401E2,1.6367402E3,9.360261E2,5.5384815E1,5.9029785E1,8.8802844E2,3.9958835E2,2.0004572E3,5.925198E1,4.4098362E1,4.1642856E2,7.841309E2,3.8592861E3,5.266976E1],"tree_param":{"num_deleted":"0","num_feature":"91","num_nodes":"73","size_leaf_vector":"1"}},{"base_weights":[4.980238E-2,-1.396233E-1,3.5399663E-1,-4.587821E-1,-4.5918785E-2,5.8448124E-1,2.4651639E-1,-5.1881254E-1,-1.4667013E-1,-7.156481E-3,-2.8030163E-1,2.9259402E-1,6.760908E-1,3.407324E-1,-8.708578E-2,-1.4019694E-2,-4.533612E-1,5.2194223E-2,-3.5409477E-1,-4.3882575E-2,2.7160633E-1,-3.3744648E-1,2.2171846E-1,4.182567E-1,2.7432323E-2,4.7476017E-1,7.587954E-1,1.7636353E-1,4.6241856E-1,-1.6399335E-2,-8.813995E-3,-3.2081628E-1,-5.328133E-1,1.6509154E-1,-8.549336E-3,-1.2460887E-2,-4.3898886E-3,-6.0188873E-3,-2.5473076E-1,3.4988746E-1,3.1492304E-2,-3.972784E-1,1.16380766E-1,1.4716394E-2,-9.2991954E-4,6.632629E-1,2.1303079E-1,-1.7112304E-1,4.1716972E-1,-2.2469587E-3,5.1514167E-1,8.3894044E-1,5.5059236E-1,3.2521746E-1,-9.189721E-2,4.8941123E-1,-3.453129E-3,-8.028977E-2,3.1172454E-1,-9.639356E-3,-4.488736E-3,-1.1505951E-2,-6.772797E-3,5.7635554E-3,-3.8434863E-3,-4.0531205E-3,8.1030774E-4,-6.1162976E-3,4.3735495E-3,7.905498E-3,-3.7362701E-3,-1.5072039E-3,6.071033E-3,-9.710306E-3,-5.099246E-3,-4.5699226E-3,1.4663021E-2,6.8248846E-3,1.7626638E-2,1.6593428E-3,9.573486E-3,1.0108629E-3,-8.592662E-3,1.4486469E-2,-3.3308126E-3,1.1486594E-2,9.324432E-4,1.7215358E-2,2.2030133E-4,5.1619015E-3,1.3050179E-2,-1.5502807E-4,8.711666E-3,2.1201855E-4,-8.7075485E-3,1.3211728E-2,8.81903E-3,6.77843E-4,-5.4888E-3,-9.71169E-4,8.29109E-3],"categories":[],"categories_nodes":[],"categories_segments":[],"categories_sizes":[],"default_left":[0,0,0,0,0,0,0,0,0,0,0,0,0,0,0,0,0,0,0,0,0,0,0,0,0,0,0,0,0,0,0,0,0,0,0,0,0,0,0,0,0,0,0,0,0,0,0,0,0,0,0,0,0,0,0,0,0,0,0,0,0,0,0,0,0,0,0,0,0,0,0,0,0,0,0,0,0,0,0,0,0,0,0,0,0,0,0,0,0,0,0,0,0,0,0,0,0,0,0,0,0],"id":13,"left_children":[1,3,5,7,9,11,13,15,17,19,21,23,25,27,29,-1,31,33,35,37,39,41,43,45,47,49,51,53,55,57,-1,59,61,63,-1,-1,-1,65,67,69,71,73,75,-1,-1,77,79,81,83,-1,85,87,89,91,93,95,-1,97,99,-1,-1,-1,-1,-1,-1,-1,-1,-1,-1,-1,-1,-1,-1,-1,-1,-1,-1,-1,-1,-1,-1,-1,-1,-1,-1,-1,-1,-1,-1,-1,-1,-1,-1,-1,-1,-1,-1,-1,-1,-1,-1],"loss_changes":[1.4894995E3,4.759557E2,2.4443872E2,6.688165E1,1.1176358E2,8.251416E1,2.1330832E2,3.256604E1,2.4711771E1,1.0825989E2,5.0590515E1,2.5130196E1,3.7043457E1,1.0491168E2,3.6728893E1,0E0,2.1994568E1,1.6711882E1,9.268185E0,7.453244E1,2.2851837E1,4.3084686E1,2.5221355E1,2.4654121E1,2.0139908E1,1.744867E1,2.4647644E1,9.05576E1,5.2533813E1,2.6253506E1,0E0,1.2151062E1,8.738953E0,1.1225717E1,0E0,0E0,0E0,7.173584E1,3.3125114E1,2.1529892E1,9.163649E0,1.5839859E1,4.0304634E1,0E0,0E0,1.3487381E1,9.412004E0,9.983708E0,1.646917E1,0E0,1.6699432E1,1.4643921E1,1.2420868E1,5.215396E1,2.8473919E1,2.279602E1,0E0,2.3244114E1,7.628401E0,0E0,0E0,0E0,0E0,0E0,0E0,0E0,0E0,0E0,0E0,0E0,0E0,0E0,0E0,0E0,0E0,0E0,0E0,0E0,0E0,0E0,0E0,0E0,0E0,0E0,0E0,0E0,0E0,0E0,0E0,0E0,0E0,0E0,0E0,0E0,0E0,0E0,0E0,0E0,0E0,0E0,0E0],"parents":[2147483647,0,0,1,1,2,2,3,3,4,4,5,5,6,6,7,7,8,8,9,9,10,10,11,11,12,12,13,13,14,14,16,16,17,17,18,18,19,19,20,20,21,21,22,22,23,23,24,24,25,25,26,26,27,27,28,28,29,29,31,31,32,32,33,33,37,37,38,38,39,39,40,40,41,41,42,42,45,45,46,46,47,47,48,48,50,50,51,51,52,52,53,53,54,54,55,55,57,57,58,58],"right_children":[2,4,6,8,10,12,14,16,18,20,22,24,26,28,30,-1,32,34,36,38,40,42,44,46,48,50,52,54,56,58,-1,60,62,64,-1,-1,-1,66,68,70,72,74,76,-1,-1,78,80,82,84,-1,86,88,90,92,94,96,-1,98,100,-1,-1,-1,-1,-1,-1,-1,-1,-1,-1,-1,-1,-1,-1,-1,-1,-1,-1,-1,-1,-1,-1,-1,-1,-1,-1,-1,-1,-1,-1,-1,-1,-1,-1,-1,-1,-1,-1,-1,-1,-1,-1],"split_conditions":[7.226707E-2,9.720603E-4,1.2955583E2,8.948416E-3,1.210393E-1,2.7750872E1,6.9E-1,7.1946843E-6,1.2597372E-3,2.997776E1,1.0176874E-1,8.830671E-2,1.5339111E-1,4.3111E-6,1.26E0,-1.4019694E-2,1.4490917E-2,7.432767E-1,2.3308117E1,5.0088953E-2,1.4279893E-2,1.1427016E-2,1.0768264E-3,3.7233792E-2,4.942991E-1,1.353339E-4,3.9E-1,1.4597052E-1,5.6204524E-2,2.984046E1,-8.813995E-3,2.7962727E1,5.280931E-4,2.3499842E1,-8.549336E-3,-1.2460887E-2,-4.3898886E-3,2.4895621E-3,3.016935E1,1.2575059E-2,3.6836956E-2,2.3932423E-2,3.8745647E-4,1.4716394E-2,-9.2991954E-4,1.0977748E-1,1.700707E-1,1.6952266E-1,6.0892934E-1,-2.2469587E-3,1.9280484E-1,2.8321722E-3,-5.397319E0,2.45962E-2,2.4473963E-3,2.5306005E-2,-3.453129E-3,8.830671E-2,2.4403602E-2,-9.639356E-3,-4.488736E-3,-1.1505951E-2,-6.772797E-3,5.7635554E-3,-3.8434863E-3,-4.0531205E-3,8.1030774E-4,-6.1162976E-3,4.3735495E-3,7.905498E-3,-3.7362701E-3,-1.5072039E-3,6.071033E-3,-9.710306E-3,-5.099246E-3,-4.5699226E-3,1.4663021E-2,6.8248846E-3,1.7626638E-2,1.6593428E-3,9.573486E-3,1.0108629E-3,-8.592662E-3,1.4486469E-2,-3.3308126E-3,1.1486594E-2,9.324432E-4,1.7215358E-2,2.2030133E-4,5.1619015E-3,1.3050179E-2,-1.5502807E-4,8.711666E-3,2.1201855E-4,-8.7075485E-3,1.3211728E-2,8.81903E-3,6.77843E-4,-5.4888E-3,-9.71169E-4,8.29109E-3],"split_indices":[24,24,40,23,26,39,79,24,25,2,23,23,24,27,80,0,30,49,35,23,27,27,22,26,23,22,73,23,27,37,0,39,24,1,0,0,0,23,38,22,27,24,22,0,0,24,24,23,23,0,26,27,65,23,30,26,0,23,26,0,0,0,0,0,0,0,0,0,0,0,0,0,0,0,0,0,0,0,0,0,0,0,0,0,0,0,0,0,0,0,0,0,0,0,0,0,0,0,0,0,0],"split_type":[0,0,0,0,0,0,0,0,0,0,0,0,0,0,0,0,0,0,0,0,0,0,0,0,0,0,0,0,0,0,0,0,0,0,0,0,0,0,0,0,0,0,0,0,0,0,0,0,0,0,0,0,0,0,0,0,0,0,0,0,0,0,0,0,0,0,0,0,0,0,0,0,0,0,0,0,0,0,0,0,0,0,0,0,0,0,0,0,0,0,0,0,0,0,0,0,0,0,0,0,0],"sum_hessian":[2.5836646E4,1.592264E4,9.914006E3,3.6073994E3,1.231524E4,3.1431025E3,6.7709033E3,3.0207773E3,5.866221E2,1.0574721E4,1.7405193E3,7.580453E2,2.3850571E3,5.2810205E3,1.489883E3,7.9882996E2,2.2219475E3,3.0027823E2,2.8634384E2,9.349785E3,1.2249358E3,1.5653475E3,1.7517168E2,5.1060898E2,2.4743631E2,7.0772034E2,1.6773369E3,2.2544736E3,3.0265469E3,1.2460336E3,2.4384949E2,8.4623944E2,1.375708E3,2.4674266E2,5.353556E1,8.912431E1,1.9721954E2,7.933665E3,1.4161205E3,9.200085E2,3.0492737E2,1.384752E3,1.805956E2,5.776105E1,1.1741062E2,2.2565567E2,2.849533E2,1.6508463E2,8.2351685E1,4.4048553E1,6.6367175E2,1.1966255E3,4.8071136E2,1.4505118E3,8.039617E2,2.9050205E3,1.2152636E2,1.0480284E3,1.9800514E2,3.1405972E2,5.3217975E2,1.1410167E3,2.3469125E2,1.8620226E2,6.0540398E1,1.5184115E3,6.4152534E3,1.2864292E3,1.296913E2,8.549291E2,6.507941E1,2.2019922E2,8.472813E1,8.621955E2,5.225565E2,1.1737102E2,6.3224575E1,9.5920296E1,1.2973537E2,1.9658504E2,8.836828E1,8.969367E1,7.539096E1,5.4015392E1,2.8336294E1,5.9202423E2,7.164756E1,1.1741213E3,2.2504173E1,1.2567563E2,3.5503574E2,3.529131E2,1.0975988E3,6.2089484E2,1.8306686E2,6.722669E2,2.2327537E3,6.589275E2,3.8910092E2,4.2343086E1,1.5566206E2],"tree_param":{"num_deleted":"0","num_feature":"91","num_nodes":"101","size_leaf_vector":"1"}},{"base_weights":[4.8113987E-2,-4.5826483E-1,9.097323E-1,-5.644809E-1,-1.4951694E-1,5.1398575E-1,1.1343585E0,-5.7856554E-1,4.109338E-3,3.3634983E-2,-2.643821E-1,3.696413E-1,7.0325464E-1,9.9351025E-1,2.510664E-2,-5.840151E-1,2.618679E-1,-1.0379939E-2,3.6757335E-1,-8.1922986E-2,2.5905284E-1,-3.8792422E-1,-1.3266218E-1,5.733004E-1,2.8365025E-1,7.149379E-1,3.9042456E-3,2.1838827E-2,9.1379535E-1,-6.159266E-1,-4.882403E-1,-2.780062E-3,1.3497252E-2,-3.4618094E-3,1.0343631E-2,-1.9720064E-1,8.118554E-2,7.395693E-1,1.3425724E-1,-4.89198E-3,-4.5737228E-1,-7.0741097E-3,-8.9660816E-2,5.4446254E-3,6.9025695E-1,-3.334106E-4,3.1625473E-1,4.254536E-1,7.374273E-1,1.8959435E-2,1.1793875E-2,-8.440947E-3,-1.2635075E-2,-8.380843E-3,-1.1746164E-2,-4.4940896E-3,5.7235E-3,-4.9442784E-5,7.113296E-3,-1.9181349E-3,1.9926203E-2,7.866903E-3,6.7711767E-4,-1.4934468E-3,-9.737611E-3,2.080202E-3,-2.681944E-3,8.417871E-3,1.6507272E-2,4.6758973E-3,7.974556E-3,-1.8478734E-3,1.1785654E-2,1.8865068E-2,1.3882143E-2],"categories":[],"categories_nodes":[],"categories_segments":[],"categories_sizes":[],"default_left":[0,0,0,0,0,0,0,0,0,0,0,0,0,0,0,0,0,0,0,0,0,0,0,0,0,0,0,0,0,0,0,0,0,0,0,0,0,0,0,0,0,0,0,0,0,0,0,0,0,0,0,0,0,0,0,0,0,0,0,0,0,0,0,0,0,0,0,0,0,0,0,0,0,0,0],"id":14,"left_children":[1,3,5,7,9,11,13,15,17,19,21,23,25,27,-1,29,31,-1,33,35,37,39,41,43,45,47,-1,-1,49,51,53,-1,-1,-1,-1,55,57,59,61,-1,63,-1,65,-1,67,-1,69,71,73,-1,-1,-1,-1,-1,-1,-1,-1,-1,-1,-1,-1,-1,-1,-1,-1,-1,-1,-1,-1,-1,-1,-1,-1,-1,-1],"loss_changes":[1.1281728E4,5.331797E2,8.4658105E2,9.735132E1,8.807173E1,9.289337E1,8.734375E1,5.520288E1,5.7140644E1,4.2249245E1,4.1231033E1,3.3368683E1,7.597351E0,1.2758545E1,0E0,3.355493E1,1.3785824E1,0E0,1.4760971E1,2.0263288E1,3.1905064E1,1.2285446E1,1.1350172E1,1.9025452E1,1.4001144E1,7.043579E0,0E0,0E0,9.128174E0,1.695752E1,1.8368347E1,0E0,0E0,0E0,0E0,8.148584E0,1.0314729E1,2.4162117E1,1.1139355E1,0E0,8.220718E0,0E0,8.956317E0,0E0,1.1908539E1,0E0,7.640869E0,1.0523453E1,8.368103E0,0E0,0E0,0E0,0E0,0E0,0E0,0E0,0E0,0E0,0E0,0E0,0E0,0E0,0E0,0E0,0E0,0E0,0E0,0E0,0E0,0E0,0E0,0E0,0E0,0E0,0E0],"parents":[2147483647,0,0,1,1,2,2,3,3,4,4,5,5,6,6,7,7,8,8,9,9,10,10,11,11,12,12,13,13,15,15,16,16,18,18,19,19,20,20,21,21,22,22,23,23,24,24,25,25,28,28,29,29,30,30,35,35,36,36,37,37,38,38,40,40,42,42,44,44,46,46,47,47,48,48],"right_children":[2,4,6,8,10,12,14,16,18,20,22,24,26,28,-1,30,32,-1,34,36,38,40,42,44,46,48,-1,-1,50,52,54,-1,-1,-1,-1,56,58,60,62,-1,64,-1,66,-1,68,-1,70,72,74,-1,-1,-1,-1,-1,-1,-1,-1,-1,-1,-1,-1,-1,-1,-1,-1,-1,-1,-1,-1,-1,-1,-1,-1,-1,-1],"split_conditions":[2.4036958E0,1.0815897E0,4.575139E0,6.85E-1,4.5631877E-1,3.4603887E0,8.25582E0,2.72E0,4.5E-1,1.0460918E0,1.6655618E0,1.5425131E2,3.0061323E-2,7.332797E-1,2.510664E-2,4.5963803E-1,9.741791E-1,-1.0379939E-2,-1.3856879E-1,1.751637E0,2.6353157E-1,2.7750872E1,6.482151E1,7.7936714E1,6.2073784E1,9.5922264E1,3.9042456E-3,2.1838827E-2,5.21E-1,-1.09E0,5.2130264E-1,-2.780062E-3,1.3497252E-2,-3.4618094E-3,1.0343631E-2,6.85E-1,4.8392653E-1,-6.6E-1,1.1002412E2,-4.89198E-3,3.1795583E-3,-7.0741097E-3,7.773909E-1,5.4446254E-3,2.4650274E1,-3.334106E-4,2.8922946E0,4.0997982E-2,4.4175485E-1,1.8959435E-2,1.1793875E-2,-8.440947E-3,-1.2635075E-2,-8.380843E-3,-1.1746164E-2,-4.4940896E-3,5.7235E-3,-4.9442784E-5,7.113296E-3,-1.9181349E-3,1.9926203E-2,7.866903E-3,6.7711767E-4,-1.4934468E-3,-9.737611E-3,2.080202E-3,-2.681944E-3,8.417871E-3,1.6507272E-2,4.6758973E-3,7.974556E-3,-1.8478734E-3,1.1785654E-2,1.8865068E-2,1.3882143E-2],"split_indices":[20,20,20,87,51,20,20,83,17,52,20,42,27,28,0,20,63,0,63,20,51,38,3,40,3,5,0,0,89,76,51,0,0,0,0,87,6,73,47,0,24,0,54,0,32,0,20,24,54,0,0,0,0,0,0,0,0,0,0,0,0,0,0,0,0,0,0,0,0,0,0,0,0,0,0],"split_type":[0,0,0,0,0,0,0,0,0,0,0,0,0,0,0,0,0,0,0,0,0,0,0,0,0,0,0,0,0,0,0,0,0,0,0,0,0,0,0,0,0,0,0,0,0,0,0,0,0,0,0,0,0,0,0,0,0,0,0,0,0,0,0,0,0,0,0,0,0,0,0,0,0,0,0],"sum_hessian":[2.5845629E4,1.6279864E4,9.565765E3,1.2107895E4,4.1719707E3,3.4713347E3,6.0944297E3,1.1816097E4,2.9179782E2,1.6076598E3,2.5643108E3,1.9806945E3,1.4906401E3,2.718714E3,3.3757153E3,1.1742381E4,7.371526E1,1.185356E2,1.7326222E2,1.0635588E3,5.441009E2,1.3152526E3,1.2490582E3,5.76425E2,1.4042695E3,1.4538774E3,3.676278E1,1.2390342E3,1.4796799E3,8.779922E3,2.9624595E3,3.843352E1,3.5281742E1,3.579357E1,1.3746866E2,6.244904E2,4.3906845E2,1.0541819E2,4.3868268E2,4.3654016E2,8.787124E2,1.9658987E2,1.0524684E3,1.6710927E2,4.0931573E2,1.3614323E2,1.2681262E3,1.1485498E2,1.3390225E3,1.3560957E3,1.2358417E2,4.788762E2,8.301045E3,1.6989764E3,1.2634832E3,5.967641E2,2.7726313E1,3.384789E2,1.0058956E2,2.4519417E1,8.089877E1,1.1753258E2,3.211501E2,5.8194904E1,8.2051746E2,1.8950832E2,8.6296E2,1.4056935E2,2.6874637E2,6.2978876E2,6.3833746E2,2.6783304E1,8.807168E1,2.4044272E2,1.0985797E3],"tree_param":{"num_deleted":"0","num_feature":"91","num_nodes":"75","size_leaf_vector":"1"}},{"base_weights":[-9.595408E-2,7.220367E-1,-2.2900686E-1,-4.871787E-3,8.8333577E-1,-2.3963163E-2,-4.2561603E-1,2.4369484E-2,-1.4193605E-1,1.0162833E0,6.100919E-1,-9.8590545E-2,5.1898074E-1,2.491201E-2,-4.3585432E-1,-1.3540357E-2,-9.243944E-3,1.0749075E0,4.2432278E-1,7.177869E-1,1.0094416E-1,9.4081365E-2,-2.9095706E-1,9.1241695E-2,7.0628107E-1,-4.8470512E-1,-1.927267E-1,5.8924247E-2,-9.735051E-3,2.3993142E-2,9.0975916E-1,-1.0767393E-2,6.9150305E-1,8.012353E-1,1.16724744E-1,3.1492984E-1,-5.8024703E-3,2.1293509E-1,-2.3102292E-1,-5.567665E-1,-2.01496E-1,3.5402182E-1,-1.1654344E-2,9.15164E-1,-1.7539081E-1,-4.2692825E-1,-5.8085775E-1,-1.11973785E-1,-1.2712383E-2,3.5125187E-3,-4.2701187E-3,2.3252647E-2,1.618768E-2,1.7053144E-2,2.8667804E-3,1.7170185E-2,4.8125973E-3,-6.2761987E-3,5.4448117E-3,1.0124937E-2,-2.2011043E-3,8.748284E-3,-3.3460695E-3,5.820509E-3,-5.345554E-3,1.6236522E-3,-1.1626636E-2,6.7489203E-3,-4.7622225E-3,1.6632696E-3,1.4564922E-2,1.9566376E-2,1.461115E-3,1.19513795E-2,-9.933758E-3,-7.686928E-3,-1.121941E-2,5.993927E-4,-1.1923303E-2,5.2604225E-4,-6.285673E-3],"categories":[],"categories_nodes":[],"categories_segments":[],"categories_sizes":[],"default_left":[0,0,0,0,0,0,0,0,0,0,0,0,0,0,0,0,0,0,0,0,0,0,0,0,0,0,0,0,0,0,0,0,0,0,0,0,0,0,0,0,0,0,0,0,0,0,0,0,0,0,0,0,0,0,0,0,0,0,0,0,0,0,0,0,0,0,0,0,0,0,0,0,0,0,0,0,0,0,0,0,0],"id":15,"left_children":[1,3,5,7,9,11,13,-1,15,17,19,21,23,-1,25,-1,27,29,31,33,35,37,39,41,43,45,47,49,-1,-1,51,-1,53,55,57,59,-1,61,63,65,67,69,-1,71,73,75,77,79,-1,-1,-1,-1,-1,-1,-1,-1,-1,-1,-1,-1,-1,-1,-1,-1,-1,-1,-1,-1,-1,-1,-1,-1,-1,-1,-1,-1,-1,-1,-1,-1,-1],"loss_changes":[2.7868247E3,4.205381E2,8.875144E2,1.0946683E2,1.0204663E2,4.3715955E2,1.9387537E2,0E0,4.13883E1,6.464209E1,5.2608185E1,3.5200064E2,1.0361511E2,0E0,1.3182593E2,0E0,1.5978902E1,2.660254E1,5.0146877E1,3.923477E1,1.5337693E1,1.8358124E2,1.119173E2,7.220879E1,1.6797949E2,4.9677002E1,6.572505E1,1.3486356E1,0E0,0E0,1.3328918E1,0E0,1.14335785E1,1.8285583E1,7.3869786E0,9.954325E0,0E0,2.9205768E2,2.3040215E1,1.5835754E1,6.694829E1,2.8690884E1,0E0,3.3398132E1,4.4945023E1,3.27135E1,2.32229E1,4.428116E1,0E0,0E0,0E0,0E0,0E0,0E0,0E0,0E0,0E0,0E0,0E0,0E0,0E0,0E0,0E0,0E0,0E0,0E0,0E0,0E0,0E0,0E0,0E0,0E0,0E0,0E0,0E0,0E0,0E0,0E0,0E0,0E0,0E0],"parents":[2147483647,0,0,1,1,2,2,3,3,4,4,5,5,6,6,8,8,9,9,10,10,11,11,12,12,14,14,16,16,17,17,18,18,19,19,20,20,21,21,22,22,23,23,24,24,25,25,26,26,27,27,30,30,32,32,33,33,34,34,35,35,37,37,38,38,39,39,40,40,41,41,43,43,44,44,45,45,46,46,47,47],"right_children":[2,4,6,8,10,12,14,-1,16,18,20,22,24,-1,26,-1,28,30,32,34,36,38,40,42,44,46,48,50,-1,-1,52,-1,54,56,58,60,-1,62,64,66,68,70,-1,72,74,76,78,80,-1,-1,-1,-1,-1,-1,-1,-1,-1,-1,-1,-1,-1,-1,-1,-1,-1,-1,-1,-1,-1,-1,-1,-1,-1,-1,-1,-1,-1,-1,-1,-1,-1],"split_conditions":[8.4614527E-4,3.5056369E-6,4.2764835E-2,1.4466488E-6,2.8603159E1,1.2537101E-1,4.968372E-3,2.4369484E-2,1.5157859E-1,3.740687E-3,9.739296E-1,1.0696198E-3,3.2788882E-4,2.491201E-2,9.753031E-2,-1.3540357E-2,7.0045474E-3,2.5092255E1,4.112956E-3,5.280931E-4,2.2E-1,1.842176E-2,7.4693763E-1,1.4756382E-2,7.3439753E-1,6.03163E-1,1.2907335E-2,4.4E-1,-9.735051E-3,2.3993142E-2,8.498584E-3,-1.0767393E-2,5.447106E2,4.83E-1,2.2208763E1,1.4296763E-4,-5.8024703E-3,2.8702017E1,-1.05E0,1.9779436E1,-1.05E0,2.791596E-2,-1.1654344E-2,3.1033295E1,2.2508934E1,4.3E-1,-1.18E0,1.1573994E-1,-1.2712383E-2,3.5125187E-3,-4.2701187E-3,2.3252647E-2,1.618768E-2,1.7053144E-2,2.8667804E-3,1.7170185E-2,4.8125973E-3,-6.2761987E-3,5.4448117E-3,1.0124937E-2,-2.2011043E-3,8.748284E-3,-3.3460695E-3,5.820509E-3,-5.345554E-3,1.6236522E-3,-1.1626636E-2,6.7489203E-3,-4.7622225E-3,1.6632696E-3,1.4564922E-2,1.9566376E-2,1.461115E-3,1.19513795E-2,-9.933758E-3,-7.686928E-3,-1.121941E-2,5.993927E-4,-1.1923303E-2,5.2604225E-4,-6.285673E-3],"split_indices":[24,29,24,22,39,26,26,0,28,22,28,22,25,0,26,0,22,32,22,24,16,24,28,30,28,50,25,16,0,0,26,0,4,87,1,24,0,39,83,35,82,24,0,39,35,84,79,24,0,0,0,0,0,0,0,0,0,0,0,0,0,0,0,0,0,0,0,0,0,0,0,0,0,0,0,0,0,0,0,0,0],"split_type":[0,0,0,0,0,0,0,0,0,0,0,0,0,0,0,0,0,0,0,0,0,0,0,0,0,0,0,0,0,0,0,0,0,0,0,0,0,0,0,0,0,0,0,0,0,0,0,0,0,0,0,0,0,0,0,0,0,0,0,0,0,0,0,0,0,0,0,0,0,0,0,0,0,0,0,0,0,0,0,0,0],"sum_hessian":[2.5593887E4,3.5764868E3,2.2017398E4,6.4986005E2,2.9266267E3,1.0782085E4,1.1235314E4,6.09592E1,5.889009E2,1.956855E3,9.697718E2,9.48422E3,1.2978654E3,6.426037E1,1.1171055E4,1.1241225E2,4.7648862E2,1.7753958E3,1.8145923E2,7.9759845E2,1.7217331E2,4.738332E3,4.745887E3,3.9876355E2,8.991018E2,9.295341E3,1.8757136E3,4.1988983E2,5.6598778E1,1.0214426E3,7.539531E2,3.7840343E1,1.4361888E2,6.97857E2,9.9741486E1,1.12704765E2,5.9468544E1,3.4725442E3,1.2657878E3,1.1859307E3,3.5599568E3,2.88915E2,1.09848526E2,7.2723553E2,1.7186627E2,5.8295293E3,3.465811E3,1.590919E3,2.8479465E2,2.9735843E2,1.2253139E2,2.1043478E2,5.435184E2,1.0884158E2,3.4777298E1,6.364968E2,6.136018E1,2.3780207E1,7.596127E1,7.835913E1,3.434564E1,2.1933174E3,1.2792268E3,7.450914E1,1.1912788E3,3.4915344E1,1.1510153E3,2.1288185E2,3.347075E3,1.7131166E2,1.1760336E2,6.807041E2,4.653139E1,4.827434E1,1.23591934E2,4.3356807E3,1.4938486E3,5.8910786E1,3.4069004E3,9.422533E2,6.486657E2],"tree_param":{"num_deleted":"0","num_feature":"91","num_nodes":"81","size_leaf_vector":"1"}},{"base_weights":[4.935697E-2,2.4252042E-1,-4.8093626E-1,-3.4806925E-1,6.108916E-1,-2.4861762E-1,-5.993229E-1,-2.403222E-1,-4.6550646E-1,7.2412086E-1,1.8583214E-1,-1.1809526E-3,-2.7052343E-1,-9.765448E-3,-1.3208969E-2,-2.7633035E-1,-3.971827E-3,-4.9813148E-1,-2.5903574E-1,6.5530944E-1,9.532022E-1,2.7620363E-1,2.3361515E-2,-7.509524E-3,-4.3629804E-3,-4.3211484E-1,-2.2856756E-1,7.3676564E-2,-5.731424E-3,-1.3608769E-2,-4.652647E-1,-4.3651322E-1,-3.823296E-2,5.623894E-1,8.1674916E-1,9.8046947E-1,5.559925E-1,4.1733035E-1,1.7913176E-1,7.703277E-2,-5.4419553E-3,-2.9720129E-3,-9.4573125E-3,-1.1166493E-2,-3.983413E-3,4.786926E-3,-6.554569E-4,-9.78654E-4,-9.619019E-3,-3.681661E-3,-1.1845508E-2,1.3815805E-3,-9.020507E-3,8.686239E-3,1.3143174E-2,1.7789345E-2,1.2115725E-2,2.0250797E-2,1.1648826E-2,-8.525772E-4,1.352887E-2,-1.0239686E-3,9.108607E-3,1.5093614E-3,6.418359E-3,2.099638E-3,-5.8880057E-3],"categories":[],"categories_nodes":[],"categories_segments":[],"categories_sizes":[],"default_left":[0,0,0,0,0,0,0,0,0,0,0,0,0,0,0,0,0,0,0,0,0,0,0,0,0,0,0,0,0,0,0,0,0,0,0,0,0,0,0,0,0,0,0,0,0,0,0,0,0,0,0,0,0,0,0,0,0,0,0,0,0,0,0,0,0,0,0],"id":16,"left_children":[1,3,5,7,9,11,13,15,17,19,21,-1,23,-1,-1,25,27,29,31,33,35,37,39,-1,-1,41,43,45,-1,-1,47,49,51,53,55,57,59,61,63,65,-1,-1,-1,-1,-1,-1,-1,-1,-1,-1,-1,-1,-1,-1,-1,-1,-1,-1,-1,-1,-1,-1,-1,-1,-1,-1,-1],"loss_changes":[2.649489E3,4.1262744E3,1.8859851E2,9.115527E1,5.6083984E2,9.473068E0,2.6943848E1,3.229602E1,2.225647E1,1.4084131E2,3.5993706E1,0E0,1.0766739E1,0E0,0E0,2.367096E1,1.139207E1,1.4983459E1,1.8791359E1,1.0324512E2,1.8912354E1,2.089843E1,1.4019581E1,0E0,0E0,7.361191E0,2.4572372E1,7.191824E0,0E0,0E0,1.2320496E1,9.275013E0,1.025071E1,5.123633E1,3.2822998E1,1.5077515E1,1.0897869E1,1.0698151E1,1.3429625E1,7.667023E0,0E0,0E0,0E0,0E0,0E0,0E0,0E0,0E0,0E0,0E0,0E0,0E0,0E0,0E0,0E0,0E0,0E0,0E0,0E0,0E0,0E0,0E0,0E0,0E0,0E0,0E0,0E0],"parents":[2147483647,0,0,1,1,2,2,3,3,4,4,5,5,6,6,7,7,8,8,9,9,10,10,12,12,15,15,16,16,17,17,18,18,19,19,20,20,21,21,22,22,25,25,26,26,27,27,30,30,31,31,32,32,33,33,34,34,35,35,36,36,37,37,38,38,39,39],"right_children":[2,4,6,8,10,12,14,16,18,20,22,-1,24,-1,-1,26,28,30,32,34,36,38,40,-1,-1,42,44,46,-1,-1,48,50,52,54,56,58,60,62,64,66,-1,-1,-1,-1,-1,-1,-1,-1,-1,-1,-1,-1,-1,-1,-1,-1,-1,-1,-1,-1,-1,-1,-1,-1,-1,-1,-1],"split_conditions":[3.6567676E0,2.5582775E-2,5.83112E0,3.0010107E-3,2.332765E0,3.3236128E-1,8.462981E0,2.5960278E1,4.032272E-3,2.9928352E1,2.6712344E2,-1.1809526E-3,1.9521643E2,-9.765448E-3,-1.3208969E-2,1.0402865E2,1.4666058E-1,6.8488107E-3,5.999712E-4,5.494184E-1,3.0061323E-2,2.7871652E0,2.6948114E1,-7.509524E-3,-4.3629804E-3,-1.4259618E1,5.8267834E-3,-6E-2,-5.731424E-3,-1.3608769E-2,2.1728529E1,1.2059916E-2,1.667302E-1,1.1709224E-4,1.6336273E0,3.932349E2,3.958781E-2,1.9216839E1,2.891734E1,9.5E-1,-5.4419553E-3,-2.9720129E-3,-9.4573125E-3,-1.1166493E-2,-3.983413E-3,4.786926E-3,-6.554569E-4,-9.78654E-4,-9.619019E-3,-3.681661E-3,-1.1845508E-2,1.3815805E-3,-9.020507E-3,8.686239E-3,1.3143174E-2,1.7789345E-2,1.2115725E-2,2.0250797E-2,1.1648826E-2,-8.525772E-4,1.352887E-2,-1.0239686E-3,9.108607E-3,1.5093614E-3,6.418359E-3,2.099638E-3,-5.8880057E-3],"split_indices":[20,20,20,25,20,6,20,31,27,2,45,0,42,0,0,5,26,26,22,50,27,20,33,0,0,12,26,81,0,0,32,25,26,29,20,45,26,36,2,79,0,0,0,0,0,0,0,0,0,0,0,0,0,0,0,0,0,0,0,0,0,0,0,0,0,0,0],"split_type":[0,0,0,0,0,0,0,0,0,0,0,0,0,0,0,0,0,0,0,0,0,0,0,0,0,0,0,0,0,0,0,0,0,0,0,0,0,0,0,0,0,0,0,0,0,0,0,0,0,0,0,0,0,0,0,0,0,0,0,0,0,0,0,0,0,0,0],"sum_hessian":[2.5854588E4,1.895446E4,6.9001284E3,7.2806143E3,1.1673846E4,2.3368748E3,4.5632534E3,3.808585E3,3.472029E3,9.214008E3,2.459838E3,2.4641324E2,2.0904614E3,1.519323E3,3.0439304E3,3.3021262E3,5.064586E2,2.988897E3,4.8313205E2,7.1045444E3,2.1094636E3,1.5758085E3,8.840294E2,7.0822986E2,1.3822317E3,7.612387E2,2.5408877E3,3.9834607E2,1.08112526E2,4.475978E2,2.5412993E3,2.6331235E2,2.1981969E2,4.527723E3,2.5768213E3,1.9647461E3,1.4471751E2,6.3209045E2,9.43718E2,7.525267E2,1.3150275E2,9.291873E1,6.6832E2,2.1040512E2,2.3304824E3,1.5597987E2,2.4236618E2,7.335981E1,2.4679395E3,1.04438576E2,1.5887378E2,1.7701953E2,4.2800156E1,1.8536696E3,2.6740535E3,1.9577507E3,6.1907074E2,1.8432749E3,1.2147116E2,2.3168951E1,1.2154856E2,4.221388E1,5.898766E2,5.472242E2,3.9649387E2,7.062466E2,4.628011E1],"tree_param":{"num_deleted":"0","num_feature":"91","num_nodes":"67","size_leaf_vector":"1"}},{"base_weights":[4.5581415E-2,-4.554097E-1,8.9230484E-1,-5.6576174E-1,-1.6359216E-1,5.068813E-1,1.1118244E0,-5.816153E-1,-9.741673E-2,1.3234537E-2,-2.7376598E-1,3.5439557E-1,7.0568913E-1,9.251046E-1,1.1897051E0,-6.0845405E-1,-4.931188E-1,4.3097293E-1,-9.9671455E-3,-8.330518E-2,3.5283503E-1,-3.91652E-1,-1.3646418E-1,2.419722E-1,5.014694E-1,7.234343E-1,7.1147806E-3,9.3399423E-1,4.399944E-3,2.1805089E-2,2.4804557E-2,1.1908353E-3,-6.1105895E-1,-4.2194998E-1,-1.1733173E-2,3.525953E-3,1.5614399E-2,-1.8131934E-1,1.712052E-3,7.5212467E-1,1.6813168E-1,-2.5554314E-1,-9.372678E-3,-7.4706557E-3,-9.073919E-2,2.7636132E-1,-7.890855E-4,7.766883E-3,1.4006484E-2,9.1644535E-3,7.476619E-1,2.0597788E-2,1.6975058E-2,-8.55558E-3,-1.2523204E-2,-9.642657E-3,-6.26013E-3,-4.1251355E-3,6.0059135E-3,5.8016744E-3,1.934892E-2,1.1784921E-2,2.0458524E-3,-9.823527E-3,-3.390588E-3,2.5013606E-3,-2.7663754E-3,4.7614196E-4,6.5852166E-3,7.825157E-3,1.5459242E-2],"categories":[],"categories_nodes":[],"categories_segments":[],"categories_sizes":[],"default_left":[0,0,0,0,0,0,0,0,0,0,0,0,0,0,0,0,0,0,0,0,0,0,0,0,0,0,0,0,0,0,0,0,0,0,0,0,0,0,0,0,0,0,0,0,0,0,0,0,0,0,0,0,0,0,0,0,0,0,0,0,0,0,0,0,0,0,0,0,0,0,0],"id":17,"left_children":[1,3,5,7,9,11,13,15,17,19,21,23,25,27,29,31,33,35,-1,37,39,41,43,45,47,49,-1,51,-1,-1,-1,-1,53,55,-1,-1,-1,57,-1,59,61,63,-1,-1,65,67,-1,-1,-1,-1,69,-1,-1,-1,-1,-1,-1,-1,-1,-1,-1,-1,-1,-1,-1,-1,-1,-1,-1,-1,-1],"loss_changes":[1.0972866E4,5.223804E2,8.094243E2,8.6815186E1,8.7225174E1,1.0409247E2,8.1498535E1,2.4730469E1,8.39398E1,5.667559E1,4.3992874E1,3.185733E1,7.3878784E0,9.670532E0,1.0069824E1,1.5680176E1,1.5058533E1,1.3779469E1,0E0,2.2270214E1,2.6989037E1,1.3668472E1,1.3294977E1,1.12528E1,1.7091385E1,6.6956787E0,0E0,8.575806E0,0E0,0E0,0E0,0E0,1.46171875E1,8.251312E0,0E0,0E0,0E0,9.835249E0,0E0,9.143356E0,6.766883E0,9.947811E0,0E0,0E0,1.0938768E1,1.2764053E1,0E0,0E0,0E0,0E0,6.724365E0,0E0,0E0,0E0,0E0,0E0,0E0,0E0,0E0,0E0,0E0,0E0,0E0,0E0,0E0,0E0,0E0,0E0,0E0,0E0,0E0],"parents":[2147483647,0,0,1,1,2,2,3,3,4,4,5,5,6,6,7,7,8,8,9,9,10,10,11,11,12,12,13,13,14,14,15,15,16,16,17,17,19,19,20,20,21,21,22,22,23,23,24,24,25,25,27,27,32,32,33,33,37,37,39,39,40,40,41,41,44,44,45,45,50,50],"right_children":[2,4,6,8,10,12,14,16,18,20,22,24,26,28,30,32,34,36,-1,38,40,42,44,46,48,50,-1,52,-1,-1,-1,-1,54,56,-1,-1,-1,58,-1,60,62,64,-1,-1,66,68,-1,-1,-1,-1,70,-1,-1,-1,-1,-1,-1,-1,-1,-1,-1,-1,-1,-1,-1,-1,-1,-1,-1,-1,-1],"split_conditions":[2.4036958E0,1.0155584E0,4.575139E0,9.7E-1,4.5631877E-1,3.4603887E0,6.655434E0,4.5963803E-1,1.16E-1,5.0331336E-1,1.6655618E0,2.5121277E2,1.4317761E2,2.7444917E-1,8.88131E0,-3.583051E1,5.172021E-1,5.415783E-1,-9.9671455E-3,1.7857472E0,-5.9934883E0,5.353253E-1,6.482151E1,1.0157867E-1,2.9404232E1,1.9828999E1,7.1147806E-3,7.561892E-1,4.399944E-3,2.1805089E-2,2.4804557E-2,1.1908353E-3,-1.09E0,1.016249E0,-1.1733173E-2,3.525953E-3,1.5614399E-2,5.448169E2,1.712052E-3,4.5E-1,1.889143E2,4.2675564E-1,-9.372678E-3,-7.4706557E-3,7.773909E-1,7.53867E1,-7.890855E-4,7.766883E-3,1.4006484E-2,9.1644535E-3,-2.5742134E-1,2.0597788E-2,1.6975058E-2,-8.55558E-3,-1.2523204E-2,-9.642657E-3,