{"learner":{"attributes":{"scikit_learn":"{\"_estimator_type\": \"regressor\"}"},"feature_names":["temperature_2m","temperature_2m_min","temperature_2m_max","precipitation","potential_evaporation_sum","total_evaporation_sum","evaporative_stress_index","aridity_index","temperature_2m_ANOM","temperature_2m_min_ANOM","temperature_2m_max_ANOM","potential_evaporation_sum_ANOM","total_evaporation_sum_ANOM","precipitation_ANOM","ANOM1+2","ANOM3","ANOM4","ANOM3.4","DMI","DMI_East","temperature_2m_lag1","temperature_2m_lag2","temperature_2m_lag3","temperature_2m_min_lag1","temperature_2m_min_lag2","temperature_2m_min_lag3","temperature_2m_max_lag1","temperature_2m_max_lag2","temperature_2m_max_lag3","precipitation_lag1","precipitation_lag2","precipitation_lag3","potential_evaporation_sum_lag1","potential_evaporation_sum_lag2","potential_evaporation_sum_lag3","total_evaporation_sum_lag1","total_evaporation_sum_lag2","total_evaporation_sum_lag3","evaporative_stress_index_lag1","evaporative_stress_index_lag2","evaporative_stress_index_lag3","aridity_index_lag1","aridity_index_lag2","aridity_index_lag3","temperature_2m_ANOM_lag1","temperature_2m_ANOM_lag2","temperature_2m_ANOM_lag3","temperature_2m_min_ANOM_lag1","temperature_2m_min_ANOM_lag2","temperature_2m_min_ANOM_lag3","temperature_2m_max_ANOM_lag1","temperature_2m_max_ANOM_lag2","temperature_2m_max_ANOM_lag3","potential_evaporation_sum_ANOM_lag1","potential_evaporation_sum_ANOM_lag2","potential_evaporation_sum_ANOM_lag3","total_evaporation_sum_ANOM_lag1","total_evaporation_sum_ANOM_lag2","total_evaporation_sum_ANOM_lag3","precipitation_ANOM_lag1","precipitation_ANOM_lag2","precipitation_ANOM_lag3","ANOM1+2_lag1","ANOM1+2_lag3","ANOM1+2_lag6","ANOM3_lag1","ANOM3_lag3","ANOM3_lag6","ANOM4_lag1","ANOM4_lag3","ANOM4_lag6","ANOM3.4_lag1","ANOM3.4_lag3","ANOM3.4_lag6","DMI_lag1","DMI_lag3","DMI_lag6","DMI_East_lag1","DMI_East_lag3","DMI_East_lag6"],"feature_types":["float","float","float","float","float","float","float","float","float","float","float","float","float","float","float","float","float","float","float","float","float","float","float","float","float","float","float","float","float","float","float","float","float","float","float","float","float","float","float","float","float","float","float","float","float","float","float","float","float","float","float","float","float","float","float","float","float","float","float","float","float","float","float","float","float","float","float","float","float","float","float","float","float","float","float","float","float","float","float","float"],"gradient_booster":{"model":{"gbtree_model_param":{"num_parallel_tree":"1","num_trees":"200"},"iteration_indptr":[0,1,2,3,4,5,6,7,8,9,10,11,12,13,14,15,16,17,18,19,20,21,22,23,24,25,26,27,28,29,30,31,32,33,34,35,36,37,38,39,40,41,42,43,44,45,46,47,48,49,50,51,52,53,54,55,56,57,58,59,60,61,62,63,64,65,66,67,68,69,70,71,72,73,74,75,76,77,78,79,80,81,82,83,84,85,86,87,88,89,90,91,92,93,94,95,96,97,98,99,100,101,102,103,104,105,106,107,108,109,110,111,112,113,114,115,116,117,118,119,120,121,122,123,124,125,126,127,128,129,130,131,132,133,134,135,136,137,138,139,140,141,142,143,144,145,146,147,148,149,150,151,152,153,154,155,156,157,158,159,160,161,162,163,164,165,166,167,168,169,170,171,172,173,174,175,176,177,178,179,180,181,182,183,184,185,186,187,188,189,190,191,192,193,194,195,196,197,198,199,200],"tree_info":[0,0,0,0,0,0,0,0,0,0,0,0,0,0,0,0,0,0,0,0,0,0,0,0,0,0,0,0,0,0,0,0,0,0,0,0,0,0,0,0,0,0,0,0,0,0,0,0,0,0,0,0,0,0,0,0,0,0,0,0,0,0,0,0,0,0,0,0,0,0,0,0,0,0,0,0,0,0,0,0,0,0,0,0,0,0,0,0,0,0,0,0,0,0,0,0,0,0,0,0,0,0,0,0,0,0,0,0,0,0,0,0,0,0,0,0,0,0,0,0,0,0,0,0,0,0,0,0,0,0,0,0,0,0,0,0,0,0,0,0,0,0,0,0,0,0,0,0,0,0,0,0,0,0,0,0,0,0,0,0,0,0,0,0,0,0,0,0,0,0,0,0,0,0,0,0,0,0,0,0,0,0,0,0,0,0,0,0,0,0,0,0,0,0,0,0,0,0,0,0],"trees":[{"base_weights":[-1.7664088E-2,3.8491209E0,-1.8092571E0,2.9624581E0,2.417279E1,-1.9369401E0,1.43666725E1,1.2449956E0,7.6695113E0,3.1227686E1,3.9857948E0,-2.6048198E-1,-2.739285E0,1.3603368E0,2.0939176E0,1.119611E1,7.6707447E-1,2.3625332E1,6.3708878E0,1.8412269E0,2.5013515E1,4.150785E-1,-5.3660244E-2,-9.545151E-1,1.7147139E0,-2.9980884E0,-7.512804E-1,-3.8820215E-2,2.4523602E-1,2.0475702E1,6.8844647E0,1.3812615E-1,3.8841286E0,1.8803238E1,1.4635364E0,-3.0878347E-1,8.609894E0,1.4537135E0,2.1505615E1,-2.6933554E-1,-3.0109444E0,1.0938731E0,8.222232E0,-7.5441845E-2,-3.1405187E0,2.6840866E0,-2.47354E0,4.5141456E-1,1.1248745E0,9.31959E0,-4.470917E-2,1.687146E0,-8.7313676E-1,2.7626684E0,1.0758386E1,9.102182E-1,4.6788636E-1,6.3734856E0,-1.843996E0,3.8836737E0,1.0512989E1,5.3217846E-1,2.367861E1,4.090019E0,-6.8301994E-1,-3.638296E0,-1.9214706E0,9.3578E0,6.091018E-1,8.6552984E-1,1.4993896E0,6.044186E-1,-2.324823E0,-5.5528146E-1,-3.2386346E0,-1.0148806E-1,5.349976E0,-2.863626E0,1.4337936E-1,5.013963E-1,1.2802419E-1,4.9520645E-2,5.332578E-1,-4.9371783E-2,4.3175913E-2,6.309989E-2,3.429033E-1,8.231541E-2,6.028733E-1,4.70467E-1,9.224374E-2,1.16722E-1,-1.00002244E-1,7.946022E-2,2.9387763E-1,3.8864368E-1,1.051973E0,6.119206E-1,1.0767756E0,6.846687E-2,6.77531E-1,-1.675308E-1,-1.3100638E-2,-1.5827718E-1,-8.1595145E-2,-3.4517787E-2,-1.5058848E-1,5.644212E-1,1.5269691E-1,4.173768E-3,3.080311E-1,2.692827E-1,-1.22420885E-1,-1.6206892E-1,6.0988225E-2,-1.3176402E-1,2.9475436E-1,-1.4498109E-1,-9.8750725E-2,-8.8951655E-2,8.327297E-2,9.394079E-2,4.3634778E-1,-7.590852E-2,-1.531979E-1],"categories":[],"categories_nodes":[],"categories_segments":[],"categories_sizes":[],"default_left":[0,0,0,0,0,0,0,0,0,0,0,0,0,0,0,0,0,0,0,0,0,0,0,0,0,0,0,0,0,0,0,0,0,0,0,0,0,0,0,0,0,0,0,0,0,0,0,0,0,0,0,0,0,0,0,0,0,0,0,0,0,0,0,0,0,0,0,0,0,0,0,0,0,0,0,0,0,0,0,0,0,0,0,0,0,0,0,0,0,0,0,0,0,0,0,0,0,0,0,0,0,0,0,0,0,0,0,0,0,0,0,0,0,0,0,0,0,0,0,0,0,0,0,0,0],"id":0,"left_children":[1,3,5,7,9,11,13,15,17,19,21,23,25,-1,27,29,31,33,35,-1,37,-1,-1,39,41,43,45,-1,-1,47,49,51,53,55,-1,57,59,-1,61,63,65,67,69,71,73,75,77,-1,-1,79,-1,81,83,85,87,-1,-1,89,91,93,95,-1,97,99,101,103,105,107,109,-1,111,-1,113,115,117,119,121,123,-1,-1,-1,-1,-1,-1,-1,-1,-1,-1,-1,-1,-1,-1,-1,-1,-1,-1,-1,-1,-1,-1,-1,-1,-1,-1,-1,-1,-1,-1,-1,-1,-1,-1,-1,-1,-1,-1,-1,-1,-1,-1,-1,-1,-1,-1,-1],"loss_changes":[5.0301016E4,4.1352367E4,1.0271948E4,1.780584E4,1.3538043E4,6.6217715E3,9.2656E3,7.6740337E3,1.2051828E4,5.3486406E3,8.943839E2,2.18783E3,1.7101777E3,0E0,3.1402182E2,2.8171602E3,3.0233994E3,2.0533594E3,8.169881E3,0E0,1.2838223E3,0E0,0E0,1.6624021E3,1.6655414E3,1.225293E3,2.2839546E3,0E0,0E0,1.2892412E3,1.0240608E3,2.0144594E3,1.964501E3,6.7973047E2,0E0,1.4254098E3,3.6356309E3,0E0,4.4109766E2,1.6013654E3,1.9351074E2,1.5142065E3,3.1908223E3,4.728875E3,7.0983203E2,9.5948065E2,6.157887E2,0E0,0E0,7.360713E2,0E0,2.6499014E3,5.4339777E2,1.5260166E3,1.3025195E3,0E0,0E0,5.368041E2,3.5508862E2,7.628501E2,3.5224355E3,0E0,4.4816797E2,2.3151733E3,1.00729236E3,8.2358154E1,2.0950449E2,4.9232056E2,1.2824005E3,0E0,6.125853E2,0E0,8.040281E2,2.2639336E3,7.787676E2,2.990362E2,1.0688608E3,2.161239E2,0E0,0E0,0E0,0E0,0E0,0E0,0E0,0E0,0E0,0E0,0E0,0E0,0E0,0E0,0E0,0E0,0E0,0E0,0E0,0E0,0E0,0E0,0E0,0E0,0E0,0E0,0E0,0E0,0E0,0E0,0E0,0E0,0E0,0E0,0E0,0E0,0E0,0E0,0E0,0E0,0E0,0E0,0E0,0E0,0E0,0E0,0E0],"parents":[2147483647,0,0,1,1,2,2,3,3,4,4,5,5,6,6,7,7,8,8,9,9,10,10,11,11,12,12,14,14,15,15,16,16,17,17,18,18,20,20,23,23,24,24,25,25,26,26,29,29,30,30,31,31,32,32,33,33,35,35,36,36,38,38,39,39,40,40,41,41,42,42,43,43,44,44,45,45,46,46,49,49,51,51,52,52,53,53,54,54,57,57,58,58,59,59,60,60,62,62,63,63,64,64,65,65,66,66,67,67,68,68,70,70,72,72,73,73,74,74,75,75,76,76,77,77],"right_children":[2,4,6,8,10,12,14,16,18,20,22,24,26,-1,28,30,32,34,36,-1,38,-1,-1,40,42,44,46,-1,-1,48,50,52,54,56,-1,58,60,-1,62,64,66,68,70,72,74,76,78,-1,-1,80,-1,82,84,86,88,-1,-1,90,92,94,96,-1,98,100,102,104,106,108,110,-1,112,-1,114,116,118,120,122,124,-1,-1,-1,-1,-1,-1,-1,-1,-1,-1,-1,-1,-1,-1,-1,-1,-1,-1,-1,-1,-1,-1,-1,-1,-1,-1,-1,-1,-1,-1,-1,-1,-1,-1,-1,-1,-1,-1,-1,-1,-1,-1,-1,-1,-1,-1,-1],"split_conditions":[3.9007068E-1,2.21E0,1.55E0,5.1E-1,1.0244957E0,4.6102244E-1,-4.1283684E1,-1.41E0,-3.3353233E-1,1.1162367E1,2.2740512E2,2.4E-1,8.3E-1,1.3603368E0,2.5824001E1,9.466659E-1,3.6E-1,-1.6296977E-1,1.2777324E2,1.8412269E0,2.2025287E-1,4.150785E-1,-5.3660244E-2,4.826639E0,2.89E-1,-1.42E0,5.6E-1,-3.8820215E-2,2.4523602E-1,-7.381282E-2,8.308113E0,-1.1E-2,5.230335E-1,2.9107975E1,1.4635364E0,2.9E-1,-2.040835E-1,1.4537135E0,2.9127968E1,-1.37E0,-3.2E-1,2.1230229E2,-3.6788815E1,-1.14E0,-1.42E0,1.4535404E1,7.491287E-1,4.5141456E-1,1.1248745E0,5.527576E-1,-4.470917E-2,-5.6E-2,3.9E-1,7.1E-1,3.047482E1,9.102182E-1,4.6788636E-1,1.1341101E2,2.2506912E1,2.7160648E-1,1.5478673E2,5.3217846E-1,1.3486595E2,-9.2E-2,-1.05E0,1.2814357E0,-1E-2,1.9153355E-1,8.50985E1,8.6552984E-1,-5.3396113E-2,6.044186E-1,6.433229E-3,-1.43E0,2E-2,5.379123E-2,1.6566286E0,-6.30835E0,1.4337936E-1,5.013963E-1,1.2802419E-1,4.9520645E-2,5.332578E-1,-4.9371783E-2,4.3175913E-2,6.309989E-2,3.429033E-1,8.231541E-2,6.028733E-1,4.70467E-1,9.224374E-2,1.16722E-1,-1.00002244E-1,7.946022E-2,2.9387763E-1,3.8864368E-1,1.051973E0,6.119206E-1,1.0767756E0,6.846687E-2,6.77531E-1,-1.675308E-1,-1.3100638E-2,-1.5827718E-1,-8.1595145E-2,-3.4517787E-2,-1.5058848E-1,5.644212E-1,1.5269691E-1,4.173768E-3,3.080311E-1,2.692827E-1,-1.22420885E-1,-1.6206892E-1,6.0988225E-2,-1.3176402E-1,2.9475436E-1,-1.4498109E-1,-9.8750725E-2,-8.8951655E-2,8.327297E-2,9.394079E-2,4.3634778E-1,-7.590852E-2,-1.531979E-1],"split_indices":[40,72,69,17,7,40,13,62,8,53,4,68,68,0,21,7,72,9,29,0,49,0,0,55,79,62,70,0,0,8,54,74,38,27,0,67,57,0,2,62,70,33,13,15,14,59,48,0,0,12,0,74,67,72,28,0,0,37,1,47,54,0,29,18,71,42,70,47,61,0,51,0,11,14,15,10,42,11,0,0,0,0,0,0,0,0,0,0,0,0,0,0,0,0,0,0,0,0,0,0,0,0,0,0,0,0,0,0,0,0,0,0,0,0,0,0,0,0,0,0,0,0,0,0,0],"split_type":[0,0,0,0,0,0,0,0,0,0,0,0,0,0,0,0,0,0,0,0,0,0,0,0,0,0,0,0,0,0,0,0,0,0,0,0,0,0,0,0,0,0,0,0,0,0,0,0,0,0,0,0,0,0,0,0,0,0,0,0,0,0,0,0,0,0,0,0,0,0,0,0,0,0,0,0,0,0,0,0,0,0,0,0,0,0,0,0,0,0,0,0,0,0,0,0,0,0,0,0,0,0,0,0,0,0,0,0,0,0,0,0,0,0,0,0,0,0,0,0,0,0,0,0,0],"sum_hessian":[7.259E3,2.298E3,4.961E3,2.203E3,9.5E1,4.923E3,3.8E1,1.615E3,5.88E2,7E1,2.5E1,1.594E3,3.329E3,1.4E1,2.4E1,7.3E1,1.542E3,4.3E1,5.45E2,1.9E1,5.1E1,1.1E1,1.4E1,1.18E3,4.14E2,2.945E3,3.84E2,1.4E1,1E1,2.2E1,5.1E1,1.284E3,2.58E2,3.3E1,1E1,1.37E2,4.08E2,1E1,4.1E1,8.86E2,2.94E2,3.79E2,3.5E1,1.37E2,2.808E3,1.28E2,2.56E2,1.1E1,1.1E1,3.9E1,1.2E1,5.07E2,7.77E2,2.23E2,3.5E1,2E1,1.3E1,2.5E1,1.12E2,1.18E2,2.9E2,1E1,3.1E1,7.6E1,8.1E2,1.85E2,1.09E2,2E1,3.59E2,1.1E1,2.4E1,1.7E1,1.2E2,1.03E2,2.705E3,6.3E1,6.5E1,2.41E2,1.5E1,2.5E1,1.4E1,4.89E2,1.8E1,6.57E2,1.2E2,1.86E2,3.7E1,1.2E1,2.3E1,1E1,1.5E1,1.3E1,9.9E1,7.7E1,4.1E1,2.77E2,1.3E1,1E1,2.1E1,6.5E1,1.1E1,7.4E1,7.36E2,1.54E2,3.1E1,7E1,3.9E1,1E1,1E1,3.36E2,2.3E1,1.1E1,1.3E1,8.3E1,3.7E1,7.7E1,2.6E1,1.822E3,8.83E2,3.2E1,3.1E1,4.3E1,2.2E1,1.21E2,1.2E2],"tree_param":{"num_deleted":"0","num_feature":"80","num_nodes":"125","size_leaf_vector":"1"}},{"base_weights":[4.1112993E-2,3.975678E0,-1.7167068E0,3.0076442E0,2.5269197E1,-1.8740909E0,8.64035E0,1.175812E0,7.91153E0,1.017779E1,3.66202E1,-3.2209736E-1,-2.6419182E0,1.6876829E0,1.1115801E0,1.1838431E1,6.7356855E-1,1.0385003E1,-8.3325607E-1,7.282778E-1,3.1169114E0,4.3788906E1,2.2976227E1,-6.5787023E-1,3.3728642E0,-2.8748038E0,-5.3421102E-2,-1.3819534E0,6.512322E0,2.1092924E1,6.869778E0,3.665792E-2,3.8269343E0,2.269298E1,9.073591E0,3.1886613E-1,-2.2368627E0,-6.9366366E-2,3.62667E-1,3.441949E1,2.4583669E0,5.8951765E-1,1.1725539E0,2.6212087E0,-9.099241E-1,6.752911E-1,1.8166579E0,-5.125835E-1,-3.0709696E0,-2.450785E0,2.8882546E0,-2.5955641E0,2.424152E-2,7.736998E-2,4.3819407E-1,1.1023803E0,4.4506505E-1,9.284776E0,-5.3801485E-3,1.4212327E0,-8.58499E-1,1.7049474E0,7.1559896E0,2.7147724E1,2.923689E-1,2.2129568E1,7.8768783E0,-3.0978367E0,-7.790351E-1,8.5943985E-1,1.6737813E0,1.1161947E0,4.461566E-1,-1.0543479E0,4.2541895E0,4.4460055E-1,8.0925155E-1,-2.9795353E0,1.015339E1,-3.405248E0,-2.3204494E0,1.8549999E0,-3.280713E0,-2.3131911E-1,4.8247237E0,-4.990271E-2,-1.4464642E-1,5.5286866E-1,2.0989826E-1,4.2901553E-2,4.7050384E-1,-5.0122235E-2,4.466009E-2,1.1740618E-1,-9.525717E-2,2.1157835E-1,5.677919E-1,1.4707218E0,5.937479E-1,1.0944571E0,5.545955E-1,1.992203E-1,4.1789532E-1,-1.534954E-1,-4.8495486E-2,9.076095E-2,-7.628775E-2,-1.811394E-2,1.9744581E-1,-1.5110004E-1,-3.2451797E-2,3.5533917E-1,-7.748427E-2,-1.0810808E-2,4.3320194E-1,-1.6794147E-1,5.255094E-3,1.0016042E0,2.0379509E-1,-1.4148074E-1,-2.6727498E-2,-9.9431306E-2,1.0651611E-1,-5.030397E-2,2.1488132E-1,-1.4773619E-1,-8.345979E-4,-9.548668E-2,1.0566455E-1,2.8658584E-1,1.3936807E-2],"categories":[],"categories_nodes":[],"categories_segments":[],"categories_sizes":[],"default_left":[0,0,0,0,0,0,0,0,0,0,0,0,0,0,0,0,0,0,0,0,0,0,0,0,0,0,0,0,0,0,0,0,0,0,0,0,0,0,0,0,0,0,0,0,0,0,0,0,0,0,0,0,0,0,0,0,0,0,0,0,0,0,0,0,0,0,0,0,0,0,0,0,0,0,0,0,0,0,0,0,0,0,0,0,0,0,0,0,0,0,0,0,0,0,0,0,0,0,0,0,0,0,0,0,0,0,0,0,0,0,0,0,0,0,0,0,0,0,0,0,0,0,0,0,0,0,0,0,0,0,0],"id":1,"left_children":[1,3,5,7,9,11,13,15,17,19,21,23,25,27,-1,29,31,33,35,-1,37,39,41,43,45,47,49,51,53,55,57,59,61,63,65,-1,67,-1,-1,69,-1,-1,-1,71,73,-1,75,77,79,81,83,85,-1,-1,-1,-1,-1,87,-1,89,91,93,95,97,-1,99,101,103,105,-1,-1,107,-1,109,111,-1,113,115,117,119,121,123,125,127,129,-1,-1,-1,-1,-1,-1,-1,-1,-1,-1,-1,-1,-1,-1,-1,-1,-1,-1,-1,-1,-1,-1,-1,-1,-1,-1,-1,-1,-1,-1,-1,-1,-1,-1,-1,-1,-1,-1,-1,-1,-1,-1,-1,-1,-1,-1],"loss_changes":[5.0011348E4,4.5947723E4,8.1606934E3,1.9185316E4,1.6240316E4,5.8661465E3,9.884328E3,8.327107E3,1.25768125E4,2.3593838E3,4.394453E3,2.0249272E3,1.9847988E3,8.386458E2,0E0,3.0709873E3,2.9873352E3,7.105832E3,1.6050496E3,0E0,7.0442505E2,3.6820938E3,6.6231836E2,1.2382754E3,2.8136685E3,1.3979336E3,1.9316517E3,8.6265915E1,4.2046704E2,1.2276934E3,7.9775E2,1.5368896E3,1.7518538E3,2.7499395E3,6.2463555E3,0E0,1.3724408E2,0E0,0E0,1.4957441E3,0E0,0E0,0E0,1.3532222E3,1.040161E3,0E0,1.1360981E3,6.156914E3,6.909492E2,5.45638E2,7.450033E2,2.4463531E1,0E0,0E0,0E0,0E0,0E0,5.631201E2,0E0,1.7508691E3,5.81554E2,7.738982E2,1.2005186E3,3.3377285E3,0E0,1.0809316E3,2.740627E3,9.053015E1,1.5068002E2,0E0,0E0,5.5180994E2,0E0,8.96609E2,1.0988076E3,0E0,1.2117275E3,7.143889E2,3.174497E3,6.3668945E2,6.84208E2,2.7910733E2,1.6523242E2,3.0118298E2,7.842539E2,0E0,0E0,0E0,0E0,0E0,0E0,0E0,0E0,0E0,0E0,0E0,0E0,0E0,0E0,0E0,0E0,0E0,0E0,0E0,0E0,0E0,0E0,0E0,0E0,0E0,0E0,0E0,0E0,0E0,0E0,0E0,0E0,0E0,0E0,0E0,0E0,0E0,0E0,0E0,0E0,0E0,0E0,0E0,0E0,0E0,0E0],"parents":[2147483647,0,0,1,1,2,2,3,3,4,4,5,5,6,6,7,7,8,8,9,9,10,10,11,11,12,12,13,13,15,15,16,16,17,17,18,18,20,20,21,21,22,22,23,23,24,24,25,25,26,26,27,27,28,28,29,29,30,30,31,31,32,32,33,33,34,34,36,36,39,39,43,43,44,44,46,46,47,47,48,48,49,49,50,50,51,51,57,57,59,59,60,60,61,61,62,62,63,63,65,65,66,66,67,67,68,68,71,71,73,73,74,74,76,76,77,77,78,78,79,79,80,80,81,81,82,82,83,83,84,84],"right_children":[2,4,6,8,10,12,14,16,18,20,22,24,26,28,-1,30,32,34,36,-1,38,40,42,44,46,48,50,52,54,56,58,60,62,64,66,-1,68,-1,-1,70,-1,-1,-1,72,74,-1,76,78,80,82,84,86,-1,-1,-1,-1,-1,88,-1,90,92,94,96,98,-1,100,102,104,106,-1,-1,108,-1,110,112,-1,114,116,118,120,122,124,126,128,130,-1,-1,-1,-1,-1,-1,-1,-1,-1,-1,-1,-1,-1,-1,-1,-1,-1,-1,-1,-1,-1,-1,-1,-1,-1,-1,-1,-1,-1,-1,-1,-1,-1,-1,-1,-1,-1,-1,-1,-1,-1,-1,-1,-1,-1,-1],"split_conditions":[3.8906848E-1,2.21E0,2.57E0,5.1E-1,6.0292053E0,4.6102244E-1,3.2339697E0,-1.41E0,2.6474844E1,9.787005E-1,1.2867975E2,7.6E-1,8.3E-1,1.8103492E0,1.1115801E0,9.5193255E-1,3.6E-1,-3.3353233E-1,6E-2,7.282778E-1,3.690058E2,8.935211E-1,1.3486595E2,-1.37E0,-1.28E-1,-1.03E0,2.3909872E-2,5.508003E-1,5.6816125E-1,3.083201E2,5.0247707E0,-1.1E-2,1.1606048E2,2.808363E2,-2.89E-1,3.1886613E-1,5.3888617E2,-6.9366366E-2,3.62667E-1,2.674433E-1,2.4583669E0,5.8951765E-1,1.1725539E0,-9.2E-2,1.9563389E0,6.752911E-1,-2.5215948E-1,-8.7E-1,4E-2,-2.3390955E1,-1.1041427E1,1.14274704E2,2.424152E-2,7.736998E-2,4.3819407E-1,1.1023803E0,4.4506505E-1,2.7940624E1,-5.3801485E-3,-5.6E-2,3.9E-1,8.702722E-1,5.387016E-1,2.7993527E-1,2.923689E-1,-6.30835E0,2.9713194E1,7.2930723E-1,6.565763E-1,8.5943985E-1,1.6737813E0,1.7974898E-1,4.461566E-1,-9.8E-1,-1.59E-1,4.4460055E-1,2.3739927E1,3.617321E-2,-6.8734235E-1,4.308232E2,6.9903964E-1,2.3172853E1,1.4284967E1,2.9356554E1,-2.7199168E0,-4.990271E-2,-1.4464642E-1,5.5286866E-1,2.0989826E-1,4.2901553E-2,4.7050384E-1,-5.0122235E-2,4.466009E-2,1.1740618E-1,-9.525717E-2,2.1157835E-1,5.677919E-1,1.4707218E0,5.937479E-1,1.0944571E0,5.545955E-1,1.992203E-1,4.1789532E-1,-1.534954E-1,-4.8495486E-2,9.076095E-2,-7.628775E-2,-1.811394E-2,1.9744581E-1,-1.5110004E-1,-3.2451797E-2,3.5533917E-1,-7.748427E-2,-1.0810808E-2,4.3320194E-1,-1.6794147E-1,5.255094E-3,1.0016042E0,2.0379509E-1,-1.4148074E-1,-2.6727498E-2,-9.9431306E-2,1.0651611E-1,-5.030397E-2,2.1488132E-1,-1.4773619E-1,-8.345979E-4,-9.548668E-2,1.0566455E-1,2.8658584E-1,1.3936807E-2],"split_indices":[40,72,66,17,12,40,56,62,20,7,5,66,16,57,0,7,72,8,64,0,34,8,29,62,78,65,49,6,6,31,54,74,5,31,78,0,33,0,0,49,0,0,0,18,41,0,9,63,15,54,61,37,0,0,0,0,0,60,0,74,67,43,38,49,0,54,27,7,52,0,0,9,0,71,78,0,25,9,52,30,48,1,54,27,54,0,0,0,0,0,0,0,0,0,0,0,0,0,0,0,0,0,0,0,0,0,0,0,0,0,0,0,0,0,0,0,0,0,0,0,0,0,0,0,0,0,0,0,0,0,0],"split_type":[0,0,0,0,0,0,0,0,0,0,0,0,0,0,0,0,0,0,0,0,0,0,0,0,0,0,0,0,0,0,0,0,0,0,0,0,0,0,0,0,0,0,0,0,0,0,0,0,0,0,0,0,0,0,0,0,0,0,0,0,0,0,0,0,0,0,0,0,0,0,0,0,0,0,0,0,0,0,0,0,0,0,0,0,0,0,0,0,0,0,0,0,0,0,0,0,0,0,0,0,0,0,0,0,0,0,0,0,0,0,0,0,0,0,0,0,0,0,0,0,0,0,0,0,0,0,0,0,0,0,0],"sum_hessian":[7.229E3,2.232E3,4.997E3,2.136E3,9.6E1,4.923E3,7.4E1,1.556E3,5.8E2,4.2E1,5.4E1,1.63E3,3.293E3,5.5E1,1.9E1,6.9E1,1.487E3,4.52E2,1.28E2,1.9E1,2.3E1,3.4E1,2E1,1.495E3,1.35E2,3.021E3,2.72E2,3.4E1,2.1E1,2.3E1,4.6E1,1.238E3,2.49E2,4.2E1,4.1E2,1.7E1,1.11E2,1.3E1,1E1,2.4E1,1E1,1E1,1E1,1.06E2,1.389E3,1.3E1,1.22E2,2.32E2,2.789E3,1.5E2,1.22E2,2.1E1,1.3E1,1.1E1,1E1,1.3E1,1E1,3.4E1,1.2E1,4.86E2,7.52E2,1.53E2,9.6E1,3.2E1,1E1,3.3E1,3.77E2,6.9E1,4.2E1,1E1,1.4E1,9.1E1,1.5E1,1.352E3,3.7E1,1.1E1,1.11E2,1.89E2,4.3E1,1.927E3,8.62E2,2.4E1,1.26E2,4.7E1,7.5E1,1E1,1.1E1,1.5E1,1.9E1,4.71E2,1.5E1,6.28E2,1.24E2,1.18E2,3.5E1,7.7E1,1.9E1,1.7E1,1.5E1,1.9E1,1.4E1,1.77E2,2E2,4.9E1,2E1,1.1E1,3.1E1,6.5E1,2.6E1,1.11E2,1.241E3,2.1E1,1.6E1,1.01E2,1E1,1.36E2,5.3E1,1E1,3.3E1,1.845E3,8.2E1,8.36E2,2.6E1,1.3E1,1.1E1,1.12E2,1.4E1,2.7E1,2E1,4.9E1,2.6E1],"tree_param":{"num_deleted":"0","num_feature":"80","num_nodes":"131","size_leaf_vector":"1"}},{"base_weights":[6.14834E-2,3.9043176E0,-1.6931864E0,2.9846747E0,2.4591982E1,-2.088166E0,1.9099432E0,1.3208466E0,7.418353E0,9.631602E0,3.5116455E1,-2.9712015E-1,-2.6276834E0,1.2128257E0,9.590916E-1,1.154045E1,8.091246E-1,1.9641057E0,1.089749E1,7.6642424E-1,4.5636578E0,2.8086342E1,1.9932281E0,8.7548846E-1,-1.4207996E0,-1.0449182E-1,-2.7471788E0,-1.9735814E0,3.3636506E0,2.1063969E1,6.93138E0,1.9075817E-1,3.89974E0,-1.4036225E0,5.4357133E0,1.2974128E1,2.409857E0,4.3320665E-1,2.0142166E-2,7.359527E-1,3.2653774E1,-3.7421107E-1,2.4772427E0,-2.774403E0,-4.2913297E-1,-1.6132658E0,5.6986517E-1,-1.5917246E0,-2.9817023E0,1.4593239E0,-2.9756274E0,4.494195E0,-3.073244E0,1.2571718E0,4.6281993E-1,5.9151065E-1,3.0553613E0,1.6159146E0,-7.41032E-1,2.7242E0,1.1292759E1,3.5603067E-1,-2.8985314E0,5.873145E-1,3.896386E0,2.6771975E1,1.1093982E1,4.5340075E0,-2.0167751E0,1.5280623E0,1.0170164E0,2.4813929E0,-1.406788E0,6.004524E-1,1.8191581E0,-3.5528083E0,-4.953272E-1,3.469804E0,-9.2972136E-1,-3.3082829E0,1.6662052E0,-2.4578278E0,7.77244E-1,-3.5664575E0,-2.5816312E0,-9.7794163E-1,3.573538E-1,-3.268714E0,3.9250445E-2,2.0611577E0,7.118733E0,-1.5969096E-1,-2.6462486E-2,2.8791857E-1,-3.9704584E-2,4.9761984E-2,4.618551E-1,4.7676144E-3,-6.1892502E-2,8.137721E-2,4.554078E-1,-1.1304982E-2,6.477586E-1,-6.0350504E-2,1.0027733E-1,2.813101E-2,-1.437394E-1,3.2747862E-1,3.9592735E-2,1.5567498E0,7.4191684E-1,5.570631E-1,2.1731433E-1,2.7797368E-1,-1.449519E-2,-1.9243713E-2,-1.3106567E-1,3.2285908E-1,8.413945E-3,-7.8965805E-2,8.109192E-2,1.381808E-1,-3.838434E-2,-1.5051936E-1,-2.6862442E-2,2.1940801E-2,-1.3186324E-1,3.390231E-1,-2.674374E-2,-1.16833754E-1,-1.3233445E-2,-2.6345233E-2,-1.524916E-1,5.3820794E-4,2.5025117E-1,-6.495749E-2,-1.4088824E-1,-1.2010225E-2,1.9651176E-1,-1.6996615E-1,-1.3194808E-1,3.9963447E-2,-1.1186807E-1,2.0965178E-2,-1.09023064E-1,-1.4891133E-1,-5.164658E-2,3.0527303E-1,3.824458E-2,2.3617221E-1,6.957281E-1],"categories":[],"categories_nodes":[],"categories_segments":[],"categories_sizes":[],"default_left":[0,0,0,0,0,0,0,0,0,0,0,0,0,0,0,0,0,0,0,0,0,0,0,0,0,0,0,0,0,0,0,0,0,0,0,0,0,0,0,0,0,0,0,0,0,0,0,0,0,0,0,0,0,0,0,0,0,0,0,0,0,0,0,0,0,0,0,0,0,0,0,0,0,0,0,0,0,0,0,0,0,0,0,0,0,0,0,0,0,0,0,0,0,0,0,0,0,0,0,0,0,0,0,0,0,0,0,0,0,0,0,0,0,0,0,0,0,0,0,0,0,0,0,0,0,0,0,0,0,0,0,0,0,0,0,0,0,0,0,0,0,0,0,0,0,0,0,0,0,0,0],"id":2,"left_children":[1,3,5,7,9,11,13,15,17,19,21,23,25,27,-1,29,31,33,35,-1,37,39,-1,41,43,45,47,49,51,53,55,57,59,61,63,65,67,-1,-1,-1,69,71,73,75,77,79,-1,81,83,85,87,89,91,-1,-1,-1,93,95,97,99,101,103,105,-1,107,109,111,113,115,-1,-1,117,119,-1,121,123,125,127,129,131,133,135,137,139,141,143,-1,145,-1,147,149,-1,-1,-1,-1,-1,-1,-1,-1,-1,-1,-1,-1,-1,-1,-1,-1,-1,-1,-1,-1,-1,-1,-1,-1,-1,-1,-1,-1,-1,-1,-1,-1,-1,-1,-1,-1,-1,-1,-1,-1,-1,-1,-1,-1,-1,-1,-1,-1,-1,-1,-1,-1,-1,-1,-1,-1,-1,-1,-1,-1],"loss_changes":[4.8569004E4,4.2881008E4,7.0413477E3,1.5944311E4,1.4773305E4,4.305283E3,7.463406E3,8.219134E3,1.1171369E4,1.8766208E3,4.372992E3,1.3623921E3,1.0316738E3,3.2617925E3,0E0,3.1433398E3,2.8648857E3,2.708555E3,6.3107266E3,0E0,6.9990814E2,1.1912285E3,0E0,1.0141963E3,7.0675024E2,3.385701E3,8.804082E2,6.648645E2,2.0800156E3,1.987542E3,1.5256865E3,1.6625724E3,2.139351E3,3.1191608E2,1.555127E3,7.2020234E3,6.860066E2,0E0,0E0,0E0,8.900586E1,8.433151E2,1.7939753E3,3.928412E2,5.9961646E2,7.948064E2,0E0,1.1388468E3,6.2525586E2,8.082748E2,1.7625757E2,1.5286943E3,9.037906E1,0E0,0E0,0E0,6.077716E2,1.8227784E3,5.223131E2,1.277015E3,1.9157207E3,2.2299004E2,1.6065283E2,0E0,1.2182997E3,2.6803926E3,3.9788125E3,5.7793225E2,4.359929E1,0E0,0E0,9.5674084E2,4.0790115E2,0E0,9.59906E2,9.167261E1,1.710201E2,7.2752234E2,3.2167865E2,1.19223755E2,3.682656E2,3.521001E2,6.634106E2,1.8954785E2,1.1989111E3,9.054399E1,0E0,1.1612732E2,0E0,7.7125714E2,1.3568491E3,0E0,0E0,0E0,0E0,0E0,0E0,0E0,0E0,0E0,0E0,0E0,0E0,0E0,0E0,0E0,0E0,0E0,0E0,0E0,0E0,0E0,0E0,0E0,0E0,0E0,0E0,0E0,0E0,0E0,0E0,0E0,0E0,0E0,0E0,0E0,0E0,0E0,0E0,0E0,0E0,0E0,0E0,0E0,0E0,0E0,0E0,0E0,0E0,0E0,0E0,0E0,0E0,0E0,0E0,0E0,0E0,0E0,0E0,0E0,0E0],"parents":[2147483647,0,0,1,1,2,2,3,3,4,4,5,5,6,6,7,7,8,8,9,9,10,10,11,11,12,12,13,13,15,15,16,16,17,17,18,18,20,20,21,21,23,23,24,24,25,25,26,26,27,27,28,28,29,29,30,30,31,31,32,32,33,33,34,34,35,35,36,36,40,40,41,41,42,42,43,43,44,44,45,45,47,47,48,48,49,49,50,50,51,51,52,52,56,56,57,57,58,58,59,59,60,60,61,61,62,62,64,64,65,65,66,66,67,67,68,68,71,71,72,72,74,74,75,75,76,76,77,77,78,78,79,79,80,80,81,81,82,82,83,83,84,84,85,85,87,87,89,89,90,90],"right_children":[2,4,6,8,10,12,14,16,18,20,22,24,26,28,-1,30,32,34,36,-1,38,40,-1,42,44,46,48,50,52,54,56,58,60,62,64,66,68,-1,-1,-1,70,72,74,76,78,80,-1,82,84,86,88,90,92,-1,-1,-1,94,96,98,100,102,104,106,-1,108,110,112,114,116,-1,-1,118,120,-1,122,124,126,128,130,132,134,136,138,140,142,144,-1,146,-1,148,150,-1,-1,-1,-1,-1,-1,-1,-1,-1,-1,-1,-1,-1,-1,-1,-1,-1,-1,-1,-1,-1,-1,-1,-1,-1,-1,-1,-1,-1,-1,-1,-1,-1,-1,-1,-1,-1,-1,-1,-1,-1,-1,-1,-1,-1,-1,-1,-1,-1,-1,-1,-1,-1,-1,-1,-1,-1,-1,-1,-1],"split_conditions":[3.9007068E-1,2.21E0,8.3E-1,5.1E-1,6.0292053E0,4.3731067E-1,7.1131384E-1,-1.41E0,2.0395819E2,-6.3950806E1,9.901471E-1,-1.1E-2,-1.42E0,2.3287912E-3,9.590916E-1,9.5193255E-1,3.6E-1,1.4046144E-1,2.808363E2,7.6642424E-1,2.2740512E2,2.9487772E1,1.9932281E0,-1.45E-1,-3.4E-1,1.1569315E1,-1.82E-1,-2.3390955E1,1.2379781E2,3.507678E-1,3.306807E-1,-1.1E-2,5.230335E-1,2.995365E1,2.8537872E1,-3.3353233E-1,8.3E-1,4.3320665E-1,2.0142166E-2,7.359527E-1,2.339555E1,-3.8762043E0,-1.43E0,-3E-2,-4.130478E-1,6.433229E-3,5.6986517E-1,3.4296225E2,-2.6E-1,6.1679604E1,2.362376E1,2.9315895E1,2.6585863E1,1.2571718E0,4.6281993E-1,5.9151065E-1,1.1981037E0,-5.6E-2,-1.185053E1,4.83E-1,3.047482E1,1.0312791E2,-3.287659E-2,5.873145E-1,-6.8E-2,2.2958769E1,2.6547768E1,2.4023905E-1,7.2294817E0,1.5280623E0,1.0170164E0,-6.7E-1,-1.1E-1,6.004524E-1,3.429038E2,2.3847458E1,4.8523748E-1,2.5562628E1,-2.6928914E-1,4.8977172E-1,3.700163E2,-6E-2,2.9915781E1,-3.6E-2,-7.7E-1,1.2160264E2,3.573538E-1,3.624385E1,3.9250445E-2,-8.455426E-2,3.0360214E2,-1.5969096E-1,-2.6462486E-2,2.8791857E-1,-3.9704584E-2,4.9761984E-2,4.618551E-1,4.7676144E-3,-6.1892502E-2,8.137721E-2,4.554078E-1,-1.1304982E-2,6.477586E-1,-6.0350504E-2,1.0027733E-1,2.813101E-2,-1.437394E-1,3.2747862E-1,3.9592735E-2,1.5567498E0,7.4191684E-1,5.570631E-1,2.1731433E-1,2.7797368E-1,-1.449519E-2,-1.9243713E-2,-1.3106567E-1,3.2285908E-1,8.413945E-3,-7.8965805E-2,8.109192E-2,1.381808E-1,-3.838434E-2,-1.5051936E-1,-2.6862442E-2,2.1940801E-2,-1.3186324E-1,3.390231E-1,-2.674374E-2,-1.16833754E-1,-1.3233445E-2,-2.6345233E-2,-1.524916E-1,5.3820794E-4,2.5025117E-1,-6.495749E-2,-1.4088824E-1,-1.2010225E-2,1.9651176E-1,-1.6996615E-1,-1.3194808E-1,3.9963447E-2,-1.1186807E-1,2.0965178E-2,-1.09023064E-1,-1.4891133E-1,-5.164658E-2,3.0527303E-1,3.824458E-2,2.3617221E-1,6.957281E-1],"split_indices":[40,72,16,17,12,40,47,62,29,59,10,74,62,49,0,7,72,56,31,0,4,28,0,74,67,58,79,54,37,40,40,74,38,28,2,8,17,0,0,0,25,12,62,17,46,11,0,30,16,61,13,28,21,0,0,0,7,74,54,74,28,35,49,0,79,25,22,46,61,0,0,72,72,0,30,1,6,21,51,40,31,62,28,19,71,5,0,59,0,46,33,0,0,0,0,0,0,0,0,0,0,0,0,0,0,0,0,0,0,0,0,0,0,0,0,0,0,0,0,0,0,0,0,0,0,0,0,0,0,0,0,0,0,0,0,0,0,0,0,0,0,0,0,0,0,0,0,0,0,0,0],"split_type":[0,0,0,0,0,0,0,0,0,0,0,0,0,0,0,0,0,0,0,0,0,0,0,0,0,0,0,0,0,0,0,0,0,0,0,0,0,0,0,0,0,0,0,0,0,0,0,0,0,0,0,0,0,0,0,0,0,0,0,0,0,0,0,0,0,0,0,0,0,0,0,0,0,0,0,0,0,0,0,0,0,0,0,0,0,0,0,0,0,0,0,0,0,0,0,0,0,0,0,0,0,0,0,0,0,0,0,0,0,0,0,0,0,0,0,0,0,0,0,0,0,0,0,0,0,0,0,0,0,0,0,0,0,0,0,0,0,0,0,0,0,0,0,0,0,0,0,0,0,0,0],"sum_hessian":[7.201E3,2.257E3,4.944E3,2.162E3,9.5E1,4.456E3,4.88E2,1.573E3,5.89E2,4E1,5.5E1,1.032E3,3.424E3,4.74E2,1.4E1,7.4E1,1.499E3,2.3E2,3.59E2,1.3E1,2.7E1,3.9E1,1.6E1,5.05E2,5.27E2,1.55E2,3.269E3,1.91E2,2.83E2,2.3E1,5.1E1,1.25E3,2.49E2,1.17E2,1.13E2,2.88E2,7.1E1,1E1,1.7E1,1.4E1,2.5E1,2.84E2,2.21E2,2.22E2,3.05E2,1.41E2,1.4E1,5.53E2,2.716E3,4.3E1,1.48E2,2.41E2,4.2E1,1E1,1.3E1,1.6E1,3.5E1,4.94E2,7.56E2,2.16E2,3.3E1,5.4E1,6.3E1,1.5E1,9.8E1,3.3E1,2.55E2,4.8E1,2.3E1,1.2E1,1.3E1,7.5E1,2.09E2,1E1,2.11E2,1.65E2,5.7E1,3.4E1,2.71E2,9.3E1,4.8E1,4.05E2,1.48E2,1.1E3,1.616E3,3.3E1,1E1,1.38E2,1E1,1.26E2,1.15E2,3E1,1.2E1,1.7E1,1.8E1,4.77E2,1.7E1,3.65E2,3.91E2,2.01E2,1.5E1,1E1,2.3E1,2.9E1,2.5E1,1E1,5.3E1,3.9E1,5.9E1,1.2E1,2.1E1,1.7E2,8.5E1,3.2E1,1.6E1,1.1E1,1.2E1,2.1E1,5.4E1,1.8E2,2.9E1,1.33E2,7.8E1,1.54E2,1.1E1,4.2E1,1.5E1,1.5E1,1.9E1,6.2E1,2.09E2,1.5E1,7.8E1,3.6E1,1.2E1,2.27E2,1.78E2,1.18E2,3E1,3.18E2,7.82E2,8.8E1,1.528E3,1.8E1,1.5E1,1.12E2,2.6E1,2E1,1.06E2,1.04E2,1.1E1],"tree_param":{"num_deleted":"0","num_feature":"80","num_nodes":"151","size_leaf_vector":"1"}},{"base_weights":[-2.0007083E-2,-1.2333989E0,4.618418E0,8.102552E-1,-2.4361482E0,2.820976E0,1.220747E1,9.1149845E0,3.5955083E-1,-8.013798E-2,-2.6395E0,4.6304474E0,-1.03831E0,7.051424E0,3.327455E1,1.1990866E1,3.6311334E-1,4.8775885E-2,7.1469917E0,-2.5864675E0,9.445889E0,-1.5701694E0,-2.918695E0,3.412887E0,1.3515085E1,6.1013465E0,-2.04332E0,2.3945557E1,5.0713825E0,4.430691E-1,3.7875977E1,1.7350203E1,5.6422834E0,2.1366161E-1,-1.0714115E-1,5.0640364E0,-1.7711493E-1,1.8940061E-1,1.0926132E1,-3.7268562E0,-6.108927E-2,1.6948868E1,2.683436E-1,-2.2921634E0,-5.4663557E-1,-3.0200157E0,-1.3984817E0,1.2646538E1,2.501463E0,2.409803E1,6.5349345E0,2.2620814E0,7.560016E-1,6.556109E-1,-2.49005E0,4.7459245E-1,1.275638E0,1.9621075E0,1.9884708E1,2.4236393E0,2.6185026E1,1.0510136E0,1.2369617E1,4.5349842E-1,1.6352267E0,7.5381565E-1,2.7122118E0,-8.972362E-1,1.2318363E0,1.1237877E-1,-1.3451834E-1,3.9677138E0,1.6242647E1,-3.9898427E0,-6.409891E-2,-8.408782E-1,1.5638423E-1,4.696558E-1,9.023244E-1,-9.112206E-2,7.2922274E-2,6.0379602E-2,-2.7208524E0,2.6390517E-1,-8.826313E-1,-3.1608367E0,-1.9911325E0,1.4419746E-1,-2.069111E0,1.744906E1,3.8832217E-2,2.114566E0,1.2284779E1,1.1673601E0,6.070353E-1,4.2773137E0,5.842202E-1,-5.5302553E-2,4.7090387E0,-1.1577405E0,2.8355527E-1,-3.5125098E-1,-3.0759993E0,8.86463E0,-2.4503E-1,2.7040512E1,2.0720099E-1,3.0074577E1,6.450537E-1,3.3852252E-1,7.057393E-1,1.6348217E-1,-1.5023175E-2,1.8377385E-1,-1.095055E-1,-1.0960322E-2,-7.683727E-2,1.3930307E-2,1.7287007E-1,2.9692334E-1,5.4412812E-2,3.6158445E-1,9.5747477E-1,-1.16673745E-1,-1.6634466E-1,3.6728065E-2,-8.74364E-2,1.1039681E-1,-5.7912737E-2,-1.3322715E-1,-4.8914935E-2,9.778679E-2,-5.7961803E-2,-1.4074725E-1,-1.13524385E-1,-9.439765E-2,2.7516156E-1,-1.8794212E-2,-1.2111678E-1,1.4680643E0,4.178576E-1,6.982715E-2,4.5039192E-1,8.900764E-1,1.6962013E-1,2.3450434E-1,-6.610031E-2,3.0175918E-1,7.876143E-2,-8.6452894E-2,2.2606207E-2,-7.2358154E-2,2.7312207E-1,-1.1149129E-1,-1.7685412E-1,1.3302386E-1,6.455108E-1,-3.9936535E-2,2.6881823E-1,5.9231716E-1,1.458387E0,1.4230034E0,8.639823E-1],"categories":[],"categories_nodes":[],"categories_segments":[],"categories_sizes":[],"default_left":[0,0,0,0,0,0,0,0,0,0,0,0,0,0,0,0,0,0,0,0,0,0,0,0,0,0,0,0,0,0,0,0,0,0,0,0,0,0,0,0,0,0,0,0,0,0,0,0,0,0,0,0,0,0,0,0,0,0,0,0,0,0,0,0,0,0,0,0,0,0,0,0,0,0,0,0,0,0,0,0,0,0,0,0,0,0,0,0,0,0,0,0,0,0,0,0,0,0,0,0,0,0,0,0,0,0,0,0,0,0,0,0,0,0,0,0,0,0,0,0,0,0,0,0,0,0,0,0,0,0,0,0,0,0,0,0,0,0,0,0,0,0,0,0,0,0,0,0,0,0,0,0,0,0,0,0,0,0,0,0,0,0,0],"id":3,"left_children":[1,3,5,7,9,11,13,15,17,19,21,23,25,27,29,31,33,35,37,39,41,43,45,47,49,51,53,55,57,-1,59,61,63,-1,-1,65,67,69,71,73,75,77,79,81,83,85,87,89,91,93,95,97,-1,99,101,-1,-1,103,105,-1,107,-1,109,-1,111,-1,113,115,117,-1,-1,119,121,123,-1,125,-1,-1,-1,-1,-1,127,129,-1,131,133,135,-1,137,139,-1,141,143,-1,-1,145,-1,-1,147,149,-1,151,153,155,157,159,-1,161,-1,-1,-1,-1,-1,-1,-1,-1,-1,-1,-1,-1,-1,-1,-1,-1,-1,-1,-1,-1,-1,-1,-1,-1,-1,-1,-1,-1,-1,-1,-1,-1,-1,-1,-1,-1,-1,-1,-1,-1,-1,-1,-1,-1,-1,-1,-1,-1,-1,-1,-1,-1,-1,-1,-1],"loss_changes":[4.057827E4,1.4049685E4,2.0355793E4,7.9219653E3,1.7228945E3,8.454969E3,3.0826656E4,2.7351553E3,4.237609E3,6.8729443E3,9.8327734E2,8.864803E3,2.787528E3,7.602175E3,5.31109E3,2.689E3,4.3518857E2,2.1806013E3,2.3079985E3,6.553369E2,4.1200215E3,5.064817E2,3.9916992E2,6.0753975E3,7.1515312E3,2.3000317E3,4.1190845E2,1.9073545E3,9.535449E3,0E0,1.056957E4,1.6166328E3,8.62828E2,0E0,0E0,2.6235864E3,1.8688414E3,3.0452203E2,2.0403369E3,8.03833E1,2.2452783E2,6.9666113E2,1.1384565E2,4.0720874E2,6.8867426E2,3.4910156E2,5.624111E2,3.622538E3,2.4771084E3,1.313334E3,1.0402668E3,3.451939E2,0E0,5.785749E2,3.639995E2,0E0,0E0,2.6392246E3,3.6457842E3,0E0,7.8133984E2,0E0,4.6624463E2,0E0,1.1985057E2,0E0,7.440594E2,7.73295E2,1.6930763E3,0E0,0E0,2.2092657E2,1.5469336E3,1.0181641E1,0E0,1.4553159E2,0E0,0E0,0E0,0E0,0E0,2.5894797E2,3.021145E2,0E0,5.143609E2,2.3760938E2,9.7141125E2,0E0,2.2118488E2,5.8111797E3,0E0,2.1526519E3,1.894407E3,0E0,0E0,4.6504346E2,0E0,0E0,1.6077655E2,6.8423294E1,0E0,6.7548224E2,7.706665E1,1.6261682E3,6.927099E2,2.2112793E3,0E0,2.6514258E2,0E0,0E0,0E0,0E0,0E0,0E0,0E0,0E0,0E0,0E0,0E0,0E0,0E0,0E0,0E0,0E0,0E0,0E0,0E0,0E0,0E0,0E0,0E0,0E0,0E0,0E0,0E0,0E0,0E0,0E0,0E0,0E0,0E0,0E0,0E0,0E0,0E0,0E0,0E0,0E0,0E0,0E0,0E0,0E0,0E0,0E0,0E0,0E0,0E0,0E0,0E0,0E0,0E0,0E0,0E0],"parents":[2147483647,0,0,1,1,2,2,3,3,4,4,5,5,6,6,7,7,8,8,9,9,10,10,11,11,12,12,13,13,14,14,15,15,16,16,17,17,18,18,19,19,20,20,21,21,22,22,23,23,24,24,25,25,26,26,27,27,28,28,30,30,31,31,32,32,35,35,36,36,37,37,38,38,39,39,40,40,41,41,42,42,43,43,44,44,45,45,46,46,47,47,48,48,49,49,50,50,51,51,53,53,54,54,57,57,58,58,60,60,62,62,64,64,66,66,67,67,68,68,71,71,72,72,73,73,75,75,81,81,82,82,84,84,85,85,86,86,88,88,89,89,91,91,92,92,95,95,98,98,99,99,101,101,102,102,103,103,104,104,105,105,107,107],"right_children":[2,4,6,8,10,12,14,16,18,20,22,24,26,28,30,32,34,36,38,40,42,44,46,48,50,52,54,56,58,-1,60,62,64,-1,-1,66,68,70,72,74,76,78,80,82,84,86,88,90,92,94,96,98,-1,100,102,-1,-1,104,106,-1,108,-1,110,-1,112,-1,114,116,118,-1,-1,120,122,124,-1,126,-1,-1,-1,-1,-1,128,130,-1,132,134,136,-1,138,140,-1,142,144,-1,-1,146,-1,-1,148,150,-1,152,154,156,158,160,-1,162,-1,-1,-1,-1,-1,-1,-1,-1,-1,-1,-1,-1,-1,-1,-1,-1,-1,-1,-1,-1,-1,-1,-1,-1,-1,-1,-1,-1,-1,-1,-1,-1,-1,-1,-1,-1,-1,-1,-1,-1,-1,-1,-1,-1,-1,-1,-1,-1,-1,-1,-1,-1,-1,-1,-1],"split_conditions":[7E-1,4.1892713E-1,1.36E0,-1.41E0,-1.03E0,9.6E-1,6.7104416E0,2.3646991E0,7.1E-1,-8.7E-1,4.595017E-1,8E-1,2.1606218E1,-5.571268E-2,2.8387058E1,-9.3E-1,2.9342857E1,-1.41E0,2.9268954E2,3.617321E-2,-1.773366E1,-5E-2,1.9539113E0,1.03509926E2,9.473859E-1,2.4741642E1,-2.3390955E1,3.9628094E2,3.43416E0,4.430691E-1,2.926347E1,7.5317854E-1,2.8578378E2,2.1366161E-1,-1.0714115E-1,1.0374363E2,1E-2,2.913101E1,1.2014087E2,3.192895E-1,1.6291709E0,1.425632E-1,2.9041708E1,-1.13E0,-6.8E-1,6.7E-1,-2.3676382E-1,2.0447889E-1,1.6787712E1,3.3656592E2,4.1808277E1,2.1026686E1,7.560016E-1,4.884245E1,-7.631848E1,4.7459245E-1,1.275638E0,2.4714376E-1,3.2350992E2,2.4236393E0,3.0301983E1,1.0510136E0,2.2914747E1,4.5349842E-1,2.4578209E1,7.5381565E-1,8.180156E1,3.2684999E0,2.9E-1,1.1237877E-1,-1.3451834E-1,1.8597028E2,2.9387482E1,2.800801E2,-6.409891E-2,-3.0007088E1,1.5638423E-1,4.696558E-1,9.023244E-1,-9.112206E-2,7.2922274E-2,1.6232277E1,5E-2,2.6390517E-1,1.06828125E2,2.8054728E-4,9.327204E1,1.4419746E-1,8.797359E1,1.3877749E1,3.8832217E-2,1.6787712E1,4.8202497E-1,1.1673601E0,6.070353E-1,-4.194855E0,5.842202E-1,-5.5302553E-2,2.1891118E2,-1.0630425E-1,2.8355527E-1,-9.121569E1,1.27188805E2,-1.001458E1,7.491287E-1,4.2692965E-1,2.0720099E-1,1.2532637E2,6.450537E-1,3.3852252E-1,7.057393E-1,1.6348217E-1,-1.5023175E-2,1.8377385E-1,-1.095055E-1,-1.0960322E-2,-7.683727E-2,1.3930307E-2,1.7287007E-1,2.9692334E-1,5.4412812E-2,3.6158445E-1,9.5747477E-1,-1.16673745E-1,-1.6634466E-1,3.6728065E-2,-8.74364E-2,1.1039681E-1,-5.7912737E-2,-1.3322715E-1,-4.8914935E-2,9.778679E-2,-5.7961803E-2,-1.4074725E-1,-1.13524385E-1,-9.439765E-2,2.7516156E-1,-1.8794212E-2,-1.2111678E-1,1.4680643E0,4.178576E-1,6.982715E-2,4.5039192E-1,8.900764E-1,1.6962013E-1,2.3450434E-1,-6.610031E-2,3.0175918E-1,7.876143E-2,-8.6452894E-2,2.2606207E-2,-7.2358154E-2,2.7312207E-1,-1.1149129E-1,-1.7685412E-1,1.3302386E-1,6.455108E-1,-3.9936535E-2,2.6881823E-1,5.9231716E-1,1.458387E0,1.4230034E0,8.639823E-1],"split_indices":[16,40,64,62,65,14,12,57,72,63,40,62,25,44,28,71,26,14,33,9,55,64,42,5,43,20,54,29,56,0,26,43,30,0,0,36,69,53,35,45,43,47,26,62,69,14,9,9,58,3,60,1,0,61,61,0,0,40,34,0,2,0,25,0,20,0,61,55,14,0,0,31,2,30,0,61,0,0,0,0,0,59,16,0,5,8,59,0,60,59,0,57,12,0,0,55,0,0,30,44,0,59,36,58,48,8,0,5,0,0,0,0,0,0,0,0,0,0,0,0,0,0,0,0,0,0,0,0,0,0,0,0,0,0,0,0,0,0,0,0,0,0,0,0,0,0,0,0,0,0,0,0,0,0,0,0,0,0,0,0,0,0,0],"split_type":[0,0,0,0,0,0,0,0,0,0,0,0,0,0,0,0,0,0,0,0,0,0,0,0,0,0,0,0,0,0,0,0,0,0,0,0,0,0,0,0,0,0,0,0,0,0,0,0,0,0,0,0,0,0,0,0,0,0,0,0,0,0,0,0,0,0,0,0,0,0,0,0,0,0,0,0,0,0,0,0,0,0,0,0,0,0,0,0,0,0,0,0,0,0,0,0,0,0,0,0,0,0,0,0,0,0,0,0,0,0,0,0,0,0,0,0,0,0,0,0,0,0,0,0,0,0,0,0,0,0,0,0,0,0,0,0,0,0,0,0,0,0,0,0,0,0,0,0,0,0,0,0,0,0,0,0,0,0,0,0,0,0,0],"sum_hessian":[7.208E3,5.714E3,1.494E3,2.117E3,3.597E3,1.209E3,2.85E2,1.08E2,2.009E3,2.86E2,3.311E3,8.23E2,3.86E2,2.3E2,5.5E1,8.1E1,2.7E1,1.922E3,8.7E1,2.27E2,5.9E1,6.87E2,2.624E3,7.25E2,9.8E1,4.7E1,3.39E2,2.3E1,2.07E2,1E1,4.5E1,4.3E1,3.8E1,1E1,1.7E1,8.2E1,1.84E3,3.1E1,5.6E1,1.56E2,7.1E1,3.2E1,2.7E1,4.02E2,2.85E2,2.459E3,1.65E2,6.4E1,6.61E2,3.8E1,6E1,3.7E1,1E1,4.8E1,2.91E2,1E1,1.3E1,1.72E2,3.5E1,1.4E1,3.1E1,1.4E1,2.9E1,1.5E1,2.3E1,1.1E1,7.1E1,1.218E3,6.22E2,1.8E1,1.3E1,2.5E1,3.1E1,1.38E2,1.8E1,6E1,1.1E1,1.8E1,1.4E1,1E1,1.7E1,6.2E1,3.4E2,1.2E1,2.73E2,2.161E3,2.98E2,1.9E1,1.46E2,4.5E1,1.9E1,6.37E2,2.4E1,2.3E1,1.5E1,4.8E1,1.2E1,1.5E1,2.2E1,3.8E1,1E1,6.3E1,2.28E2,4.1E1,1.31E2,2.3E1,1.2E1,2.1E1,1E1,1.8E1,1.1E1,1E1,1.3E1,5.3E1,1.8E1,7.56E2,4.62E2,4.84E2,1.38E2,1E1,1.5E1,1.7E1,1.4E1,2E1,1.18E2,2.6E1,3.4E1,2.2E1,4E1,2.42E2,9.8E1,3.9E1,2.34E2,1.05E3,1.111E3,2.87E2,1.1E1,5.5E1,9.1E1,1.1E1,3.4E1,6.13E2,2.4E1,1E1,1.4E1,3.8E1,1E1,1E1,1.2E1,2.4E1,1.4E1,5.3E1,1E1,1.89E2,3.9E1,2.4E1,1.7E1,1.19E2,1.2E1,1.1E1,1.2E1,1.1E1,1E1],"tree_param":{"num_deleted":"0","num_feature":"80","num_nodes":"163","size_leaf_vector":"1"}},{"base_weights":[2.9586812E-2,3.5930138E0,-1.568021E0,2.3772266E0,1.6286537E1,-1.6759232E0,1.22209835E1,1.2497873E0,6.279935E0,9.630165E0,3.2770393E1,-3.054795E-1,-2.358097E0,1.3800433E0,1.1171457E0,1.1355944E1,7.634162E-1,8.972929E0,-4.661902E-2,1.291639E0,7.0946326E0,4.3198837E1,2.1608776E1,-6.618076E-1,3.1149917E0,-2.5706615E0,-1.3880643E-1,-5.7917878E-2,2.0080222E-1,8.2595384E-1,7.9689717E0,5.095164E-1,8.535731E0,1.3705695E1,6.094523E0,5.0092716E0,-1.3799942E0,5.230244E0,7.6177645E-1,2.5112088E0,8.9535683E-1,1.1359435E0,4.9915314E-1,-1.2834828E-1,-2.2018025E0,7.1909966E0,3.493611E-1,-4.574465E-1,-2.7426174E0,-2.1220415E0,2.0136378E0,1.1955472E1,1.570405E-2,1.3647085E-1,3.5455933E0,-6.413574E-2,1.1600235E1,7.4898076E0,1.8444078E1,1.261201E1,4.200939E0,-6.666484E-2,5.876206E-1,-2.33919E0,2.7882888E0,-2.953205E-2,6.905084E0,5.382856E0,-3.656358E-1,-3.0327525E0,-1.1541725E0,9.812039E0,-4.421335E-2,-1.201728E0,4.0733588E-1,-2.7347689E0,9.180652E0,-1.5215405E0,-2.9966488E0,1.3514664E0,-2.851299E0,-8.432894E-1,3.8206954E0,1.11655004E-1,6.371529E-1,-2.6353424E-2,5.4024376E-2,1.1114779E-1,3.2411835E-1,2.5107655E-1,8.430011E-1,8.2068396E-1,7.975535E-2,8.548161E-1,3.1380737E-1,1.0575385E0,2.2350956E-1,4.2113227E-1,9.592262E-2,-4.908886E-2,-1.3737977E-1,-1.1984578E-1,3.3470735E-1,1.4858803E-1,-1.623236E-1,4.3189868E-1,1.1575092E-1,-5.842164E-2,7.8900206E-1,-1.3721552E-1,-7.10509E-3,-1.3005005E-1,2.9397966E-2,1.9430147E-2,-8.5540034E-2,1.0280975E-1,5.358756E-1,2.1398951E-1,-9.189173E-2,-1.4000762E-1,6.589124E-2,6.253864E-1,2.8680187E-2,-9.887738E-2,4.266356E-2,-1.3411906E-1,-9.328065E-2,1.4911465E-1,-7.592258E-2,-1.3102333E-1,1.6729707E-2,1.08306654E-1,-9.513022E-2,2.5356025E-1,1.9819483E-2],"categories":[],"categories_nodes":[],"categories_segments":[],"categories_sizes":[],"default_left":[0,0,0,0,0,0,0,0,0,0,0,0,0,0,0,0,0,0,0,0,0,0,0,0,0,0,0,0,0,0,0,0,0,0,0,0,0,0,0,0,0,0,0,0,0,0,0,0,0,0,0,0,0,0,0,0,0,0,0,0,0,0,0,0,0,0,0,0,0,0,0,0,0,0,0,0,0,0,0,0,0,0,0,0,0,0,0,0,0,0,0,0,0,0,0,0,0,0,0,0,0,0,0,0,0,0,0,0,0,0,0,0,0,0,0,0,0,0,0,0,0,0,0,0,0,0,0,0,0,0,0,0,0,0,0],"id":4,"left_children":[1,3,5,7,9,11,13,15,17,19,21,23,25,-1,27,29,31,33,35,-1,37,39,41,43,45,47,49,-1,-1,-1,51,53,55,57,59,61,63,65,-1,-1,-1,-1,-1,67,69,71,73,75,77,79,81,83,-1,85,87,-1,89,91,93,95,97,-1,-1,99,101,103,105,107,109,111,113,115,-1,117,-1,119,121,123,125,127,129,131,133,-1,-1,-1,-1,-1,-1,-1,-1,-1,-1,-1,-1,-1,-1,-1,-1,-1,-1,-1,-1,-1,-1,-1,-1,-1,-1,-1,-1,-1,-1,-1,-1,-1,-1,-1,-1,-1,-1,-1,-1,-1,-1,-1,-1,-1,-1,-1,-1,-1,-1,-1,-1],"loss_changes":[4.126824E4,3.458839E4,7.4636934E3,9.006152E3,2.118802E4,4.642159E3,9.547783E3,7.808772E3,7.822074E3,7.83583E3,5.6025664E3,2.0147871E3,1.5632578E3,0E0,2.7621255E2,2.1167148E3,2.9910693E3,4.3009785E3,9.357533E2,0E0,2.7359697E3,9.962395E3,1.432127E3,1.2289358E3,1.7537871E3,1.0975703E3,1.2461674E3,0E0,0E0,0E0,1.6526128E3,1.6657501E3,1.5097034E3,3.4237383E3,2.4374727E3,1.8882979E3,4.4577563E2,9.8818555E2,0E0,0E0,0E0,0E0,0E0,1.4560946E3,3.3071704E2,1.3810273E3,1.4426829E3,5.04788E3,8.624043E2,3.8899115E2,7.263855E2,1.2477842E3,0E0,1.2605198E3,5.4146814E2,0E0,1.7253721E3,3.8046616E3,1.8993066E3,4.203035E3,1.7727959E3,0E0,0E0,1.0371918E2,6.975532E2,4.3365195E2,1.2851599E3,4.5213677E3,6.135519E2,1.7110413E2,2.7693286E2,1.1956489E3,0E0,5.940946E2,0E0,6.2045825E2,2.369665E3,1.1825585E3,5.2954297E2,2.140367E2,1.7264795E2,3.0354187E2,7.1001416E2,0E0,0E0,0E0,0E0,0E0,0E0,0E0,0E0,0E0,0E0,0E0,0E0,0E0,0E0,0E0,0E0,0E0,0E0,0E0,0E0,0E0,0E0,0E0,0E0,0E0,0E0,0E0,0E0,0E0,0E0,0E0,0E0,0E0,0E0,0E0,0E0,0E0,0E0,0E0,0E0,0E0,0E0,0E0,0E0,0E0,0E0,0E0,0E0,0E0,0E0,0E0,0E0],"parents":[2147483647,0,0,1,1,2,2,3,3,4,4,5,5,6,6,7,7,8,8,9,9,10,10,11,11,12,12,14,14,15,15,16,16,17,17,18,18,20,20,21,21,22,22,23,23,24,24,25,25,26,26,30,30,31,31,32,32,33,33,34,34,35,35,36,36,37,37,43,43,44,44,45,45,46,46,47,47,48,48,49,49,50,50,51,51,53,53,54,54,56,56,57,57,58,58,59,59,60,60,63,63,64,64,65,65,66,66,67,67,68,68,69,69,70,70,71,71,73,73,75,75,76,76,77,77,78,78,79,79,80,80,81,81,82,82],"right_children":[2,4,6,8,10,12,14,16,18,20,22,24,26,-1,28,30,32,34,36,-1,38,40,42,44,46,48,50,-1,-1,-1,52,54,56,58,60,62,64,66,-1,-1,-1,-1,-1,68,70,72,74,76,78,80,82,84,-1,86,88,-1,90,92,94,96,98,-1,-1,100,102,104,106,108,110,112,114,116,-1,118,-1,120,122,124,126,128,130,132,134,-1,-1,-1,-1,-1,-1,-1,-1,-1,-1,-1,-1,-1,-1,-1,-1,-1,-1,-1,-1,-1,-1,-1,-1,-1,-1,-1,-1,-1,-1,-1,-1,-1,-1,-1,-1,-1,-1,-1,-1,-1,-1,-1,-1,-1,-1,-1,-1,-1,-1,-1,-1],"split_conditions":[3.8906848E-1,1.36E0,1.55E0,5.4E-1,6.607805E0,4.6102244E-1,-4.1283684E1,-1.41E0,1.07E0,7.16179E-2,2.6988575E-1,8.3E-1,8.3E-1,1.3800433E0,2.5661028E1,-1.14E0,6.7351854E-1,7.6E-1,2.1606218E1,1.291639E0,8.696428E0,2.5593277E1,3.7687012E2,5.988072E0,7.6E-1,-1.03E0,2.3909872E-2,-5.7917878E-2,2.0080222E-1,8.2595384E-1,-1.0177997E1,5.5E-1,1.6378607E0,7E-1,2.1632735E2,2.8253633E-1,2.0395819E2,7.2066385E-1,7.6177645E-1,2.5112088E0,8.9535683E-1,1.1359435E0,4.9915314E-1,-1.14E0,-3.5E-1,3.8421652E-1,4.016687E-1,-8.7E-1,-1.84E-1,-2.3390955E1,-1.1041427E1,-3.9210785E1,1.570405E-2,9.1E-2,-2.3680618E0,-6.413574E-2,-4.3535265E-1,3.1487563E-1,1.0020144E0,2.5138065E1,8.609033E-2,-6.666484E-2,5.876206E-1,3.016671E-1,2.296643E1,-8E-3,3.541875E-1,1.6993408E-1,-1.05E0,2.93E-1,1.46E-1,-1.3405508E-1,-4.421335E-2,-1.4444861E-1,4.0733588E-1,-7.8E-1,-1.773366E1,3.4296225E2,1E-2,-1.8442083E1,1.4284967E1,-1.94E-1,1.8012103E0,1.11655004E-1,6.371529E-1,-2.6353424E-2,5.4024376E-2,1.1114779E-1,3.2411835E-1,2.5107655E-1,8.430011E-1,8.2068396E-1,7.975535E-2,8.548161E-1,3.1380737E-1,1.0575385E0,2.2350956E-1,4.2113227E-1,9.592262E-2,-4.908886E-2,-1.3737977E-1,-1.1984578E-1,3.3470735E-1,1.4858803E-1,-1.623236E-1,4.3189868E-1,1.1575092E-1,-5.842164E-2,7.8900206E-1,-1.3721552E-1,-7.10509E-3,-1.3005005E-1,2.9397966E-2,1.9430147E-2,-8.5540034E-2,1.0280975E-1,5.358756E-1,2.1398951E-1,-9.189173E-2,-1.4000762E-1,6.589124E-2,6.253864E-1,2.8680187E-2,-9.887738E-2,4.266356E-2,-1.3411906E-1,-9.328065E-2,1.4911465E-1,-7.592258E-2,-1.3102333E-1,1.6729707E-2,1.08306654E-1,-9.513022E-2,2.5356025E-1,1.9819483E-2],"split_indices":[40,64,69,65,12,40,13,62,63,47,40,16,16,0,22,15,9,15,25,0,56,21,34,55,15,65,49,0,0,0,53,64,58,16,4,47,29,46,0,0,0,0,0,65,64,44,44,63,79,54,61,55,0,19,11,0,13,40,43,0,9,0,0,40,25,18,10,8,71,79,18,47,0,47,0,15,55,30,15,55,54,78,43,0,0,0,0,0,0,0,0,0,0,0,0,0,0,0,0,0,0,0,0,0,0,0,0,0,0,0,0,0,0,0,0,0,0,0,0,0,0,0,0,0,0,0,0,0,0,0,0,0,0,0,0],"split_type":[0,0,0,0,0,0,0,0,0,0,0,0,0,0,0,0,0,0,0,0,0,0,0,0,0,0,0,0,0,0,0,0,0,0,0,0,0,0,0,0,0,0,0,0,0,0,0,0,0,0,0,0,0,0,0,0,0,0,0,0,0,0,0,0,0,0,0,0,0,0,0,0,0,0,0,0,0,0,0,0,0,0,0,0,0,0,0,0,0,0,0,0,0,0,0,0,0,0,0,0,0,0,0,0,0,0,0,0,0,0,0,0,0,0,0,0,0,0,0,0,0,0,0,0,0,0,0,0,0,0,0,0,0,0,0],"sum_hessian":[7.247E3,2.243E3,5.004E3,2.048E3,1.95E2,4.966E3,3.8E1,1.59E3,4.58E2,1.4E2,5.5E1,1.651E3,3.315E3,1.2E1,2.6E1,7.2E1,1.518E3,3.21E2,1.37E2,1.3E1,1.27E2,2.7E1,2.8E1,1.496E3,1.55E2,3.025E3,2.9E2,1.6E1,1E1,1.8E1,5.4E1,1.471E3,4.7E1,1.2E2,2.01E2,2.8E1,1.09E2,1.11E2,1.6E1,1.3E1,1.4E1,1.5E1,1.3E1,1.112E3,3.84E2,6.2E1,9.3E1,2.28E2,2.797E3,1.51E2,1.39E2,3.5E1,1.9E1,1.311E3,1.6E2,1.1E1,3.6E1,5.3E1,6.7E1,4.4E1,1.57E2,1.7E1,1.1E1,8.9E1,2E1,2.7E1,8.4E1,4.5E1,1.067E3,2.13E2,1.71E2,4.7E1,1.5E1,8.1E1,1.2E1,1.85E2,4.3E1,4.83E2,2.314E3,2.6E1,1.25E2,5.4E1,8.5E1,1.1E1,2.4E1,7.92E2,5.19E2,1.38E2,2.2E1,2.4E1,1.2E1,1.5E1,3.8E1,5.2E1,1.5E1,1.4E1,3E1,3.4E1,1.23E2,4.5E1,4.4E1,1E1,1E1,1.4E1,1.3E1,4.2E1,4.2E1,3.1E1,1.4E1,6.1E1,1.006E3,2.02E2,1.1E1,6.4E1,1.07E2,1.6E1,3.1E1,1.1E1,7E1,1.58E2,2.7E1,2.4E1,1.9E1,3.54E2,1.29E2,1.524E3,7.9E2,1.5E1,1.1E1,1.11E2,1.4E1,1.6E1,3.8E1,4.8E1,3.7E1],"tree_param":{"num_deleted":"0","num_feature":"80","num_nodes":"135","size_leaf_vector":"1"}},{"base_weights":[-3.930469E-3,3.3443315E0,-1.5081005E0,1.3146513E0,1.0737777E1,-1.6549357E0,8.276028E0,1.0280552E1,9.375181E-1,8.662051E0,2.8557312E1,-3.1650907E-1,-2.286157E0,1.248912E0,9.269098E-1,1.823276E1,6.583041E0,2.6441854E-1,5.2993274E0,1.0892628E1,-3.560587E-1,1.4321316E1,3.9259438E1,-6.3481164E-1,2.6298804E0,-2.4818945E0,-1.3522156E-1,-1.653034E0,2.6606908E-1,9.3499935E-1,4.4453183E-1,4.696162E-1,3.3391597E0,7.6186066E-3,8.018972E0,1.6495167E1,4.073846E0,1.4939074E1,8.442117E0,-1.9662471E0,2.3757616E-1,3.2745922E-1,8.156132E-1,2.2867572E0,8.093992E-1,-1.4573018E-1,-2.0861537E0,9.8002917E-1,8.212024E0,-1.6888026E-2,-2.5945394E0,-2.230666E0,2.2979023E0,-2.6798856E0,1.708254E-2,2.4699509E-1,-4.925344E-2,-8.320873E-1,1.3144662E0,-4.151908E-2,1.1902503E1,6.614078E-2,1.2529881E0,2.0962358E0,9.853756E0,2.2809069E1,1.1568732E1,1.424006E1,5.6816416E0,7.1367756E-2,-2.698131E0,6.0254943E-1,-1.5873172E0,-2.29119E0,1.2521443E-1,4.0066457E0,-1.3104529E0,1.3705376E1,-8.459994E-2,5.311521E-1,-1.9085969E0,-1.6149883E0,-2.7823853E0,-2.9416504E0,8.534052E-1,4.739316E-2,4.9203935E0,-3.2407742E-2,-1.6502507E-1,2.964256E-1,-4.07399E-2,3.9777386E-1,4.112711E-2,8.131519E-1,2.9695675E-1,5.3594057E-3,2.9392508E-1,1.1939002E-1,6.466121E-1,6.025184E-1,1.4104558E0,3.8560298E-1,1.0171528E0,6.81272E-1,1.5768221E-1,1.5284847E-1,6.3655657E-1,-2.2638263E-2,-1.2945107E-1,7.3090315E-2,-3.8762365E-2,-7.39156E-2,1.6390431E-1,-1.0357621E-1,1.1026831E-2,3.350945E-1,5.0189033E-2,-1.2420237E-1,4.4308223E-2,8.4244186E-1,1.5487118E-1,-1.2755245E-1,5.9855808E-2,-1.3000361E-2,-9.8765396E-2,-1.2398482E-1,-8.7516665E-2,-1.3428614E-1,-2.7118348E-2,-8.803145E-2,2.436882E-1,1.5772142E-1,-4.603079E-2,3.2884336E-1,1.2723884E-2],"categories":[],"categories_nodes":[],"categories_segments":[],"categories_sizes":[],"default_left":[0,0,0,0,0,0,0,0,0,0,0,0,0,0,0,0,0,0,0,0,0,0,0,0,0,0,0,0,0,0,0,0,0,0,0,0,0,0,0,0,0,0,0,0,0,0,0,0,0,0,0,0,0,0,0,0,0,0,0,0,0,0,0,0,0,0,0,0,0,0,0,0,0,0,0,0,0,0,0,0,0,0,0,0,0,0,0,0,0,0,0,0,0,0,0,0,0,0,0,0,0,0,0,0,0,0,0,0,0,0,0,0,0,0,0,0,0,0,0,0,0,0,0,0,0,0,0,0,0,0,0,0,0,0,0],"id":5,"left_children":[1,3,5,7,9,11,13,15,17,19,21,23,25,-1,27,29,31,33,35,37,39,41,43,45,47,49,51,53,-1,-1,-1,-1,55,57,59,61,63,65,67,69,-1,-1,-1,-1,-1,71,73,75,77,79,81,83,85,87,-1,-1,-1,89,91,-1,93,-1,-1,95,97,99,101,103,105,-1,107,109,111,113,-1,115,117,119,-1,-1,121,123,125,127,129,131,133,-1,-1,-1,-1,-1,-1,-1,-1,-1,-1,-1,-1,-1,-1,-1,-1,-1,-1,-1,-1,-1,-1,-1,-1,-1,-1,-1,-1,-1,-1,-1,-1,-1,-1,-1,-1,-1,-1,-1,-1,-1,-1,-1,-1,-1,-1,-1,-1],"loss_changes":[3.64422E4,3.3642035E4,7.184635E3,5.9423584E3,1.7617516E4,4.155251E3,1.2385839E4,1.9651792E3,4.961807E3,8.735676E3,7.05916E3,1.4809802E3,1.4064746E3,0E0,8.500871E2,5.405825E2,7.888899E2,2.9172021E3,3.0306733E3,3.3235898E3,8.8917346E2,6.834341E2,8.343602E3,1.0106222E3,1.4079043E3,8.500781E2,1.432258E3,8.695334E1,0E0,0E0,0E0,0E0,4.1964764E2,1.5593854E3,1.6656213E3,4.746461E3,2.319978E3,3.1855898E3,3.4219258E3,1.9658487E2,0E0,0E0,0E0,0E0,0E0,1.1521017E3,3.8989087E2,8.373072E2,2.0125754E3,3.4056707E3,5.337207E2,3.3393805E2,7.655439E2,6.792993E1,0E0,0E0,0E0,1.3093994E3,1.3710685E3,0E0,1.0902329E3,0E0,0E0,1.5775066E3,2.187524E3,3.1328906E3,2.2659297E3,1.9076328E3,2.7960005E3,0E0,6.379477E1,1.3464066E3,5.34673E2,2.5911865E2,0E0,6.098025E2,3.010728E2,1.5644697E3,0E0,0E0,5.18982E2,5.166373E2,4.4698242E2,1.0978467E2,4.7448068E2,3.342737E2,8.9959985E2,0E0,0E0,0E0,0E0,0E0,0E0,0E0,0E0,0E0,0E0,0E0,0E0,0E0,0E0,0E0,0E0,0E0,0E0,0E0,0E0,0E0,0E0,0E0,0E0,0E0,0E0,0E0,0E0,0E0,0E0,0E0,0E0,0E0,0E0,0E0,0E0,0E0,0E0,0E0,0E0,0E0,0E0,0E0,0E0,0E0,0E0,0E0,0E0],"parents":[2147483647,0,0,1,1,2,2,3,3,4,4,5,5,6,6,7,7,8,8,9,9,10,10,11,11,12,12,14,14,15,15,16,16,17,17,18,18,19,19,20,20,21,21,22,22,23,23,24,24,25,25,26,26,27,27,32,32,33,33,34,34,35,35,36,36,37,37,38,38,39,39,45,45,46,46,47,47,48,48,49,49,50,50,51,51,52,52,53,53,57,57,58,58,60,60,63,63,64,64,65,65,66,66,67,67,68,68,70,70,71,71,72,72,73,73,75,75,76,76,77,77,80,80,81,81,82,82,83,83,84,84,85,85,86,86],"right_children":[2,4,6,8,10,12,14,16,18,20,22,24,26,-1,28,30,32,34,36,38,40,42,44,46,48,50,52,54,-1,-1,-1,-1,56,58,60,62,64,66,68,70,-1,-1,-1,-1,-1,72,74,76,78,80,82,84,86,88,-1,-1,-1,90,92,-1,94,-1,-1,96,98,100,102,104,106,-1,108,110,112,114,-1,116,118,120,-1,-1,122,124,126,128,130,132,134,-1,-1,-1,-1,-1,-1,-1,-1,-1,-1,-1,-1,-1,-1,-1,-1,-1,-1,-1,-1,-1,-1,-1,-1,-1,-1,-1,-1,-1,-1,-1,-1,-1,-1,-1,-1,-1,-1,-1,-1,-1,-1,-1,-1,-1,-1,-1,-1],"split_conditions":[3.9007068E-1,6.3E-1,2.57E0,-1.41E0,8.6683035E0,4.595017E-1,-4.1283684E1,2.6775034E2,6.3E-1,3.0458643E1,1.26E0,7.3E-1,8.3E-1,1.248912E0,5.6816125E-1,2.892362E2,3.347131E-1,6.7351854E-1,1.0470549E2,1.1057779E2,1.5374893E2,2.2697948E1,2.5792652E1,7.6955853E0,2.3507853E1,-1.42E0,2.1764174E-2,5.508003E-1,2.6606908E-1,9.3499935E-1,4.4453183E-1,4.696162E-1,1.1981037E0,9.1E-2,1.1623614E2,2.3232086E-1,2.6350215E-1,2.8406246E1,1.1E-2,5.9943503E-1,2.3757616E-1,3.2745922E-1,8.156132E-1,2.2867572E0,8.093992E-1,4.633221E1,9.901471E-1,3.3E-1,2.9940178E1,1.0986943E2,-1.84E-1,6.3849045E1,8.078538E0,2.556604E1,1.708254E-2,2.4699509E-1,-4.925344E-2,1.9499048E2,2.1826682E2,-4.151908E-2,1.8511486E1,6.614078E-2,1.2529881E0,2.9728027E1,1.2523288E2,-9.58102E-2,6.964114E-1,3.9917833E-1,4.5574597E2,7.1367756E-2,2.1953617E1,5.1E-2,1.8859192E0,4.5281184E-1,1.2521443E-1,2.5614972E2,1.1896651E2,7.2E-1,-8.459994E-2,5.311521E-1,1.2799443E-1,-1.1881245E0,1E-2,3.5843636E1,-9.149903E-2,2.273835E1,1.5812983E-1,-3.2407742E-2,-1.6502507E-1,2.964256E-1,-4.07399E-2,3.9777386E-1,4.112711E-2,8.131519E-1,2.9695675E-1,5.3594057E-3,2.9392508E-1,1.1939002E-1,6.466121E-1,6.025184E-1,1.4104558E0,3.8560298E-1,1.0171528E0,6.81272E-1,1.5768221E-1,1.5284847E-1,6.3655657E-1,-2.2638263E-2,-1.2945107E-1,7.3090315E-2,-3.8762365E-2,-7.39156E-2,1.6390431E-1,-1.0357621E-1,1.1026831E-2,3.350945E-1,5.0189033E-2,-1.2420237E-1,4.4308223E-2,8.4244186E-1,1.5487118E-1,-1.2755245E-1,5.9855808E-2,-1.3000361E-2,-9.8765396E-2,-1.2398482E-1,-8.7516665E-2,-1.3428614E-1,-2.7118348E-2,-8.803145E-2,2.436882E-1,1.5772142E-1,-4.603079E-2,3.2884336E-1,1.2723884E-2],"split_indices":[40,66,66,62,12,40,13,3,15,26,16,66,16,0,6,31,40,9,5,37,29,1,0,55,24,62,49,6,0,0,0,0,7,19,37,45,47,2,19,52,0,0,0,0,0,60,52,73,26,36,79,61,61,0,0,0,0,4,33,0,11,0,0,2,37,44,9,50,34,0,25,18,41,9,0,33,5,17,0,0,8,57,15,13,8,25,45,0,0,0,0,0,0,0,0,0,0,0,0,0,0,0,0,0,0,0,0,0,0,0,0,0,0,0,0,0,0,0,0,0,0,0,0,0,0,0,0,0,0,0,0,0,0,0,0],"split_type":[0,0,0,0,0,0,0,0,0,0,0,0,0,0,0,0,0,0,0,0,0,0,0,0,0,0,0,0,0,0,0,0,0,0,0,0,0,0,0,0,0,0,0,0,0,0,0,0,0,0,0,0,0,0,0,0,0,0,0,0,0,0,0,0,0,0,0,0,0,0,0,0,0,0,0,0,0,0,0,0,0,0,0,0,0,0,0,0,0,0,0,0,0,0,0,0,0,0,0,0,0,0,0,0,0,0,0,0,0,0,0,0,0,0,0,0,0,0,0,0,0,0,0,0,0,0,0,0,0,0,0,0,0,0,0],"sum_hessian":[7.234E3,2.242E3,4.992E3,1.76E3,4.82E2,4.919E3,7.3E1,7E1,1.69E3,4.33E2,4.9E1,1.577E3,3.342E3,1.7E1,5.6E1,2.1E1,4.9E1,1.465E3,2.25E2,3.47E2,8.6E1,2.2E1,2.7E1,1.424E3,1.53E2,3.063E3,2.79E2,3.9E1,1.7E1,1.1E1,1E1,1.8E1,3.1E1,1.419E3,4.6E1,2.1E1,2.04E2,1.29E2,2.18E2,6.9E1,1.7E1,1.2E1,1E1,1.3E1,1.4E1,1.066E3,3.58E2,1.19E2,3.4E1,1.34E2,2.929E3,1.5E2,1.29E2,2.6E1,1.3E1,1.9E1,1.2E1,8.64E2,5.55E2,1.4E1,3.2E1,1.1E1,1E1,1.53E2,5.1E1,3.7E1,9.2E1,6.9E1,1.49E2,1.1E1,5.8E1,7.02E2,3.64E2,3.45E2,1.3E1,5.1E1,6.8E1,2.2E1,1.2E1,1.6E1,1.18E2,4.73E2,2.456E3,1.22E2,2.8E1,7E1,5.9E1,1.2E1,1.4E1,1.8E1,8.46E2,1.7E1,5.38E2,1E1,2.2E1,1.12E2,4.1E1,2.5E1,2.6E1,2.4E1,1.3E1,8.2E1,1E1,5.4E1,1.5E1,1.27E2,2.2E1,1.2E1,4.6E1,3.95E2,3.07E2,3.49E2,1.5E1,3.1E2,3.5E1,1.9E1,3.2E1,3.9E1,2.9E1,1.2E1,1E1,8.6E1,3.2E1,1.88E2,2.85E2,1.621E3,8.35E2,1.03E2,1.9E1,1.8E1,1E1,1.6E1,5.4E1,3.4E1,2.5E1],"tree_param":{"num_deleted":"0","num_feature":"80","num_nodes":"135","size_leaf_vector":"1"}},{"base_weights":[-2.2891216E-2,2.4598234E0,-1.7759616E0,1.8092173E0,2.0433428E1,-1.9054226E0,6.935441E0,6.208317E-1,5.481578E0,2.6898312E1,2.7910132E0,-2.163112E0,-2.4549706E-1,1.182874E0,1.508731E0,7.573932E0,2.7843592E-1,1.5106267E1,4.3086014E0,2.2164654E1,1.7391534E0,3.5654438E-1,-5.630096E-2,3.0058616E-1,-2.2846594E0,1.4283017E0,-2.2832813E0,-1.465583E0,3.036871E-1,4.6815376E0,1.6307531E1,-4.5095143E-1,1.8944267E0,2.0451809E1,8.607821E0,1.7349499E1,3.5800476E0,2.9400213E1,1.4234798E1,-1.7262263E0,1.2731197E1,-1.2722738E0,-2.5009544E0,6.9891775E-1,6.2972383E0,-4.9575868E-1,-2.9234202E0,-2.5367377E0,2.0915315E-2,6.511166E0,-7.080942E-2,9.0921074E-1,2.4810499E-1,4.727276E0,-7.4941045E-1,1.1821313E0,5.90599E0,1.2568206E0,1.3001572E1,5.4221237E-1,5.599E0,9.113023E-1,4.670837E-1,7.5155747E-1,5.857329E0,1.2936662E0,8.5717595E-1,3.171136E-1,1.6881983E1,-2.5011106E0,1.2466015E0,8.280114E-1,6.110388E-2,-3.280371E0,-6.446759E-1,-3.2617772E-1,-2.6081934E0,5.6724186E0,-6.728633E-2,1.0451351E1,-5.2095767E-2,-2.3724124E0,2.1132612E-1,-2.3414252E-2,-3.1092114E0,-3.6631685E-2,-1.485615E-1,3.688314E-1,5.3560242E-2,7.730582E-1,9.276109E-2,-1.0721853E-2,-8.625883E-2,1.811923E-2,1.2968907E-1,1.0359825E-1,8.595677E-1,2.3832951E-1,7.4808496E-1,1.0979238E-2,3.7622327E-1,1.0230497E-1,-8.031148E-2,8.0080116E-1,1.9985649E-1,4.302839E-1,8.641711E-1,-2.3371564E-2,-1.2199049E-1,-5.364862E-2,1.1886843E-1,-4.1940726E-2,-1.3864926E-1,-9.176441E-2,1.3000184E-2,-1.0225396E-1,2.7425835E-1,-7.411313E-2,-1.17346264E-1,4.8073414E-1,2.392983E-2,2.0010287E-1,-2.6842726E-2,8.496999E-2,6.23082E-1,-4.1381434E-2,-1.1567222E-1,-1.3342859E-1,-4.2568304E-2],"categories":[],"categories_nodes":[],"categories_segments":[],"categories_sizes":[],"default_left":[0,0,0,0,0,0,0,0,0,0,0,0,0,0,0,0,0,0,0,0,0,0,0,0,0,0,0,0,0,0,0,0,0,0,0,0,0,0,0,0,0,0,0,0,0,0,0,0,0,0,0,0,0,0,0,0,0,0,0,0,0,0,0,0,0,0,0,0,0,0,0,0,0,0,0,0,0,0,0,0,0,0,0,0,0,0,0,0,0,0,0,0,0,0,0,0,0,0,0,0,0,0,0,0,0,0,0,0,0,0,0,0,0,0,0,0,0,0,0,0,0,0,0,0,0,0,0,0,0],"id":6,"left_children":[1,3,5,7,9,11,13,15,17,19,21,23,25,-1,27,29,31,33,35,37,-1,-1,-1,39,41,43,45,47,-1,49,51,53,55,57,59,61,63,65,67,69,71,73,75,77,79,81,83,85,-1,87,-1,-1,-1,89,91,93,95,-1,97,-1,99,-1,-1,101,103,-1,-1,-1,105,107,109,-1,-1,111,113,115,117,119,121,123,-1,125,-1,-1,127,-1,-1,-1,-1,-1,-1,-1,-1,-1,-1,-1,-1,-1,-1,-1,-1,-1,-1,-1,-1,-1,-1,-1,-1,-1,-1,-1,-1,-1,-1,-1,-1,-1,-1,-1,-1,-1,-1,-1,-1,-1,-1,-1,-1],"loss_changes":[3.1327871E4,3.479418E4,4.76949E3,1.2546417E4,1.1777734E4,1.7774375E3,7.5309473E3,5.1715894E3,7.868842E3,4.977664E3,7.5424255E2,1.0788828E3,1.9132686E3,0E0,9.307623E2,2.4971602E3,2.4445403E3,2.4626328E3,5.9014717E3,3.085582E3,0E0,0E0,0E0,4.3058345E3,7.470801E2,1.0876958E3,2.8720837E2,7.617207E1,0E0,9.316936E2,1.464103E3,2.2108418E3,1.8344543E3,2.9169727E3,4.5359595E2,7.471221E2,3.8328584E3,3.390625E1,3.8473047E2,3.4183484E2,2.0876606E3,7.6066907E2,6.57291E2,1.0266895E3,1.276125E3,7.4625085E2,7.817847E1,3.9079712E1,0E0,8.3187573E2,0E0,0E0,0E0,2.6898228E3,9.118592E2,8.1992596E2,4.942246E3,0E0,9.223345E2,0E0,4.7721307E2,0E0,0E0,1.3269152E3,3.9741523E3,0E0,0E0,0E0,3.71562E2,1.184646E2,1.4148502E2,0E0,0E0,5.1877808E1,7.378479E2,2.1479827E3,6.4231445E2,1.1417341E3,7.1380084E2,1.062801E3,0E0,3.1758514E1,0E0,0E0,7.178406E1,0E0,0E0,0E0,0E0,0E0,0E0,0E0,0E0,0E0,0E0,0E0,0E0,0E0,0E0,0E0,0E0,0E0,0E0,0E0,0E0,0E0,0E0,0E0,0E0,0E0,0E0,0E0,0E0,0E0,0E0,0E0,0E0,0E0,0E0,0E0,0E0,0E0,0E0,0E0,0E0,0E0,0E0,0E0,0E0],"parents":[2147483647,0,0,1,1,2,2,3,3,4,4,5,5,6,6,7,7,8,8,9,9,10,10,11,11,12,12,14,14,15,15,16,16,17,17,18,18,19,19,23,23,24,24,25,25,26,26,27,27,29,29,30,30,31,31,32,32,33,33,34,34,35,35,36,36,37,37,38,38,39,39,40,40,41,41,42,42,43,43,44,44,45,45,46,46,47,47,49,49,53,53,54,54,55,55,56,56,58,58,60,60,63,63,64,64,68,68,69,69,70,70,73,73,74,74,75,75,76,76,77,77,78,78,79,79,81,81,84,84],"right_children":[2,4,6,8,10,12,14,16,18,20,22,24,26,-1,28,30,32,34,36,38,-1,-1,-1,40,42,44,46,48,-1,50,52,54,56,58,60,62,64,66,68,70,72,74,76,78,80,82,84,86,-1,88,-1,-1,-1,90,92,94,96,-1,98,-1,100,-1,-1,102,104,-1,-1,-1,106,108,110,-1,-1,112,114,116,118,120,122,124,-1,126,-1,-1,128,-1,-1,-1,-1,-1,-1,-1,-1,-1,-1,-1,-1,-1,-1,-1,-1,-1,-1,-1,-1,-1,-1,-1,-1,-1,-1,-1,-1,-1,-1,-1,-1,-1,-1,-1,-1,-1,-1,-1,-1,-1,-1,-1,-1],"split_conditions":[4.1892713E-1,2.21E0,1.4E0,4.7E-1,1.0244957E0,7.3E-1,-4.1283684E1,-1.41E0,-3.45E-1,9.901471E-1,1.1277959E2,-1.42E0,5E-1,1.182874E0,5.633263E-1,-9.2E-2,-3E-2,-6.155946E0,-2.89E-1,3.5085907E2,1.7391534E0,3.5654438E-1,-5.630096E-2,-9.2E-2,-1.82E-1,3.0009888E1,-2.105562E1,1.9370484E0,3.036871E-1,3.544467E0,7.862153E0,-1.41E0,3.047482E1,2.4554184E1,-2.86215E-1,3.013063E2,-5.7479316E-1,8.740637E-1,7.581132E0,-1.01E0,1.19206924E2,6.2576354E-1,-1.42E0,-3.642359E1,2.6141624E1,2.616435E2,2.8672123E1,2.5528976E1,2.0915315E-2,4.033254E0,-7.080942E-2,9.0921074E-1,2.4810499E-1,1.0374363E2,3.2349973E0,6.1386023E0,1.2321955E2,1.2568206E0,2.3229263E1,5.4221237E-1,2.466842E1,9.113023E-1,4.670837E-1,3.0195728E1,2.3734505E1,1.2936662E0,8.5717595E-1,3.171136E-1,3.485831E-1,2.514234E1,1.3487808E0,8.280114E-1,6.110388E-2,4.2918426E-1,2.9070934E1,-1.43E0,4.7967622E-1,2.5344448E1,-9.4208E0,3.2768664E0,-5.2095767E-2,-8.249659E-2,2.1132612E-1,-2.3414252E-2,6.311142E-1,-3.6631685E-2,-1.485615E-1,3.688314E-1,5.3560242E-2,7.730582E-1,9.276109E-2,-1.0721853E-2,-8.625883E-2,1.811923E-2,1.2968907E-1,1.0359825E-1,8.595677E-1,2.3832951E-1,7.4808496E-1,1.0979238E-2,3.7622327E-1,1.0230497E-1,-8.031148E-2,8.0080116E-1,1.9985649E-1,4.302839E-1,8.641711E-1,-2.3371564E-2,-1.2199049E-1,-5.364862E-2,1.1886843E-1,-4.1940726E-2,-1.3864926E-1,-9.176441E-2,1.3000184E-2,-1.0225396E-1,2.7425835E-1,-7.411313E-2,-1.17346264E-1,4.8073414E-1,2.392983E-2,2.0010287E-1,-2.6842726E-2,8.496999E-2,6.23082E-1,-4.1381434E-2,-1.1567222E-1,-1.3342859E-1,-4.2568304E-2],"split_indices":[40,72,69,71,7,16,13,62,76,10,5,62,73,0,6,18,72,12,78,32,0,0,0,18,79,28,55,58,0,57,58,14,28,0,50,30,57,10,56,14,35,41,14,55,21,33,26,0,0,53,0,0,0,36,12,57,5,0,24,0,0,0,0,26,0,0,0,0,42,21,43,0,0,40,28,14,40,0,56,60,0,48,0,0,47,0,0,0,0,0,0,0,0,0,0,0,0,0,0,0,0,0,0,0,0,0,0,0,0,0,0,0,0,0,0,0,0,0,0,0,0,0,0,0,0,0,0,0,0],"split_type":[0,0,0,0,0,0,0,0,0,0,0,0,0,0,0,0,0,0,0,0,0,0,0,0,0,0,0,0,0,0,0,0,0,0,0,0,0,0,0,0,0,0,0,0,0,0,0,0,0,0,0,0,0,0,0,0,0,0,0,0,0,0,0,0,0,0,0,0,0,0,0,0,0,0,0,0,0,0,0,0,0,0,0,0,0,0,0,0,0,0,0,0,0,0,0,0,0,0,0,0,0,0,0,0,0,0,0,0,0,0,0,0,0,0,0,0,0,0,0,0,0,0,0,0,0,0,0,0,0],"sum_hessian":[7.196E3,2.978E3,4.218E3,2.875E3,1.03E2,4.157E3,6.1E1,2.173E3,7.02E2,7.5E1,2.8E1,3.598E3,5.59E2,1.1E1,5E1,1.01E2,2.072E3,7.5E1,6.27E2,6E1,1.5E1,1.1E1,1.7E1,1.69E2,3.429E3,3.07E2,2.52E2,3.4E1,1.6E1,7.7E1,2.4E1,1.428E3,6.44E2,4E1,3.5E1,3.2E1,5.95E2,3E1,3E1,1.46E2,2.3E1,6.05E2,2.824E3,2.68E2,3.9E1,6.7E1,1.85E2,2.2E1,1.2E1,6E1,1.7E1,1.4E1,1E1,7.7E1,1.351E3,5.48E2,9.6E1,1.5E1,2.5E1,1.2E1,2.3E1,1.5E1,1.7E1,2.66E2,3.29E2,2E1,1E1,1E1,2E1,1.16E2,3E1,1.3E1,1E1,1.43E2,4.62E2,1.33E2,2.691E3,3.5E1,2.33E2,2.5E1,1.4E1,5.1E1,1.6E1,1.4E1,1.71E2,1E1,1.2E1,3.9E1,2.1E1,1E1,6.7E1,1.006E3,3.45E2,4.05E2,1.43E2,8E1,1.6E1,1.2E1,1.3E1,1E1,1.3E1,1.61E2,1.05E2,1.8E1,3.11E2,1E1,1E1,2.6E1,9E1,1.2E1,1.8E1,1.1E1,1.32E2,1.71E2,2.91E2,1.02E2,3.1E1,7.93E2,1.898E3,1.5E1,2E1,2.4E1,2.09E2,1E1,1.5E1,1.5E1,3.6E1,1.54E2,1.7E1],"tree_param":{"num_deleted":"0","num_feature":"80","num_nodes":"129","size_leaf_vector":"1"}},{"base_weights":[-2.0158751E-2,-1.0593667E0,3.9942248E0,6.94852E-1,-2.105932E0,3.4828136E0,2.8780552E1,7.5038705E0,3.4159833E-1,-1.4670432E0,-2.5414379E0,5.175804E0,-7.350611E-1,1.5801296E0,2.778959E-1,9.694932E0,-8.1118166E-1,-2.404E-1,3.5885434E0,3.4826257E0,-1.6812817E0,-2.1869738E0,-3.1944156E0,3.9614403E0,1.5431859E1,-2.8040025E0,8.488975E-1,1.58599E0,1.2911238E1,-1.1722612E-1,5.3908028E-2,9.00973E-1,-1.070599E0,6.9355564E0,1.0150751E0,7.488685E-1,-2.1355169E-1,-1.7534041E0,2.7392277E-1,4.3765163E0,-2.2859662E0,-2.7083375E0,-3.6026978E0,7.0772634E0,1.2951072E0,2.4863453E1,2.2655191E0,-0E0,-3.0198479E0,2.2963226E0,-2.035656E0,1.4533526E-1,-2.2009168E-2,7.1525164E0,1.7413269E1,5.505756E-1,1.0781504E1,-1.8882304E-1,-1.7373927E0,4.3162923E0,1.20813465E1,3.0368114E-1,3.4837398E-1,-2.3936682E0,1.5185523E-1,-1.8497529E0,3.3753886E0,-8.3212135E-4,3.3755973E-1,-3.3972168E0,-2.0152786E0,-3.5413578E0,-2.0554235E0,-5.8669392E-2,-3.6582685E0,1.1915772E1,4.2514973E0,3.5667782E0,-1.4254142E0,2.975904E-1,2.8348183E1,-2.6450818E0,6.705615E0,-3.2069607E0,-1.5399623E0,1.303277E0,6.353723E0,-3.5995343E0,-3.7756354E-1,5.8815174E-2,4.5435166E-1,8.7109804E-1,4.345858E-1,3.4127452E-3,1.817576E-1,7.7740633E-1,1.06692635E-1,5.6913015E-2,-5.016478E-2,-8.6786635E-2,6.114081E-3,5.651003E-1,1.0661784E-1,7.0376295E-1,2.8173634E-1,2.4320798E-1,-1.6252572E-2,-4.509435E-2,-1.4696208E-1,-7.6492265E-2,1.11037344E-1,5.1357585E-1,-1.3175999E-1,-8.240329E-2,-1.4512615E-1,-1.11440845E-1,-5.629052E-2,-8.711405E-2,-1.4615291E-1,-1.08458884E-1,-1.5526764E-3,-1.1078905E-1,-1.4995427E-1,3.7289312E-1,6.980569E-1,9.4652504E-1,1.3137335E-1,5.8674663E-2,3.2795548E-1,4.081868E-2,-9.864E-2,1.8505294E0,8.606582E-1,-6.874573E-2,-1.40121E-1,4.6163526E-1,5.575123E-2,-6.991325E-2,-1.3717742E-1,-0E0,-1.18573576E-1,1.19707875E-1,-4.644411E-2,9.1327175E-2,4.471512E-1,-1.6707484E-1,-8.231675E-2,5.1377006E-2,-4.246391E-2],"categories":[],"categories_nodes":[],"categories_segments":[],"categories_sizes":[],"default_left":[0,0,0,0,0,0,0,0,0,0,0,0,0,0,0,0,0,0,0,0,0,0,0,0,0,0,0,0,0,0,0,0,0,0,0,0,0,0,0,0,0,0,0,0,0,0,0,0,0,0,0,0,0,0,0,0,0,0,0,0,0,0,0,0,0,0,0,0,0,0,0,0,0,0,0,0,0,0,0,0,0,0,0,0,0,0,0,0,0,0,0,0,0,0,0,0,0,0,0,0,0,0,0,0,0,0,0,0,0,0,0,0,0,0,0,0,0,0,0,0,0,0,0,0,0,0,0,0,0,0,0,0,0,0,0,0,0,0,0,0,0,0,0,0,0,0,0,0,0],"id":7,"left_children":[1,3,5,7,9,11,13,15,17,19,21,23,25,-1,-1,27,29,31,33,35,37,39,41,43,45,47,49,51,53,-1,-1,55,57,59,61,-1,63,65,-1,67,69,71,73,75,77,79,81,-1,83,85,87,-1,-1,89,91,93,95,97,99,101,103,105,-1,107,-1,109,111,-1,-1,113,115,117,119,-1,121,123,125,127,129,-1,131,133,135,137,139,141,143,145,147,-1,-1,-1,-1,-1,-1,-1,-1,-1,-1,-1,-1,-1,-1,-1,-1,-1,-1,-1,-1,-1,-1,-1,-1,-1,-1,-1,-1,-1,-1,-1,-1,-1,-1,-1,-1,-1,-1,-1,-1,-1,-1,-1,-1,-1,-1,-1,-1,-1,-1,-1,-1,-1,-1,-1,-1,-1,-1,-1,-1],"loss_changes":[3.0206832E4,1.0561803E4,1.8769922E4,5.1669023E3,9.979121E2,1.0430059E4,6.6698633E3,1.9401914E3,3.8660542E3,1.5564985E3,4.8750098E2,1.2913723E4,1.3757457E3,0E0,0E0,2.1664614E3,1.0857822E2,1.6449558E3,2.6696875E3,3.4293804E3,8.711763E2,9.128218E2,1.3810498E2,7.7399785E3,1.3593838E4,1.1017798E2,9.98064E2,1.1116939E2,1.4289688E3,0E0,0E0,2.522142E3,5.900829E2,1.7649204E3,9.6056085E2,0E0,4.4384326E2,6.9344336E2,0E0,3.7433353E2,4.0447314E2,1.803335E2,4.1760254E1,5.8260117E3,3.1199365E3,3.6778477E3,1.0418757E3,0E0,4.0867188E1,6.306249E2,2.0504138E2,0E0,0E0,6.442361E2,6.989248E2,1.3082133E3,1.6875681E3,7.421304E2,4.6103882E2,1.4339198E3,1.1176733E3,6.688632E2,0E0,4.797888E1,0E0,3.635669E2,1.6720903E3,0E0,0E0,7.038696E1,5.1097803E2,1.1966553E1,2.5658362E2,0E0,1.6529297E1,2.1088164E3,5.0770063E3,2.6520613E3,5.831625E2,0E0,5.526875E3,1.1089737E1,6.1841614E2,3.9291504E1,4.6017803E1,5.370715E2,5.7717554E2,2.606665E1,4.6355415E1,0E0,0E0,0E0,0E0,0E0,0E0,0E0,0E0,0E0,0E0,0E0,0E0,0E0,0E0,0E0,0E0,0E0,0E0,0E0,0E0,0E0,0E0,0E0,0E0,0E0,0E0,0E0,0E0,0E0,0E0,0E0,0E0,0E0,0E0,0E0,0E0,0E0,0E0,0E0,0E0,0E0,0E0,0E0,0E0,0E0,0E0,0E0,0E0,0E0,0E0,0E0,0E0,0E0,0E0,0E0,0E0,0E0,0E0,0E0,0E0],"parents":[2147483647,0,0,1,1,2,2,3,3,4,4,5,5,6,6,7,7,8,8,9,9,10,10,11,11,12,12,15,15,16,16,17,17,18,18,19,19,20,20,21,21,22,22,23,23,24,24,25,25,26,26,27,27,28,28,31,31,32,32,33,33,34,34,36,36,37,37,39,39,40,40,41,41,42,42,43,43,44,44,45,45,46,46,48,48,49,49,50,50,53,53,54,54,55,55,56,56,57,57,58,58,59,59,60,60,61,61,63,63,65,65,66,66,69,69,70,70,71,71,72,72,74,74,75,75,76,76,77,77,78,78,80,80,81,81,82,82,83,83,84,84,85,85,86,86,87,87,88,88],"right_children":[2,4,6,8,10,12,14,16,18,20,22,24,26,-1,-1,28,30,32,34,36,38,40,42,44,46,48,50,52,54,-1,-1,56,58,60,62,-1,64,66,-1,68,70,72,74,76,78,80,82,-1,84,86,88,-1,-1,90,92,94,96,98,100,102,104,106,-1,108,-1,110,112,-1,-1,114,116,118,120,-1,122,124,126,128,130,-1,132,134,136,138,140,142,144,146,148,-1,-1,-1,-1,-1,-1,-1,-1,-1,-1,-1,-1,-1,-1,-1,-1,-1,-1,-1,-1,-1,-1,-1,-1,-1,-1,-1,-1,-1,-1,-1,-1,-1,-1,-1,-1,-1,-1,-1,-1,-1,-1,-1,-1,-1,-1,-1,-1,-1,-1,-1,-1,-1,-1,-1,-1,-1,-1,-1,-1],"split_conditions":[7E-1,4.2064747E-1,2.714406E0,-1.41E0,4.9825191E-1,4.825589E-1,2.8227933E2,8.308113E0,5.4E-1,-1.43E0,1.55E-1,5.22E-1,2.3087183E2,1.5801296E0,2.778959E-1,-1.53E0,2.7403592E2,-1.1E-2,-2.0277454E1,1.9988498E2,2.36741E0,-1.14E0,-9E-2,5.6E-1,-4.1283684E1,4.8977172E-1,1.18639915E2,3.4501675E2,3.1554758E2,-1.1722612E-1,5.3908028E-2,-5.6E-2,-1.814351E1,1.2034225E2,3.059493E1,7.488685E-1,1.3994453E0,5.48E-1,2.7392277E-1,5.4619753E-1,-6.9E-1,-9.3E-1,-4.1468502E1,7.6E-1,3.0029509E1,2.8387058E1,1.71E0,-0E0,3.6788025E-1,2.9807674E1,2.9063946E1,1.4533526E-1,-2.2009168E-2,1.9849701E-1,-4.194855E0,1.8E-1,1.6375063E-1,-1.0534955E-1,2.2E-1,2.1826682E2,3.1487563E-1,-5.6128222E-2,3.4837398E-1,4.108438E-1,1.5185523E-1,2.21427E0,-4.3535265E-1,-8.3212135E-4,3.3755973E-1,-2.68E-1,4.4703353E-3,2.1049525E2,2.2872237E2,-5.8669392E-2,1.9499048E2,2.3974872E-1,1.0283365E2,6.959791E-1,4.1228583E-1,2.975904E-1,2.5316685E1,4.90741E-1,2.934596E1,2.1824388E2,2.5799265E1,5.6E-1,2.1723555E2,1.5969548E-4,2.978407E2,5.8815174E-2,4.5435166E-1,8.7109804E-1,4.345858E-1,3.4127452E-3,1.817576E-1,7.7740633E-1,1.06692635E-1,5.6913015E-2,-5.016478E-2,-8.6786635E-2,6.114081E-3,5.651003E-1,1.0661784E-1,7.0376295E-1,2.8173634E-1,2.4320798E-1,-1.6252572E-2,-4.509435E-2,-1.4696208E-1,-7.6492265E-2,1.11037344E-1,5.1357585E-1,-1.3175999E-1,-8.240329E-2,-1.4512615E-1,-1.11440845E-1,-5.629052E-2,-8.711405E-2,-1.4615291E-1,-1.08458884E-1,-1.5526764E-3,-1.1078905E-1,-1.4995427E-1,3.7289312E-1,6.980569E-1,9.4652504E-1,1.3137335E-1,5.8674663E-2,3.2795548E-1,4.081868E-2,-9.864E-2,1.8505294E0,8.606582E-1,-6.874573E-2,-1.40121E-1,4.6163526E-1,5.575123E-2,-6.991325E-2,-1.3717742E-1,-0E0,-1.18573576E-1,1.19707875E-1,-4.644411E-2,9.1327175E-2,4.471512E-1,-1.6707484E-1,-8.231675E-2,5.1377006E-2,-4.246391E-2],"split_indices":[16,40,52,62,40,40,33,54,67,62,79,19,3,0,0,62,4,74,60,33,42,65,67,70,13,40,37,3,34,0,0,74,54,35,28,0,42,19,0,40,70,72,61,15,26,28,15,0,46,27,27,0,0,49,55,65,47,10,16,33,40,48,0,6,0,41,60,0,0,18,44,30,4,0,4,8,5,45,10,0,0,6,60,4,22,70,34,52,29,0,0,0,0,0,0,0,0,0,0,0,0,0,0,0,0,0,0,0,0,0,0,0,0,0,0,0,0,0,0,0,0,0,0,0,0,0,0,0,0,0,0,0,0,0,0,0,0,0,0,0,0,0,0,0,0,0,0,0,0],"split_type":[0,0,0,0,0,0,0,0,0,0,0,0,0,0,0,0,0,0,0,0,0,0,0,0,0,0,0,0,0,0,0,0,0,0,0,0,0,0,0,0,0,0,0,0,0,0,0,0,0,0,0,0,0,0,0,0,0,0,0,0,0,0,0,0,0,0,0,0,0,0,0,0,0,0,0,0,0,0,0,0,0,0,0,0,0,0,0,0,0,0,0,0,0,0,0,0,0,0,0,0,0,0,0,0,0,0,0,0,0,0,0,0,0,0,0,0,0,0,0,0,0,0,0,0,0,0,0,0,0,0,0,0,0,0,0,0,0,0,0,0,0,0,0,0,0,0,0,0,0],"sum_hessian":[7.239E3,5.751E3,1.488E3,2.149E3,3.602E3,1.459E3,2.9E1,1.05E2,2.044E3,1.462E3,2.14E3,1.041E3,4.18E2,1.9E1,1E1,8.3E1,2.2E1,1.734E3,3.1E2,6E1,1.402E3,1.39E3,7.5E2,9.32E2,1.09E2,1.81E2,2.37E2,2.4E1,5.9E1,1.1E1,1.1E1,7.3E2,1.004E3,1.34E2,1.76E2,1.1E1,4.9E1,1.391E3,1.1E1,2E1,1.37E3,3.46E2,4.04E2,4.29E2,5.03E2,6.3E1,4.6E1,1.3E1,1.68E2,1.58E2,7.9E1,1.2E1,1.2E1,2.7E1,3.2E1,7.06E2,2.4E1,4.33E2,5.71E2,9E1,4.4E1,1.62E2,1.4E1,3.2E1,1.7E1,1.366E3,2.5E1,1E1,1E1,2.66E2,1.104E3,1.5E2,1.96E2,1.1E1,3.93E2,1.57E2,2.72E2,2.74E2,2.29E2,1.1E1,5.2E1,2.2E1,2.4E1,1.48E2,2E1,1.28E2,3E1,4E1,3.9E1,1.2E1,1.5E1,1.8E1,1.4E1,6.33E2,7.3E1,1.1E1,1.3E1,1.72E2,2.61E2,4.66E2,1.05E2,1.2E1,7.8E1,2E1,2.4E1,1.7E1,1.45E2,1.7E1,1.5E1,1.35E3,1.6E1,1E1,1.5E1,3.9E1,2.27E2,4.9E2,6.14E2,1.2E1,1.38E2,1.48E2,4.8E1,3.5E1,3.58E2,1.08E2,4.9E1,1.2E1,2.6E2,1.89E2,8.5E1,6.8E1,1.61E2,1.3E1,3.9E1,1.2E1,1E1,1.2E1,1.2E1,2E1,1.28E2,1E1,1E1,7.6E1,5.2E1,1.7E1,1.3E1,2.8E1,1.2E1,1.1E1,2.8E1],"tree_param":{"num_deleted":"0","num_feature":"80","num_nodes":"149","size_leaf_vector":"1"}},{"base_weights":[2.7536638E-2,-9.264239E-1,3.8024197E0,-2.0969892E0,1.0766722E-1,3.1328478E0,2.3866587E1,-2.1650903E0,1.6389704E0,5.363131E0,-2.0445307E-1,-1.1778131E-1,5.7190785E0,2.1749473E0,1.313199E1,-1.8053014E0,-2.8434393E0,-1.1065476E0,3.1963605E-1,1.4569284E1,2.2785103E0,-9.616682E-1,7.8562343E-1,-5.716124E-1,1.1834754E1,4.256403E0,1.1656677E1,1.956392E-1,8.1343615E-1,6.170618E0,-1.9535025E0,-2.323194E0,-3.3790066E0,-2.4273145E0,4.12951E-2,1.8883638E1,1.1893445E-2,4.549327E-1,1.1763366E0,-1.0547898E0,5.199151E-1,1.7329929E0,-1.0419163E0,2.2680838E0,-1.7145255E0,9.8500514E-1,-7.260425E-2,8.677846E0,2.5614824E0,2.0028334E1,5.391517E0,4.094729E-1,9.94416E-3,-3.0973997E0,-1.699901E0,6.2786676E-2,-2.646716E0,-3.448471E0,-2.0509279E0,-1.3455091E-1,-4.739356E-2,9.687944E-1,5.0301766E-1,2.370027E0,-2.6958497E0,9.9974537E-1,-1.3543046E0,6.0801444E0,1.2528098E0,-1.443881E0,2.909579E-1,-2.104844E0,3.425624E0,-2.1350148E0,1.3286551E0,1.6333742E1,6.3647466E0,3.5343924E0,-2.6288843E0,1.4478524E-1,2.3988892E1,1.5172637E1,9.618882E-1,-5.4678995E-2,-1.3942645E-1,-9.5676035E-2,-4.7275092E-2,1.7485318E-1,-7.474276E-2,-6.385976E-2,-1.1772525E-1,-1.4112028E-1,-9.365908E-2,-1.1776802E-1,-2.5735166E-2,4.0574975E-2,2.6166376E-1,-1.3784847E-1,-5.654588E-2,-3.687589E-2,9.69636E-2,-1.4463526E-1,-4.4916406E-2,4.5113507E-1,-1.9776193E-2,3.68817E-2,2.9864985E-1,-7.0179954E-2,1.611583E-1,-1.0830378E-2,-1.2353946E-1,1.9432141E-1,7.0687532E-3,-9.20104E-2,2.148936E-2,-4.0832188E-2,2.3951137E-1,1.3321364E0,3.8643333E-1,1.9717152E-1,6.039204E-1,2.5544044E-2,2.4812275E-1,-1.6394982E-2,-1.3862488E-1,5.0802225E-1,1.1821939E0,9.352895E-1,3.4345004E-1,2.5525746E-1,-6.0395915E-2],"categories":[],"categories_nodes":[],"categories_segments":[],"categories_sizes":[],"default_left":[0,0,0,0,0,0,0,0,0,0,0,0,0,0,0,0,0,0,0,0,0,0,0,0,0,0,0,0,0,0,0,0,0,0,0,0,0,0,0,0,0,0,0,0,0,0,0,0,0,0,0,0,0,0,0,0,0,0,0,0,0,0,0,0,0,0,0,0,0,0,0,0,0,0,0,0,0,0,0,0,0,0,0,0,0,0,0,0,0,0,0,0,0,0,0,0,0,0,0,0,0,0,0,0,0,0,0,0,0,0,0,0,0,0,0,0,0,0,0,0,0,0,0,0,0,0,0,0,0,0,0],"id":8,"left_children":[1,3,5,7,9,11,13,15,17,19,21,23,25,-1,27,29,31,33,-1,35,37,39,41,43,45,47,49,-1,-1,51,53,55,57,59,-1,61,-1,-1,63,65,-1,67,69,71,73,-1,-1,75,77,79,81,-1,-1,83,85,87,89,91,93,-1,-1,-1,-1,95,97,99,101,103,105,107,-1,109,111,113,115,117,119,121,123,-1,125,127,129,-1,-1,-1,-1,-1,-1,-1,-1,-1,-1,-1,-1,-1,-1,-1,-1,-1,-1,-1,-1,-1,-1,-1,-1,-1,-1,-1,-1,-1,-1,-1,-1,-1,-1,-1,-1,-1,-1,-1,-1,-1,-1,-1,-1,-1,-1,-1,-1],"loss_changes":[2.6043424E4,6.9887124E3,1.9521828E4,6.9250195E2,5.0315435E3,1.1880612E4,1.4596889E4,6.431162E2,8.607537E2,4.8471655E3,2.171121E3,3.4045667E3,6.783033E3,0E0,2.0194575E3,2.0683833E3,2.4737744E2,1.0135962E2,0E0,2.6351484E3,1.2819299E3,2.13733E3,2.1746824E3,1.9669978E3,4.0318477E3,4.7192754E3,8.0176895E3,0E0,0E0,7.5883154E2,4.8980518E2,3.6357324E2,3.345117E1,2.0417648E1,0E0,8.015625E2,0E0,0E0,5.466474E2,1.00501855E3,0E0,1.717085E3,1.4387084E3,8.877907E2,5.556653E2,0E0,0E0,2.993003E3,2.3267622E3,4.199451E3,3.879592E3,0E0,0E0,1.9673193E2,4.9717896E2,4.795699E2,1.2000122E2,2.3479492E1,2.8416489E1,0E0,0E0,0E0,0E0,4.9927753E2,2.076625E1,5.679924E2,7.4733374E2,2.79021E3,1.5316752E3,6.8980023E2,0E0,6.444652E1,6.3354663E2,1.6231445E2,5.837878E2,4.200466E3,1.6371182E3,2.96608E3,1.3154214E2,0E0,2.9174219E3,1.3054873E3,8.492766E2,0E0,0E0,0E0,0E0,0E0,0E0,0E0,0E0,0E0,0E0,0E0,0E0,0E0,0E0,0E0,0E0,0E0,0E0,0E0,0E0,0E0,0E0,0E0,0E0,0E0,0E0,0E0,0E0,0E0,0E0,0E0,0E0,0E0,0E0,0E0,0E0,0E0,0E0,0E0,0E0,0E0,0E0,0E0,0E0,0E0,0E0,0E0,0E0],"parents":[2147483647,0,0,1,1,2,2,3,3,4,4,5,5,6,6,7,7,8,8,9,9,10,10,11,11,12,12,14,14,15,15,16,16,17,17,19,19,20,20,21,21,22,22,23,23,24,24,25,25,26,26,29,29,30,30,31,31,32,32,33,33,35,35,38,38,39,39,41,41,42,42,43,43,44,44,47,47,48,48,49,49,50,50,53,53,54,54,55,55,56,56,57,57,58,58,63,63,64,64,65,65,66,66,67,67,68,68,69,69,71,71,72,72,73,73,74,74,75,75,76,76,77,77,78,78,80,80,81,81,82,82],"right_children":[2,4,6,8,10,12,14,16,18,20,22,24,26,-1,28,30,32,34,-1,36,38,40,42,44,46,48,50,-1,-1,52,54,56,58,60,-1,62,-1,-1,64,66,-1,68,70,72,74,-1,-1,76,78,80,82,-1,-1,84,86,88,90,92,94,-1,-1,-1,-1,96,98,100,102,104,106,108,-1,110,112,114,116,118,120,122,124,-1,126,128,130,-1,-1,-1,-1,-1,-1,-1,-1,-1,-1,-1,-1,-1,-1,-1,-1,-1,-1,-1,-1,-1,-1,-1,-1,-1,-1,-1,-1,-1,-1,-1,-1,-1,-1,-1,-1,-1,-1,-1,-1,-1,-1,-1,-1,-1,-1,-1,-1],"split_conditions":[5E-1,2.5614972E2,2.3782516E2,7.1E-1,-1.41E0,2.7544183E2,2.2746563E1,1.55E-1,6.1679604E1,-1.14E0,9.1E-2,7.3216116E-1,9.7E-1,2.1749473E0,3.308764E0,-1.14E0,-6.5E-2,2.915315E1,3.1963605E-1,4.3883646E-1,2.8102732E1,1.0108794E0,4.1991407E-1,5.6E-1,-4.1283684E1,2.25E-1,9.398314E-1,1.956392E-1,8.1343615E-1,1.1915538E2,-6.9E-1,1.0986943E2,2.7E-1,2.861996E1,4.12951E-2,2.889363E2,1.1893445E-2,4.549327E-1,4.5497587E-1,2.1308155E1,5.199151E-1,-1.41E0,2.09809E0,3.5527137E-15,2.57E0,9.8500514E-1,-7.260425E-2,1.03509926E2,4.3353078E-1,2.1338211E1,3.6804256E-1,4.094729E-1,9.94416E-3,-3.107541E-1,-6.9E-1,1.1437563E2,-5.839548E-1,3.430721E-1,-2.1189077E0,-1.3455091E-1,-4.739356E-2,9.687944E-1,5.0301766E-1,2.345415E1,3.5135098E1,2.0640669E1,-9.8E-1,4.8202497E-1,6.7351854E-1,5.6E-1,2.909579E-1,1.184967E2,1.8012103E0,2.6658185E2,5.6816125E-1,4.528471E-1,5.812989E-1,6.021439E-1,1.1730493E2,1.4478524E-1,1.5374893E2,-5.422389E0,2.4684897E-1,-5.4678995E-2,-1.3942645E-1,-9.5676035E-2,-4.7275092E-2,1.7485318E-1,-7.474276E-2,-6.385976E-2,-1.1772525E-1,-1.4112028E-1,-9.365908E-2,-1.1776802E-1,-2.5735166E-2,4.0574975E-2,2.6166376E-1,-1.3784847E-1,-5.654588E-2,-3.687589E-2,9.69636E-2,-1.4463526E-1,-4.4916406E-2,4.5113507E-1,-1.9776193E-2,3.68817E-2,2.9864985E-1,-7.0179954E-2,1.611583E-1,-1.0830378E-2,-1.2353946E-1,1.9432141E-1,7.0687532E-3,-9.20104E-2,2.148936E-2,-4.0832188E-2,2.3951137E-1,1.3321364E0,3.8643333E-1,1.9717152E-1,6.039204E-1,2.5544044E-2,2.4812275E-1,-1.6394982E-2,-1.3862488E-1,5.0802225E-1,1.1821939E0,9.352895E-1,3.4345004E-1,2.5525746E-1,-6.0395915E-2],"split_indices":[71,34,55,17,62,34,23,79,61,15,19,47,68,0,12,65,75,27,0,46,27,46,39,70,13,18,7,0,0,36,70,36,15,61,0,3,0,0,6,24,0,14,41,49,66,0,0,5,39,24,8,0,0,46,14,35,61,50,61,0,0,0,0,23,54,1,17,12,9,66,0,35,43,34,6,43,49,41,36,0,30,53,45,0,0,0,0,0,0,0,0,0,0,0,0,0,0,0,0,0,0,0,0,0,0,0,0,0,0,0,0,0,0,0,0,0,0,0,0,0,0,0,0,0,0,0,0,0,0,0,0],"split_type":[0,0,0,0,0,0,0,0,0,0,0,0,0,0,0,0,0,0,0,0,0,0,0,0,0,0,0,0,0,0,0,0,0,0,0,0,0,0,0,0,0,0,0,0,0,0,0,0,0,0,0,0,0,0,0,0,0,0,0,0,0,0,0,0,0,0,0,0,0,0,0,0,0,0,0,0,0,0,0,0,0,0,0,0,0,0,0,0,0,0,0,0,0,0,0,0,0,0,0,0,0,0,0,0,0,0,0,0,0,0,0,0,0,0,0,0,0,0,0,0,0,0,0,0,0,0,0,0,0,0,0],"sum_hessian":[7.23E3,5.772E3,1.458E3,2.707E3,3.065E3,1.412E3,4.6E1,2.659E3,4.8E1,1.71E2,2.894E3,6.26E2,7.86E2,1.1E1,3.5E1,1.74E3,9.19E2,3.4E1,1.4E1,4.2E1,1.29E2,1.64E3,1.254E3,6.04E2,2.2E1,6.32E2,1.54E2,1.7E1,1.8E1,3.1E1,1.709E3,4.69E2,4.5E2,2.1E1,1.3E1,3.2E1,1E1,1.3E1,1.16E2,1.63E3,1E1,8.26E2,4.28E2,1.73E2,4.31E2,1.1E1,1.1E1,1.74E2,4.58E2,6.5E1,8.9E1,1.8E1,1.3E1,3.08E2,1.401E3,5.6E1,4.13E2,4.26E2,2.4E1,1.1E1,1E1,1.6E1,1.6E1,8.9E1,2.7E1,2.07E2,1.423E3,8.1E1,7.45E2,4.09E2,1.9E1,3.6E1,1.37E2,3.79E2,5.2E1,3.9E1,1.35E2,3.86E2,7.2E1,1.3E1,5.2E1,2.7E1,6.2E1,5.6E1,2.52E2,6.04E2,7.97E2,1.7E1,3.9E1,9E1,3.23E2,3.99E2,2.7E1,1.4E1,1E1,6.8E1,2.1E1,1.6E1,1.1E1,8.8E1,1.19E2,1.33E2,1.29E3,4.5E1,3.6E1,7.08E2,3.7E1,3.88E2,2.1E1,1.3E1,2.3E1,9.5E1,4.2E1,3.58E2,2.1E1,3.5E1,1.7E1,1E1,2.9E1,1.17E2,1.8E1,1.85E2,2.01E2,2E1,5.2E1,1.8E1,3.4E1,1.1E1,1.6E1,1.9E1,4.3E1],"tree_param":{"num_deleted":"0","num_feature":"80","num_nodes":"131","size_leaf_vector":"1"}},{"base_weights":[-2.19651E-3,2.2207773E0,-1.5603733E0,1.4062692E0,1.2563775E1,-1.6801927E0,6.4164042E0,6.000515E-1,4.262065E0,2.2697193E1,7.378767E0,-1.0156358E0,-2.123899E0,1.0741932E0,1.1138502E0,7.1128054E0,2.5917503E-1,2.1522288E0,7.5695815E0,1.2982096E-1,2.573511E1,9.722912E-1,5.1053886E0,3.5438871E0,-1.1930487E0,-1.7354599E0,-2.889316E0,-1.3583806E0,2.3041505E-1,9.617472E0,3.951255E-2,4.958516E0,7.533752E-2,4.254183E0,-7.5139356E-1,9.152733E0,3.466647E-2,3.2642715E1,1.8490671E1,3.746928E0,5.556882E-1,7.666161E-1,-9.885903E-2,-1.742149E0,1.1501103E-1,5.8472457E0,-1.8358828E0,-5.655602E-1,-2.9741986E0,-2.3009605E0,2.1634098E-2,1.4609316E1,4.3886843E0,1.6768873E-1,-1.0854945E-1,7.914151E-1,2.4669132E0,-3.9596793E-1,1.5894246E0,1.2626139E1,2.28082E0,-1.7250229E0,2.5715944E-1,5.6511064E0,1.4118068E1,2.3545848E-1,-2.48168E0,1.757016E0,7.178313E-1,8.85868E-1,4.532657E-1,5.7312293E0,-1.9256115E0,1.4396765E0,-2.4522781E0,1.7087121E-1,-1.7992437E0,3.3911219E0,-4.450762E-1,-5.5538476E-3,4.3668967E-1,-2.030371E0,1.4273773E0,-2.2808034E0,1.09992616E-1,-3.2057178E0,-2.2901945E0,-2.7950058E-2,-1.3914408E-1,9.340306E-1,4.044228E-1,6.1845347E-2,4.3773806E-1,2.7757496E-1,-2.065352E-2,2.4883835E-2,-4.682676E-2,4.168812E-2,1.9299161E-1,9.519455E-1,3.3289912E-1,1.9839801E-1,-1.0363357E-2,-1.3812397E-1,-1.8076316E-2,-1.1410005E-1,3.2655466E-1,7.020347E-1,2.233349E-2,-3.5831209E-3,-1.5454574E-1,3.766144E-1,6.6890664E-2,-2.6034469E-2,-1.0953466E-1,2.1262181E-1,-3.2765068E-2,-1.4205666E-1,-4.5194905E-2,-2.8737286E-2,-8.664185E-2,5.3962763E-2,4.3375275E-1,-2.7966542E-2,2.0319967E-1,-1.269484E-1,-7.168867E-2,2.4109878E-1,-4.286267E-2,-1.11228146E-1,-6.286603E-2,-1.3140467E-1,-6.624461E-2,-9.791956E-2,2.4845067E-2],"categories":[],"categories_nodes":[],"categories_segments":[],"categories_sizes":[],"default_left":[0,0,0,0,0,0,0,0,0,0,0,0,0,0,0,0,0,0,0,0,0,0,0,0,0,0,0,0,0,0,0,0,0,0,0,0,0,0,0,0,0,0,0,0,0,0,0,0,0,0,0,0,0,0,0,0,0,0,0,0,0,0,0,0,0,0,0,0,0,0,0,0,0,0,0,0,0,0,0,0,0,0,0,0,0,0,0,0,0,0,0,0,0,0,0,0,0,0,0,0,0,0,0,0,0,0,0,0,0,0,0,0,0,0,0,0,0,0,0,0,0,0,0,0,0,0,0,0,0,0,0,0,0,0,0],"id":9,"left_children":[1,3,5,7,9,11,13,15,17,19,21,23,25,-1,27,29,31,33,35,-1,37,-1,39,41,43,45,47,49,-1,51,53,55,57,59,61,63,65,67,69,71,-1,-1,73,75,77,79,81,83,85,87,-1,89,91,-1,-1,-1,93,95,97,99,101,103,-1,105,107,-1,109,-1,-1,-1,-1,111,113,115,117,-1,119,121,123,-1,-1,125,127,129,-1,131,133,-1,-1,-1,-1,-1,-1,-1,-1,-1,-1,-1,-1,-1,-1,-1,-1,-1,-1,-1,-1,-1,-1,-1,-1,-1,-1,-1,-1,-1,-1,-1,-1,-1,-1,-1,-1,-1,-1,-1,-1,-1,-1,-1,-1,-1,-1,-1,-1],"loss_changes":[2.4997693E4,2.5033562E4,4.064455E3,6.346239E3,1.1231367E4,1.2299795E3,6.7608213E3,4.7738374E3,4.217509E3,4.2264062E3,5.428841E3,1.3591781E3,7.3910547E2,0E0,5.917763E2,1.8921274E3,1.7659199E3,2.274106E3,2.81213E3,0E0,2.55925E3,0E0,1.4779033E3,3.576076E3,1.1598337E3,1.2771157E3,1.6357715E2,6.2369015E1,0E0,1.9947227E3,3.4032944E2,2.7795217E3,1.4066586E3,3.5365068E3,1.1037915E3,3.308288E3,6.307917E2,4.325871E3,6.0358594E2,1.2829917E3,0E0,0E0,1.9176903E2,3.96292E2,8.791917E2,6.6621704E2,1.0462925E3,1.8149275E2,1.2017334E2,3.963659E1,0E0,1.3360469E3,7.2277527E2,0E0,0E0,0E0,8.93798E2,1.1786921E3,8.2325464E2,1.7714614E3,1.1927513E3,3.017512E2,0E0,2.4747158E3,3.6515898E3,0E0,9.690607E1,0E0,0E0,0E0,0E0,1.2296719E3,2.8231369E1,2.836086E2,2.5257912E1,0E0,4.3755762E2,1.0451733E3,5.701194E2,0E0,0E0,4.2185303E2,1.0704266E3,2.1077194E0,0E0,5.8907715E1,9.338428E1,0E0,0E0,0E0,0E0,0E0,0E0,0E0,0E0,0E0,0E0,0E0,0E0,0E0,0E0,0E0,0E0,0E0,0E0,0E0,0E0,0E0,0E0,0E0,0E0,0E0,0E0,0E0,0E0,0E0,0E0,0E0,0E0,0E0,0E0,0E0,0E0,0E0,0E0,0E0,0E0,0E0,0E0,0E0,0E0,0E0,0E0,0E0,0E0],"parents":[2147483647,0,0,1,1,2,2,3,3,4,4,5,5,6,6,7,7,8,8,9,9,10,10,11,11,12,12,14,14,15,15,16,16,17,17,18,18,20,20,22,22,23,23,24,24,25,25,26,26,27,27,29,29,30,30,31,31,32,32,33,33,34,34,35,35,36,36,37,37,38,38,39,39,42,42,43,43,44,44,45,45,46,46,47,47,48,48,49,49,51,51,52,52,56,56,57,57,58,58,59,59,60,60,61,61,63,63,64,64,66,66,71,71,72,72,73,73,74,74,76,76,77,77,78,78,81,81,82,82,83,83,85,85,86,86],"right_children":[2,4,6,8,10,12,14,16,18,20,22,24,26,-1,28,30,32,34,36,-1,38,-1,40,42,44,46,48,50,-1,52,54,56,58,60,62,64,66,68,70,72,-1,-1,74,76,78,80,82,84,86,88,-1,90,92,-1,-1,-1,94,96,98,100,102,104,-1,106,108,-1,110,-1,-1,-1,-1,112,114,116,118,-1,120,122,124,-1,-1,126,128,130,-1,132,134,-1,-1,-1,-1,-1,-1,-1,-1,-1,-1,-1,-1,-1,-1,-1,-1,-1,-1,-1,-1,-1,-1,-1,-1,-1,-1,-1,-1,-1,-1,-1,-1,-1,-1,-1,-1,-1,-1,-1,-1,-1,-1,-1,-1,-1,-1,-1,-1],"split_conditions":[4.1892713E-1,1.36E0,2.57E0,4.7E-1,-4.4579685E1,4.9730626E-1,-4.1283684E1,-1.41E0,3.2463305E0,2.1312143E1,7.16179E-2,-1.43E0,1.55E-1,1.0741932E0,5.6816125E-1,2.3646991E0,-1.41E0,4.24E-1,2.808363E2,1.2982096E-1,2.5792652E1,9.722912E-1,6.3406816E0,1.9988498E2,2.1E-1,-1.14E0,-3.3941022E-1,1.9370484E0,2.3041505E-1,-9.3E-1,2.9399397E1,2.516743E2,1.8E-1,2.2E-2,3.8853455E-1,4.5E-1,2.1924904E1,4.9511442E-1,8.740637E-1,2.340401E2,5.556882E-1,7.666161E-1,2.954516E1,-1.290865E1,-3.583875E1,5.4619753E-1,8.6E-1,2.4422331E2,3.019859E0,2.556604E1,2.1634098E-2,7.5317854E-1,2.0760857E-1,1.6768873E-1,-1.0854945E-1,7.914151E-1,1.1429846E2,-6.2E-2,5.6881604E0,8.879076E-1,3.893908E-1,4.3834482E2,2.5715944E-1,-2.7553425E0,2.62657E1,2.3545848E-1,1.0946413E2,1.757016E0,7.178313E-1,8.85868E-1,4.532657E-1,3.541875E-1,2.8172937E2,2.3383371E2,2.0042154E1,1.7087121E-1,-1.35E-1,2.9173466E1,7.2066385E-1,-5.5538476E-3,4.3668967E-1,-6.9E-1,1.19206924E2,2.9224636E1,1.09992616E-1,6.011573E-1,1.0979856E1,-2.7950058E-2,-1.3914408E-1,9.340306E-1,4.044228E-1,6.1845347E-2,4.3773806E-1,2.7757496E-1,-2.065352E-2,2.4883835E-2,-4.682676E-2,4.168812E-2,1.9299161E-1,9.519455E-1,3.3289912E-1,1.9839801E-1,-1.0363357E-2,-1.3812397E-1,-1.8076316E-2,-1.1410005E-1,3.2655466E-1,7.020347E-1,2.233349E-2,-3.5831209E-3,-1.5454574E-1,3.766144E-1,6.6890664E-2,-2.6034469E-2,-1.0953466E-1,2.1262181E-1,-3.2765068E-2,-1.4205666E-1,-4.5194905E-2,-2.8737286E-2,-8.664185E-2,5.3962763E-2,4.3375275E-1,-2.7966542E-2,2.0319967E-1,-1.269484E-1,-7.168867E-2,2.4109878E-1,-4.286267E-2,-1.11228146E-1,-6.286603E-2,-1.3140467E-1,-6.624461E-2,-9.791956E-2,2.4845067E-2],"split_indices":[40,64,66,71,13,40,13,62,13,25,47,62,79,0,6,57,14,74,31,0,0,0,56,33,69,65,49,58,0,71,28,29,15,77,49,72,25,48,10,31,0,0,27,58,55,40,66,32,58,0,0,43,9,0,0,0,36,18,12,43,10,33,0,56,21,0,35,0,0,0,0,10,31,32,13,0,79,28,46,0,0,70,35,26,0,6,12,0,0,0,0,0,0,0,0,0,0,0,0,0,0,0,0,0,0,0,0,0,0,0,0,0,0,0,0,0,0,0,0,0,0,0,0,0,0,0,0,0,0,0,0,0,0,0,0],"split_type":[0,0,0,0,0,0,0,0,0,0,0,0,0,0,0,0,0,0,0,0,0,0,0,0,0,0,0,0,0,0,0,0,0,0,0,0,0,0,0,0,0,0,0,0,0,0,0,0,0,0,0,0,0,0,0,0,0,0,0,0,0,0,0,0,0,0,0,0,0,0,0,0,0,0,0,0,0,0,0,0,0,0,0,0,0,0,0,0,0,0,0,0,0,0,0,0,0,0,0,0,0,0,0,0,0,0,0,0,0,0,0,0,0,0,0,0,0,0,0,0,0,0,0,0,0,0,0,0,0,0,0,0,0,0,0],"sum_hessian":[7.215E3,2.973E3,4.242E3,2.757E3,2.16E2,4.18E3,6.2E1,2.151E3,6.06E2,7.2E1,1.44E2,1.675E3,2.505E3,1.2E1,5E1,1.06E2,2.045E3,3.71E2,2.35E2,1E1,6.2E1,1.6E1,1.28E2,6.2E1,1.613E3,1.664E3,8.41E2,3.3E1,1.7E1,7.8E1,2.8E1,7.6E1,1.969E3,2.15E2,1.56E2,1.94E2,4.1E1,3E1,3.2E1,1.12E2,1.6E1,1.1E1,5.1E1,1.136E3,4.77E2,2.1E1,1.643E3,3E1,8.11E2,2.2E1,1.1E1,3.9E1,3.9E1,1.1E1,1.7E1,1E1,6.6E1,1.502E3,4.67E2,4E1,1.75E2,1.38E2,1.8E1,1.15E2,7.9E1,1.2E1,2.9E1,1.6E1,1.4E1,2E1,1.2E1,8.3E1,2.9E1,3.1E1,2E1,1E1,1.126E3,6.9E1,4.08E2,1E1,1.1E1,1.551E3,9.2E1,2E1,1E1,6.03E2,2.08E2,1E1,1.2E1,1.2E1,2.7E1,2.8E1,1.1E1,2.6E1,4E1,6.48E2,8.54E2,4E2,6.7E1,1E1,3E1,8.5E1,9E1,5.8E1,8E1,2.6E1,8.9E1,6.3E1,1.6E1,1.1E1,1.8E1,4.3E1,4E1,1.2E1,1.7E1,1.1E1,2E1,1E1,1E1,2.82E2,8.44E2,5.5E1,1.4E1,3.91E2,1.7E1,2.72E2,1.279E3,3.2E1,6E1,1E1,1E1,5.76E2,2.7E1,1.98E2,1E1],"tree_param":{"num_deleted":"0","num_feature":"80","num_nodes":"135","size_leaf_vector":"1"}},{"base_weights":[2.393628E-2,-3.8209385E-1,8.046041E0,-1.766557E0,9.209392E-1,4.0865817E0,2.529274E1,-1.9623885E0,7.2777474E-1,-3.563619E-2,3.0705144E0,1.064599E1,1.1510047E0,3.1336293E-1,2.9517866E1,3.567432E0,-1.9994881E0,2.589547E0,-1.4872104E0,1.0759828E0,-1.2634552E0,1.1869941E1,2.4021342E0,1.8614124E1,2.62257E0,3.5957646E-1,4.9764234E-1,4.298558E1,1.8244236E1,3.2372497E-2,2.4044576E-1,-2.4152658E0,-1.511618E0,3.8490206E-1,1.9430891E0,-2.3978376E0,1.238862E-1,7.0515966E-1,1.296928E1,-1.7188057E0,6.430603E-1,1.7336823E1,5.4967856E0,3.2021902E0,-1.5781714E0,1.0960596E0,1.26867E1,-8.981688E-1,3.6469442E-1,-1.2941984E0,4.541004E0,1.0591494E0,2.1589768E0,9.5711935E-1,5.0466853E-1,1.5155764E-1,-2.4740543E0,2.7213123E0,-1.7069845E0,8.8310075E-1,5.0576744E0,-8.772903E-1,-2.8205576E0,5.3845882E0,2.1843073E-1,1.7309687E1,1.6003914E-1,-7.388601E-1,-2.7051404E0,1.05554104E-1,3.086911E-1,1.3787301E1,1.0361109E0,8.995854E0,1.3494951E-2,8.437858E-1,4.552366E0,1.0015587E-1,-2.0452468E0,2.3027697E-1,7.041106E-1,1.8406268E-2,-1.00418895E-1,-3.3738236E0,-3.0649555E-1,4.786523E-1,2.325252E0,-1.12756915E-1,-7.763668E-2,-1.1264234E-1,2.7901816E-1,1.608129E-1,-7.116755E-2,2.4747816E-1,6.889185E-3,3.7051758E-1,2.2495272E-2,-8.034001E-2,1.6230438E-2,-8.092851E-2,-1.3243237E-1,5.566874E-1,1.4092897E-1,3.0009417E-2,-1.07257605E-1,4.5424432E-1,9.8263335E-1,-1.2180909E-1,-1.2316948E-2,1.06579736E-1,-1.1441174E-1,2.2173485E-1,-1.3447583E-2,8.3603406E-1,3.7945905E-1,2.4270605E-1,4.3947107E-1,4.2694834E-1,1.7986616E-2,4.2443067E-1,1.4684469E-1,-1.3192174E-1,-4.6016384E-2,-2.0437789E-1,-1.0816873E-1,1.7960747E-1,-4.0621143E-2,2.9302734E-1,-1.0096903E-1],"categories":[],"categories_nodes":[],"categories_segments":[],"categories_sizes":[],"default_left":[0,0,0,0,0,0,0,0,0,0,0,0,0,0,0,0,0,0,0,0,0,0,0,0,0,0,0,0,0,0,0,0,0,0,0,0,0,0,0,0,0,0,0,0,0,0,0,0,0,0,0,0,0,0,0,0,0,0,0,0,0,0,0,0,0,0,0,0,0,0,0,0,0,0,0,0,0,0,0,0,0,0,0,0,0,0,0,0,0,0,0,0,0,0,0,0,0,0,0,0,0,0,0,0,0,0,0,0,0,0,0,0,0,0,0,0,0,0,0,0,0,0,0,0,0,0,0,0,0],"id":10,"left_children":[1,3,5,7,9,11,13,15,17,19,21,23,25,-1,27,29,31,33,35,37,39,41,43,45,47,49,-1,51,53,-1,-1,55,57,-1,59,61,-1,63,65,67,69,71,73,75,77,-1,79,81,-1,83,85,-1,-1,-1,-1,-1,87,89,91,93,95,97,99,101,103,105,-1,107,109,111,-1,113,-1,115,-1,117,119,-1,121,-1,-1,-1,-1,123,125,-1,127,-1,-1,-1,-1,-1,-1,-1,-1,-1,-1,-1,-1,-1,-1,-1,-1,-1,-1,-1,-1,-1,-1,-1,-1,-1,-1,-1,-1,-1,-1,-1,-1,-1,-1,-1,-1,-1,-1,-1,-1,-1,-1],"loss_changes":[2.3593484E4,1.243848E4,2.372313E4,1.6346084E3,7.3045083E3,5.4723706E3,4.567797E3,6.4241406E2,1.01000195E3,3.3575007E3,6.403073E3,5.571244E3,1.7555215E3,0E0,7.1218867E3,1.3401266E2,6.2027637E2,5.8127985E2,4.733676E2,5.6813477E3,1.01613916E3,2.584292E3,3.2469048E3,1.9260889E3,1.0335956E3,1.2923724E3,0E0,2.7412695E3,6.557842E2,0E0,0E0,6.1333887E2,1.1784663E3,0E0,4.0017422E2,5.709857E1,0E0,2.851229E3,1.4470269E3,9.0961206E2,8.5366394E2,8.829092E2,6.621177E2,2.6950918E3,3.3013852E2,0E0,8.4224365E2,6.684926E1,0E0,2.7324792E2,8.369584E2,0E0,0E0,0E0,0E0,0E0,2.9204688E2,1.4933306E3,5.253425E2,3.4691916E2,5.741897E2,3.2846672E1,2.0445984E1,1.8238059E3,1.7410552E3,8.416489E2,0E0,4.694728E2,3.7670215E2,5.071242E2,0E0,7.485454E2,0E0,5.8921875E1,0E0,1.1936766E3,2.8574004E3,0E0,1.6717249E2,0E0,0E0,0E0,0E0,3.4974762E1,3.1401956E2,0E0,1.0302498E3,0E0,0E0,0E0,0E0,0E0,0E0,0E0,0E0,0E0,0E0,0E0,0E0,0E0,0E0,0E0,0E0,0E0,0E0,0E0,0E0,0E0,0E0,0E0,0E0,0E0,0E0,0E0,0E0,0E0,0E0,0E0,0E0,0E0,0E0,0E0,0E0,0E0,0E0,0E0,0E0,0E0,0E0],"parents":[2147483647,0,0,1,1,2,2,3,3,4,4,5,5,6,6,7,7,8,8,9,9,10,10,11,11,12,12,14,14,15,15,16,16,17,17,18,18,19,19,20,20,21,21,22,22,23,23,24,24,25,25,27,27,28,28,31,31,32,32,34,34,35,35,37,37,38,38,39,39,40,40,41,41,42,42,43,43,44,44,46,46,47,47,49,49,50,50,56,56,57,57,58,58,59,59,60,60,61,61,62,62,63,63,64,64,65,65,67,67,68,68,69,69,71,71,73,73,75,75,76,76,78,78,83,83,84,84,86,86],"right_children":[2,4,6,8,10,12,14,16,18,20,22,24,26,-1,28,30,32,34,36,38,40,42,44,46,48,50,-1,52,54,-1,-1,56,58,-1,60,62,-1,64,66,68,70,72,74,76,78,-1,80,82,-1,84,86,-1,-1,-1,-1,-1,88,90,92,94,96,98,100,102,104,106,-1,108,110,112,-1,114,-1,116,-1,118,120,-1,122,-1,-1,-1,-1,124,126,-1,128,-1,-1,-1,-1,-1,-1,-1,-1,-1,-1,-1,-1,-1,-1,-1,-1,-1,-1,-1,-1,-1,-1,-1,-1,-1,-1,-1,-1,-1,-1,-1,-1,-1,-1,-1,-1,-1,-1,-1,-1,-1,-1],"split_conditions":[9.7E-1,2.6232666E2,6.607805E0,8.5E-1,3.7E-1,2.4E-2,4.5630515E-1,2.3863564E1,1.16331276E2,-2.8E-2,-3.45E-1,2.601567E2,1.0845045E1,3.1336293E-1,2.9692852E1,1.1722779E2,5.9458904E-4,-5.2997173E1,4.439624E0,-5.6E-2,2.9E-1,-6.0567784E0,2.6474844E1,1.1597863E0,2.5741507E2,2.9974823E1,4.9764234E-1,2.0245686E2,8.740637E-1,3.2372497E-2,2.4044576E-1,2.8038183E-1,-1.14E0,3.8490206E-1,2.4693544E-1,1.2003316E2,1.238862E-1,2.1026686E1,3.3649242E0,1.8288515E0,1.927308E0,3.9628094E2,-3.2418421E-3,-8.1983954E-1,2.9978613E1,1.0960596E0,2.2639482E1,2.1792442E2,3.6469442E-1,2.1174142E-2,3.063885E1,1.0591494E0,2.1589768E0,9.5711935E-1,5.0466853E-1,1.5155764E-1,2.2908923E2,-1.01E0,-3.2559252E-1,3.910263E-1,2.4023905E-1,2.40713E0,-5.875575E-2,-1.36E0,1.3074324E2,2.1163055E-1,1.6003914E-1,-4.369113E1,2.0951796E1,-5.158892E-2,3.086911E-1,-3.3962177E1,1.0361109E0,3.9437678E-1,1.3494951E-2,-3.1007203E-1,-1.01E-1,1.0015587E-1,1.1634061E2,2.3027697E-1,7.041106E-1,1.8406268E-2,-1.00418895E-1,7.3056763E-1,-5.461302E1,4.786523E-1,4.33825E-1,-1.12756915E-1,-7.763668E-2,-1.1264234E-1,2.7901816E-1,1.608129E-1,-7.116755E-2,2.4747816E-1,6.889185E-3,3.7051758E-1,2.2495272E-2,-8.034001E-2,1.6230438E-2,-8.092851E-2,-1.3243237E-1,5.566874E-1,1.4092897E-1,3.0009417E-2,-1.07257605E-1,4.5424432E-1,9.8263335E-1,-1.2180909E-1,-1.2316948E-2,1.06579736E-1,-1.1441174E-1,2.2173485E-1,-1.3447583E-2,8.3603406E-1,3.7945905E-1,2.4270605E-1,4.3947107E-1,4.2694834E-1,1.7986616E-2,4.2443067E-1,1.4684469E-1,-1.3192174E-1,-4.6016384E-2,-2.0437789E-1,-1.0816873E-1,1.7960747E-1,-4.0621143E-2,2.9302734E-1,-1.0096903E-1],"split_indices":[68,34,12,16,68,79,52,21,37,18,76,31,57,0,2,5,50,53,58,18,64,12,0,7,34,27,0,30,10,0,0,42,65,0,49,37,0,23,56,58,41,29,44,56,2,0,55,34,0,50,28,0,0,0,0,0,34,16,9,6,46,12,48,14,37,48,0,60,1,9,0,53,0,39,0,49,75,0,36,0,0,0,0,42,59,0,49,0,0,0,0,0,0,0,0,0,0,0,0,0,0,0,0,0,0,0,0,0,0,0,0,0,0,0,0,0,0,0,0,0,0,0,0,0,0,0,0,0,0],"split_type":[0,0,0,0,0,0,0,0,0,0,0,0,0,0,0,0,0,0,0,0,0,0,0,0,0,0,0,0,0,0,0,0,0,0,0,0,0,0,0,0,0,0,0,0,0,0,0,0,0,0,0,0,0,0,0,0,0,0,0,0,0,0,0,0,0,0,0,0,0,0,0,0,0,0,0,0,0,0,0,0,0,0,0,0,0,0,0,0,0,0,0,0,0,0,0,0,0,0,0,0,0,0,0,0,0,0,0,0,0,0,0,0,0,0,0,0,0,0,0,0,0,0,0,0,0,0,0,0,0],"sum_hessian":[7.241E3,6.893E3,3.48E2,3.342E3,3.551E3,2.84E2,6.4E1,3.099E3,2.43E2,2.458E3,1.093E3,8.7E1,1.97E2,1.3E1,5.1E1,2E1,3.079E3,1.32E2,1.11E2,1.29E3,1.168E3,7.6E1,1.017E3,4.3E1,4.4E1,1.85E2,1.2E1,2.2E1,2.9E1,1E1,1E1,1.66E3,1.419E3,1E1,1.22E2,9.3E1,1.8E1,1.252E3,3.8E1,9.43E2,2.25E2,4E1,3.6E1,8.47E2,1.7E2,1.6E1,2.7E1,2.9E1,1.5E1,1.33E2,5.2E1,1E1,1.2E1,1.3E1,1.6E1,1.5E1,1.645E3,6.2E1,1.357E3,9.2E1,3E1,2.1E1,7.2E1,1.17E2,1.135E3,2.5E1,1.3E1,4.74E2,4.69E2,2.1E2,1.5E1,3E1,1E1,2.1E1,1.5E1,3.09E2,5.38E2,1.7E1,1.53E2,1.2E1,1.5E1,1.6E1,1.3E1,4.2E1,9.1E1,1.1E1,4.1E1,1.01E3,6.35E2,2.7E1,3.5E1,1.5E1,1.342E3,1E1,8.2E1,1.5E1,1.5E1,1.1E1,1E1,2.9E1,4.3E1,2E1,9.7E1,9.6E2,1.75E2,1.5E1,1E1,7.4E1,4E2,1.2E1,4.57E2,1.5E1,1.95E2,1E1,2E1,1E1,1.1E1,1.1E1,2.98E2,6.8E1,4.7E2,6.3E1,9E1,1E1,3.2E1,1.1E1,8E1,2E1,2.1E1],"tree_param":{"num_deleted":"0","num_feature":"80","num_nodes":"129","size_leaf_vector":"1"}},{"base_weights":[-2.3358697E-2,2.011447E0,-1.4875215E0,1.5047961E0,1.5601656E1,-1.5570194E0,8.972216E0,7.663977E-1,5.211792E0,2.1157675E1,1.5727503E0,-1.7300493E0,2.2857825E-1,8.320906E-1,6.1043035E-3,6.6688514E0,4.8247418E-1,6.691983E-1,7.6975827E0,1.0505671E1,2.5991287E1,-6.249923E-2,2.5264853E-1,1.8585274E-1,-1.8822533E0,-1.7204173E0,1.9230313E0,8.934084E0,-1.1078225E-1,-8.958863E-1,1.1066636E0,8.579896E0,-4.7650188E-1,1.760779E1,5.975808E0,2.0768379E-1,5.423609E-1,2.0698475E1,1.7830747E0,-1.9168197E0,5.0045815E0,-9.8628354E-1,-2.113389E0,1.0597453E0,-2.3849766E0,2.858408E0,-2.6951742E0,1.3034926E1,4.317708E0,1.16177976E-1,-1.4276238E-1,-1.8438548E-1,-1.6527553E0,9.0077096E-1,6.6828055E0,5.658252E-1,7.1381904E-2,-1.5976638E0,2.808354E0,1.3955194E0,9.813876E0,9.801346E0,2.4854393E0,1.0512927E0,1.479781E1,-2.7986662E0,1.0334883E0,4.5945135E-1,1.2662858E1,-1.5579087E0,9.722004E-1,-1.155407E0,-2.3025339E0,-1.1707163E0,2.3535493E-1,-1.9303436E0,-1.4423868E-1,6.1112714E0,1.671175E0,-3.7476454E-2,-1.4464982E-1,8.342618E-1,3.5046053E-1,6.90859E-2,4.1939804E-1,-4.7425583E-2,4.9294535E-2,-8.027278E-2,1.19328946E-1,-1.12716265E-1,4.7600087E-2,6.624999E-2,4.475897E-1,-8.030123E-2,3.959857E-2,2.953977E-1,-9.4500065E-2,1.5082228E-1,6.4281E-1,1.0138723E-1,4.776719E-1,4.9104355E-2,6.4513624E-1,2.4449618E-1,8.9445716E-1,-1.2233559E-1,-2.474859E-2,8.9782976E-2,-5.4136038E-2,2.0169054E-1,-3.702486E-2,7.392242E-1,3.1160292E-1,-6.8914965E-2,2.3814346E-1,2.6358983E-1,1.1425238E-2,-7.990592E-2,4.375612E-2,-1.03720814E-1,-6.982462E-2,1.7009873E-2,-1.03309534E-1,-8.9025766E-2,1.794388E-2,4.674295E-1,8.804582E-2,2.5959712E-1,3.371203E-2],"categories":[],"categories_nodes":[],"categories_segments":[],"categories_sizes":[],"default_left":[0,0,0,0,0,0,0,0,0,0,0,0,0,0,0,0,0,0,0,0,0,0,0,0,0,0,0,0,0,0,0,0,0,0,0,0,0,0,0,0,0,0,0,0,0,0,0,0,0,0,0,0,0,0,0,0,0,0,0,0,0,0,0,0,0,0,0,0,0,0,0,0,0,0,0,0,0,0,0,0,0,0,0,0,0,0,0,0,0,0,0,0,0,0,0,0,0,0,0,0,0,0,0,0,0,0,0,0,0,0,0,0,0,0,0,0,0,0,0,0,0,0,0,0,0,0,0,0,0],"id":11,"left_children":[1,3,5,7,9,11,13,15,17,19,21,23,25,-1,-1,27,29,31,33,35,37,-1,-1,39,41,43,45,47,49,51,53,55,57,59,61,-1,-1,63,-1,65,67,69,71,73,75,77,79,81,83,-1,-1,85,87,89,91,-1,-1,93,95,-1,97,99,101,-1,103,105,107,109,111,113,115,117,119,121,-1,123,-1,125,127,-1,-1,-1,-1,-1,-1,-1,-1,-1,-1,-1,-1,-1,-1,-1,-1,-1,-1,-1,-1,-1,-1,-1,-1,-1,-1,-1,-1,-1,-1,-1,-1,-1,-1,-1,-1,-1,-1,-1,-1,-1,-1,-1,-1,-1,-1,-1,-1,-1,-1],"loss_changes":[2.1608402E4,2.0870412E4,3.0776943E3,8.006467E3,8.4551875E3,1.2956006E3,2.893658E3,4.087476E3,5.4803867E3,3.7430664E3,4.8326944E2,1.1149824E3,1.2283053E3,0E0,0E0,1.7225479E3,2.0064615E3,1.5735138E3,5.250379E3,3.450354E2,4.27416E3,0E0,0E0,2.8668274E3,7.303203E2,3.223086E2,8.668783E2,1.531145E3,3.1020752E2,3.9072595E2,1.8349683E3,7.9681335E2,5.636395E2,5.814003E3,3.5648623E3,0E0,0E0,1.0135879E3,0E0,5.156435E2,2.9831792E3,8.1656104E2,5.062881E2,3.7181638E2,6.897394E1,6.291847E2,5.0074936E1,1.2850571E3,6.3205634E2,0E0,0E0,5.314158E2,5.722907E2,1.644552E3,1.2611846E3,0E0,0E0,1.2110242E2,9.341177E2,0E0,1.1762007E3,1.9266484E3,2.4113735E3,0E0,1.3607119E3,8.035889E1,1.3500916E2,3.5247888E2,7.57959E2,6.841079E2,6.3126996E2,8.7750995E2,3.6777832E2,5.5236485E1,0E0,7.273801E1,0E0,9.257899E2,4.832914E2,0E0,0E0,0E0,0E0,0E0,0E0,0E0,0E0,0E0,0E0,0E0,0E0,0E0,0E0,0E0,0E0,0E0,0E0,0E0,0E0,0E0,0E0,0E0,0E0,0E0,0E0,0E0,0E0,0E0,0E0,0E0,0E0,0E0,0E0,0E0,0E0,0E0,0E0,0E0,0E0,0E0,0E0,0E0,0E0,0E0,0E0,0E0,0E0,0E0,0E0],"parents":[2147483647,0,0,1,1,2,2,3,3,4,4,5,5,6,6,7,7,8,8,9,9,10,10,11,11,12,12,15,15,16,16,17,17,18,18,19,19,20,20,23,23,24,24,25,25,26,26,27,27,28,28,29,29,30,30,31,31,32,32,33,33,34,34,37,37,39,39,40,40,41,41,42,42,43,43,44,44,45,45,46,46,47,47,48,48,51,51,52,52,53,53,54,54,57,57,58,58,60,60,61,61,62,62,64,64,65,65,66,66,67,67,68,68,69,69,70,70,71,71,72,72,73,73,75,75,77,77,78,78],"right_children":[2,4,6,8,10,12,14,16,18,20,22,24,26,-1,-1,28,30,32,34,36,38,-1,-1,40,42,44,46,48,50,52,54,56,58,60,62,-1,-1,64,-1,66,68,70,72,74,76,78,80,82,84,-1,-1,86,88,90,92,-1,-1,94,96,-1,98,100,102,-1,104,106,108,110,112,114,116,118,120,122,-1,124,-1,126,128,-1,-1,-1,-1,-1,-1,-1,-1,-1,-1,-1,-1,-1,-1,-1,-1,-1,-1,-1,-1,-1,-1,-1,-1,-1,-1,-1,-1,-1,-1,-1,-1,-1,-1,-1,-1,-1,-1,-1,-1,-1,-1,-1,-1,-1,-1,-1,-1,-1,-1],"split_conditions":[4.2064747E-1,2.21E0,2.7E0,6.3E-1,1.0244957E0,8.3E-1,2.4923253E2,-1.41E0,1.5374893E2,4.7597286E-1,1.7271831E0,-1.03E0,2.3909872E-2,8.320906E-1,6.1043035E-3,2.3646991E0,-1.33E-1,2.1637075E1,2.881998E-1,2.2397629E1,8.935211E-1,-6.249923E-2,2.5264853E-1,-2.5E-1,4.6102244E-1,-2.3390955E1,1.2379781E2,-9.3E-1,1.5909762E0,5.2677E0,6.7351854E-1,4.766086E0,2.0053967E2,2.4554184E1,4.8E-1,2.0768379E-1,5.423609E-1,7.4811137E-1,1.7830747E0,3.617321E-2,2.6488153E1,2.2E-1,-1.87E-1,2.3365002E1,1.24698166E2,8.7E-1,4.312717E-1,7.5317854E-1,2.0760857E-1,1.16177976E-1,-1.4276238E-1,-1.81E-1,1.0845045E1,-9.8E-1,4.087407E0,5.658252E-1,7.1381904E-2,-1.2415819E-1,9.692087E1,1.3955194E0,2.2821405E1,7.3E-1,3.032957E1,1.0512927E0,8.7774265E-1,3.36334E-1,2.0539777E-1,1.0999742E2,-1.742774E1,2.21427E0,2.496607E1,3.4296225E2,1E-2,2.2389262E2,2.3535493E-1,1.4284967E1,-1.4423868E-1,2.2799268E2,-8.8763463E-1,-3.7476454E-2,-1.4464982E-1,8.342618E-1,3.5046053E-1,6.90859E-2,4.1939804E-1,-4.7425583E-2,4.9294535E-2,-8.027278E-2,1.19328946E-1,-1.12716265E-1,4.7600087E-2,6.624999E-2,4.475897E-1,-8.030123E-2,3.959857E-2,2.953977E-1,-9.4500065E-2,1.5082228E-1,6.4281E-1,1.0138723E-1,4.776719E-1,4.9104355E-2,6.4513624E-1,2.4449618E-1,8.9445716E-1,-1.2233559E-1,-2.474859E-2,8.9782976E-2,-5.4136038E-2,2.0169054E-1,-3.702486E-2,7.392242E-1,3.1160292E-1,-6.8914965E-2,2.3814346E-1,2.6358983E-1,1.1425238E-2,-7.990592E-2,4.375612E-2,-1.03720814E-1,-6.982462E-2,1.7009873E-2,-1.03309534E-1,-8.9025766E-2,1.794388E-2,4.674295E-1,8.804582E-2,2.5959712E-1,3.371203E-2],"split_indices":[40,72,66,66,7,16,31,62,30,42,56,65,49,0,0,57,19,25,40,1,8,0,0,16,40,54,37,71,58,54,9,57,29,0,70,0,0,42,0,9,61,16,79,1,5,16,39,43,9,0,0,77,56,71,58,0,0,61,30,0,1,16,28,0,42,45,50,37,54,41,0,30,15,4,0,54,0,32,50,0,0,0,0,0,0,0,0,0,0,0,0,0,0,0,0,0,0,0,0,0,0,0,0,0,0,0,0,0,0,0,0,0,0,0,0,0,0,0,0,0,0,0,0,0,0,0,0,0,0],"split_type":[0,0,0,0,0,0,0,0,0,0,0,0,0,0,0,0,0,0,0,0,0,0,0,0,0,0,0,0,0,0,0,0,0,0,0,0,0,0,0,0,0,0,0,0,0,0,0,0,0,0,0,0,0,0,0,0,0,0,0,0,0,0,0,0,0,0,0,0,0,0,0,0,0,0,0,0,0,0,0,0,0,0,0,0,0,0,0,0,0,0,0,0,0,0,0,0,0,0,0,0,0,0,0,0,0,0,0,0,0,0,0,0,0,0,0,0,0,0,0,0,0,0,0,0,0,0,0,0,0],"sum_hessian":[7.251E3,3.034E3,4.217E3,2.926E3,1.08E2,4.19E3,2.7E1,2.441E3,4.85E2,7.7E1,3.1E1,3.82E3,3.7E2,1.1E1,1.6E1,1.11E2,2.33E3,1.72E2,3.13E2,2.5E1,5.2E1,1.9E1,1.2E1,2.81E2,3.539E3,1.72E2,1.98E2,8.3E1,2.8E1,7.26E2,1.604E3,2.1E1,1.51E2,4.5E1,2.68E2,1E1,1.5E1,4.2E1,1E1,1.96E2,8.5E1,7.27E2,2.812E3,3.3E1,1.39E2,1.65E2,3.3E1,4.3E1,4E1,1.5E1,1.3E1,3.75E2,3.51E2,1.548E3,5.6E1,1.1E1,1E1,1.13E2,3.8E1,1.3E1,3.2E1,1.27E2,1.41E2,2E1,2.2E1,1.51E2,4.5E1,5.4E1,3.1E1,5.63E2,1.64E2,4.65E2,2.347E3,2.3E1,1E1,1.03E2,3.6E1,4.3E1,1.22E2,1.2E1,2.1E1,1.4E1,2.9E1,2.9E1,1.1E1,2.2E2,1.55E2,3.27E2,2.4E1,1.1E2,1.438E3,2.7E1,2.9E1,9.8E1,1.5E1,2E1,1.8E1,1.7E1,1.5E1,2.9E1,9.8E1,1.3E2,1.1E1,1.1E1,1.1E1,1.35E2,1.6E1,3E1,1.5E1,1.2E1,4.2E1,1.3E1,1.8E1,5.52E2,1.1E1,1.7E1,1.47E2,3.39E2,1.26E2,1.559E3,7.88E2,1.1E1,1.2E1,9.2E1,1.1E1,1.7E1,2.6E1,1.7E1,1.05E2],"tree_param":{"num_deleted":"0","num_feature":"80","num_nodes":"129","size_leaf_vector":"1"}},{"base_weights":[-6.108167E-3,-8.5239506E-1,3.2413998E0,-1.8626922E0,1.9006892E-1,2.8570766E0,2.0128893E1,1.6974612E-1,-1.9043455E0,4.7997565E0,-7.671463E-2,7.326869E-2,4.486496E0,2.8986591E1,1.7230386E-1,-2.3007917E0,-1.4277512E0,2.203427E0,1.3254093E1,-5.5739206E-1,2.3895872E0,-5.538887E-1,4.431393E0,6.09647E0,-1.0106488E0,1.601895E0,6.2135684E-1,-2.3539352E0,1.2166559E0,8.997348E-2,-1.776573E0,4.560594E0,-1.3721766E0,7.6810664E-1,3.0488926E-1,2.5937397E0,-8.6114156E-1,5.7647567E0,3.776425E-1,4.4022232E-1,-2.357199E0,4.834903E-1,2.2356958E0,2.8779097E0,8.605961E0,-2.0610967E0,1.1942128E0,-1.3650115E0,-2.5260828E0,-8.865222E-2,2.2055335E-1,-1.0268544E0,4.496273E0,2.8190613E0,-1.8806492E0,1.838072E0,1.0668239E1,2.6254656E-2,-2.2334917E0,6.8828773E-1,1.7208931E0,-3.0906111E-2,-1.4365587E0,1.1038061E0,7.385753E0,2.1894948E0,-8.7554663E-1,2.8028342E-1,1.0138199E-1,9.224384E-3,-2.6708732E0,-1.5596678E0,8.294887E0,5.591859E-1,5.738426E0,7.4588485E0,2.5498842E1,2.0160758E-1,-2.8340425E0,-9.9240917E-1,4.7783546E0,-7.463023E-2,8.123872E-2,-4.8929527E-2,-1.0415248E-1,1.7924269E-1,-6.57547E-2,3.929099E-2,4.5214847E-1,-3.69632E-2,2.9526746E-1,-1.04331784E-1,-6.414406E-2,2.8358966E-1,1.5628597E-2,7.003442E-1,1.4330517E-1,-1.1570272E-1,-4.3555744E-2,2.3536865E-2,2.5161797E-1,-1.09171225E-2,2.196743E-1,-1.032468E-1,-4.1554872E-2,2.86934E-1,-4.7526695E-2,1.8975078E-1,5.048668E-1,2.0083335E-1,-0E0,-6.478079E-2,7.409167E-2,-1.1668559E-2,1.6552667E-1,-1.1847713E-1,-6.782541E-2,4.0437024E-2,-1.140534E-1,4.6545982E-1,1.7010002E-1,-2.2839881E-2,2.033648E-1,1.0868772E-1,4.277314E-1,3.7194481E-1,1.2071874E-1,5.61896E-1,1.2946038E0,-1.172028E-1,7.3230565E-2,-6.2634826E-2,-1.2943108E-1,2.321254E-2,-1.4847347E-1,-1.8227173E-2,4.3977976E-1],"categories":[],"categories_nodes":[],"categories_segments":[],"categories_sizes":[],"default_left":[0,0,0,0,0,0,0,0,0,0,0,0,0,0,0,0,0,0,0,0,0,0,0,0,0,0,0,0,0,0,0,0,0,0,0,0,0,0,0,0,0,0,0,0,0,0,0,0,0,0,0,0,0,0,0,0,0,0,0,0,0,0,0,0,0,0,0,0,0,0,0,0,0,0,0,0,0,0,0,0,0,0,0,0,0,0,0,0,0,0,0,0,0,0,0,0,0,0,0,0,0,0,0,0,0,0,0,0,0,0,0,0,0,0,0,0,0,0,0,0,0,0,0,0,0,0,0,0,0,0,0,0,0,0,0,0,0],"id":12,"left_children":[1,3,5,7,9,11,13,-1,15,17,19,21,23,25,-1,27,29,31,33,35,37,39,41,43,45,-1,-1,47,49,51,53,55,57,-1,-1,59,61,63,65,67,69,-1,71,73,75,77,79,81,83,-1,-1,85,87,89,91,93,95,-1,97,-1,99,101,103,105,107,109,111,-1,113,-1,115,117,119,121,123,125,127,129,131,133,135,-1,-1,-1,-1,-1,-1,-1,-1,-1,-1,-1,-1,-1,-1,-1,-1,-1,-1,-1,-1,-1,-1,-1,-1,-1,-1,-1,-1,-1,-1,-1,-1,-1,-1,-1,-1,-1,-1,-1,-1,-1,-1,-1,-1,-1,-1,-1,-1,-1,-1,-1,-1,-1,-1,-1,-1],"loss_changes":[1.9795363E4,6.0186895E3,9.602859E3,7.437178E2,3.4608765E3,6.607296E3,4.4949443E3,0E0,5.406387E2,3.3475757E3,3.1541885E3,1.4764177E3,8.1401953E3,2.4889004E3,0E0,2.9687402E2,6.951455E2,1.0094113E3,1.0517329E3,2.1332524E3,2.9432424E3,8.475486E2,1.1075945E3,5.7157676E3,4.865427E2,0E0,0E0,2.5941992E2,3.6386444E2,1.2156725E3,5.1516943E2,1.1746235E3,8.5507774E1,0E0,0E0,2.4576982E3,9.7032214E2,1.2137256E3,6.2194324E2,6.739551E2,1.3749835E2,0E0,1.254956E3,2.0711274E3,7.540504E3,